#ifndef CONV3_WEIGHT_H
#define CONV3_WEIGHT_H

double conv3_weight[16][6][5][5] = {
  {
    {
      { 0.0351195931, -0.2413502485, -0.2064541429, -0.1148640811, 0.0262446105 },
      { -0.0462833382, -0.1886249483, -0.3044444025, -0.5361639857, -0.2583509386 },
      { 0.0142554613, -0.2383131385, -0.6273779869, -0.6278661489, -0.1112738624 },
      { -0.0003232859, -0.1110501960, -0.4246821105, -0.1270173937, 0.2752739489 },
      { 0.0743457973, 0.0567805804, 0.0022714648, 0.2035371810, 0.2265312225 }
    },
    {
      { 0.0666846260, -0.0179142915, -0.0429497510, -0.0119651165, -0.0755954459 },
      { -0.0697886273, 0.0375323147, -0.0075399438, 0.0185843091, -0.0755633712 },
      { -0.0421916097, -0.0345656648, -0.0093127079, -0.0203075185, -0.0872839913 },
      { -0.0591245294, 0.0203704722, 0.0679576546, 0.0298362076, -0.0337696373 },
      { -0.0267973375, 0.0708008856, 0.0282483473, 0.0237601064, 0.0378037579 }
    },
    {
      { -0.0493187457, -0.0836141482, -0.0806762353, 0.0791994855, 0.0529247113 },
      { -0.2457481325, -0.2431590259, -0.2855399549, -0.2582693696, -0.2352563441 },
      { -0.1190016195, -0.3053970337, -0.6832737327, -0.3100343049, 0.0170642696 },
      { -0.0976640284, -0.4314469993, -0.3402385116, 0.0202314034, 0.1312650889 },
      { 0.0753838196, -0.0200466737, 0.2161643505, 0.3459339142, 0.1274782568 }
    },
    {
      { 0.0842275247, -0.1402748078, -0.0327023752, 0.3194994628, 0.1550531238 },
      { -0.0585796796, -0.1167304590, 0.1094802916, 0.4138941169, -0.0367109478 },
      { 0.0258092862, 0.0563005619, 0.2731123269, 0.0848980099, -0.0688107759 },
      { 0.0472309701, 0.1259130090, -0.4720030427, -0.0253780112, 0.6211366057 },
      { -0.0876367614, -0.1628259718, -0.2017763108, 0.2642580867, 0.1938080937 }
    },
    {
      { 0.4696946144, 0.1976869106, 0.1055699885, 0.3458150029, 0.2483763248 },
      { 0.4161815941, 0.1832010895, 0.2522319257, 0.2421626300, 0.2399307191 },
      { 0.1739360988, 0.1595561206, -0.1270434558, -0.1880168319, 0.0558024049 },
      { 0.1813339740, 0.2594941258, -0.3507958055, -0.2609856129, 0.2685748935 },
      { 0.1193287745, 0.2693530619, -0.2249520570, 0.2326783240, 0.2588254511 }
    },
    {
      { -0.0017529095, -0.0745211691, 0.0047160583, 0.0411964655, 0.1967934221 },
      { -0.0630783737, -0.2526799440, -0.0645395517, 0.2532018423, 0.1199177653 },
      { -0.0035493313, 0.0010191345, 0.1762864739, -0.0552635193, -0.6420853138 },
      { -0.0119606825, 0.1101397872, -0.5783808827, -0.6910119057, 0.0334735960 },
      { -0.2380330414, -0.2974066436, -0.4306996167, 0.0779466331, 0.1618069261 }
    }
  },
  {
    {
      { 0.1360012144, 0.0690690279, -0.0227232799, -0.1461301148, -0.0027719869 },
      { 0.1129312366, 0.1921596080, 0.1716972888, -0.2443843782, -0.3919595778 },
      { 0.0096778432, 0.1605811864, 0.2057972848, 0.0514037237, -0.1254771948 },
      { -0.0753297284, -0.0150205409, 0.1330337077, 0.1210319251, 0.1687275469 },
      { -0.1069676727, -0.0885138884, -0.1422016621, -0.0153177595, 0.0390109494 }
    },
    {
      { -0.0854609385, -0.0340551175, 0.0433666743, 0.0513477810, 0.0629213676 },
      { 0.0154941035, -0.0380905010, 0.0030842780, -0.0441968031, -0.0013293601 },
      { -0.0718749911, -0.0317556784, -0.0790699646, -0.0124917151, -0.0555729233 },
      { -0.0822073221, -0.0111041702, 0.0652202964, 0.0301468223, -0.0759913996 },
      { 0.0006951585, -0.0745781884, -0.0878111348, -0.0057751746, 0.0082562584 }
    },
    {
      { 0.0604816899, -0.0547665507, -0.1313242018, 0.0778897032, 0.0351830795 },
      { 0.2628134191, 0.0977400765, -0.2603281140, -0.3221329749, -0.1740455925 },
      { 0.1780541986, 0.1527901739, -0.0517977998, -0.3108995557, -0.3693192303 },
      { -0.0501903333, 0.0951249450, 0.2432244569, 0.1537232101, -0.0592806824 },
      { -0.1118114367, 0.0714517981, 0.0439893417, 0.0579942428, -0.0605696850 }
    },
    {
      { -0.1271732152, -0.0791651532, 0.0713435709, 0.1540235877, -0.0645140335 },
      { -0.1879448444, -0.2614429593, -0.1401881576, -0.1540805250, -0.2384351790 },
      { 0.0397972912, -0.2189556956, -0.4279549420, -0.4447608888, -0.2080467045 },
      { -0.3374503553, 0.0339484066, 0.1063410267, 0.0864700228, 0.0041624322 },
      { 0.1091046482, 0.3662646413, 0.2608084977, 0.0260785073, 0.0368843861 }
    },
    {
      { -0.1152472049, -0.1279297024, -0.0797502026, -0.1398360282, 0.0719173029 },
      { -0.1578613222, -0.0767979920, -0.0249783657, -0.0901427343, -0.0202232487 },
      { -0.1041160524, -0.4639671743, -0.2656956911, -0.0873406157, 0.1506305784 },
      { -0.1570812166, -0.7027068734, -0.2373573482, 0.1450148225, 0.2988378108 },
      { -0.0253029726, -0.0988395512, -0.1601271331, 0.0735379159, 0.1525267363 }
    },
    {
      { 0.0774887651, 0.0491423085, 0.1236879379, 0.1161428094, -0.0002640076 },
      { -0.0795309022, -0.1731223762, 0.2251880020, 0.7261694670, 0.3107993603 },
      { 0.1714820564, 0.2425343692, -0.2147756070, -0.3004823923, -0.0678087696 },
      { -0.0107617369, 0.1198536456, 0.2035986483, 0.2210266292, 0.0168237668 },
      { 0.0078831911, 0.1899533868, 0.1554640979, 0.1814678609, -0.0600979552 }
    }
  },
  {
    {
      { -0.0277024955, 0.1124807894, 0.2437492609, 0.1259472370, 0.0228107981 },
      { -0.0347355716, 0.1200707480, 0.0671764687, 0.0791377351, -0.0782986134 },
      { -0.1261926144, 0.0334100723, 0.1444652528, 0.0785982311, -0.0800822824 },
      { -0.0856354907, -0.1595078856, -0.0788459927, 0.1346814781, -0.0645321086 },
      { 0.0458079912, -0.1606466919, -0.3362779021, -0.1232980043, -0.0377941616 }
    },
    {
      { 0.0023165660, -0.0629591346, -0.0160472672, -0.0537853539, 0.0723547116 },
      { 0.0592923537, 0.0449731164, -0.0571067147, 0.0786100850, 0.0685049742 },
      { -0.0901027620, 0.0505296886, 0.0675249174, 0.0703689307, 0.0685920566 },
      { -0.0840354711, 0.0285654496, 0.0124688623, 0.0699740127, -0.0258955378 },
      { 0.0629689768, -0.0408983715, -0.0073676347, -0.0353372134, 0.0039958032 }
    },
    {
      { 0.1929586530, 0.1326760948, 0.1068624258, -0.0706702098, -0.1633165032 },
      { 0.1270842254, 0.1188482568, 0.0241805073, 0.0818788037, -0.0145297218 },
      { 0.0655630082, 0.1744504422, 0.0893200412, -0.0472491309, -0.1370244026 },
      { -0.0274550524, 0.0818870962, 0.0880804732, -0.0674941540, -0.2234531939 },
      { -0.2194187045, -0.2915983498, 0.0330699310, 0.0238832664, -0.1690971106 }
    },
    {
      { 0.1296943724, 0.0382849015, -0.0696448311, -0.0670845658, -0.0977773443 },
      { -0.0753581896, 0.0055432818, -0.0123346746, 0.0114639001, -0.0572978705 },
      { -0.1349439621, -0.1825061738, -0.1854952127, 0.1284473389, 0.2172366232 },
      { -0.1272319704, -0.0207962189, -0.0631213412, -0.0004059822, 0.1405144632 },
      { -0.0692803338, -0.0033100036, 0.0606207363, 0.0834283009, 0.0990043506 }
    },
    {
      { -0.2341610789, -0.2675860226, -0.2653870881, -0.2667653859, 0.0528963022 },
      { -0.1207996383, -0.1219931990, -0.2469316125, -0.2742431462, -0.0077393008 },
      { 0.2287286818, -0.0768751875, -0.0991459563, -0.1843139231, 0.1169533208 },
      { 0.1525728703, -0.3890694082, -0.4118341208, -0.1911898255, -0.0347979665 },
      { -0.0130731370, -0.3204898238, -0.2341152579, -0.2422330678, 0.0603261441 }
    },
    {
      { 0.2199387997, 0.0547885001, -0.1377088577, -0.0085923485, -0.0010098509 },
      { -0.0588979200, -0.1464006752, -0.1309086233, 0.0542259254, -0.1019926295 },
      { -0.1024005339, -0.1477432549, -0.2438999712, -0.0140431635, 0.1259196401 },
      { 0.1423687786, 0.1466495842, -0.0668234378, -0.1062086746, 0.0920722410 },
      { -0.0485384688, 0.2301314771, 0.3785247803, 0.1959634274, 0.0478346124 }
    }
  },
  {
    {
      { -0.1525860131, -0.5120510459, -0.5542321205, -0.3456705213, -0.2202116102 },
      { -0.1000900790, -0.5165222883, -0.6049820185, -0.6957363486, -0.4060470760 },
      { 0.1524477899, -0.0480329171, -0.0838488936, -0.1131782979, -0.0503059402 },
      { 0.1600208879, 0.3036431074, 0.1436139941, 0.0048785112, 0.0564748794 },
      { 0.1079063714, 0.2326083779, 0.2924819291, 0.2062908411, 0.1256683469 }
    },
    {
      { 0.0739376694, 0.0432692505, 0.0412552543, -0.0305684302, 0.0468306877 },
      { -0.0246490389, -0.0535663180, 0.0833091736, -0.0035800985, 0.0031525737 },
      { -0.0180006400, -0.0119470377, 0.0905854851, 0.0170859471, 0.0253866632 },
      { 0.0426540077, -0.0004937932, -0.0001201652, 0.0479646549, -0.0598760881 },
      { 0.0145525755, 0.0842760652, 0.0437125862, -0.0368876047, -0.0225860439 }
    },
    {
      { -0.1667612046, -0.3040099144, -0.0463087559, 0.0977284461, 0.2240442485 },
      { -0.5325366855, -0.8265789747, -0.7257775068, -0.5125059485, -0.2813288271 },
      { -0.1159781069, -0.2208336890, -0.1526540816, -0.1122298688, -0.1407297701 },
      { 0.1937382966, 0.1815301478, 0.0494774096, 0.1116169468, -0.0455931686 },
      { 0.2736234367, 0.2608796358, 0.1244832501, 0.1503714323, 0.1031925529 }
    },
    {
      { 0.1017197520, 0.0773676932, 0.1327401102, 0.2105801255, 0.4391480088 },
      { 0.0635082126, -0.0069729798, -0.0428943597, 0.1353875101, 0.1969565153 },
      { -0.2957509756, -0.4562715590, -0.3947888911, -0.3486215472, 0.2045101672 },
      { -0.0695505887, 0.0348032564, 0.0586213022, 0.1921233684, 0.2091163844 },
      { -0.0971480906, 0.0449557602, -0.0224305242, -0.0857798830, -0.0295544825 }
    },
    {
      { 0.1540844440, 0.0758689269, 0.1232528910, -0.1633419394, -0.2151868194 },
      { 0.0132761849, -0.2800155282, -0.3989789486, -0.4433040023, -0.3686891198 },
      { -0.1940487325, -0.3114842474, -0.1885349602, -0.2421020120, -0.1376643926 },
      { -0.2209339142, -0.1190187633, -0.0940450951, -0.1131706014, 0.1261907965 },
      { 0.0792997703, 0.0816853568, -0.0109682456, -0.0019949269, -0.1273627132 }
    },
    {
      { 0.1396849304, 0.2222446054, 0.1543969661, 0.2279578149, 0.4044312239 },
      { 0.3000137806, 0.2492517680, 0.4015237391, 0.5459906459, 0.5470142365 },
      { -0.1108455658, -0.1387578398, -0.2924198508, -0.3121434748, 0.0101531865 },
      { -0.0087736826, 0.2273578644, 0.3426773846, 0.5202438235, 0.4453059435 },
      { -0.0290560815, -0.1376006454, -0.0382044092, -0.0130441990, -0.0124761425 }
    }
  },
  {
    {
      { 0.1799623668, -0.3059757650, -0.3454184830, 0.0944768190, 0.1239931136 },
      { -0.1745445579, -0.1242887303, 0.1295045763, 0.2022512257, 0.0625100434 },
      { 0.0252688117, 0.0406767651, 0.2161933631, 0.0287328400, -0.0965866372 },
      { 0.0708154142, 0.1758636236, 0.0717898384, -0.0483506434, 0.0369350836 },
      { -0.0421797521, 0.0211110227, -0.1714653522, 0.0060326178, 0.0311963540 }
    },
    {
      { 0.0512151867, -0.0082198214, 0.0226421487, 0.0703349933, 0.0324145183 },
      { -0.0408882536, -0.0800173432, 0.0310698971, 0.0804687515, -0.0609619655 },
      { 0.0148437228, 0.0352719538, -0.0704356879, 0.0484516919, 0.0044333828 },
      { -0.0695986524, -0.0418792516, 0.0412527248, 0.0053624231, -0.0298679918 },
      { -0.0606119856, 0.0381861739, 0.0499669947, -0.0692631677, 0.0411112159 }
    },
    {
      { 0.0098823262, -0.3955653608, -0.2301098108, 0.0432673320, 0.0375530608 },
      { -0.2381572127, -0.0354030728, 0.1541329324, 0.1882035285, 0.1209626421 },
      { 0.0449700654, 0.1882158071, 0.2317527384, 0.0488595776, -0.0844608843 },
      { 0.0742502734, 0.1293020248, -0.0098291263, 0.0112770470, -0.1147341728 },
      { 0.1127788201, 0.0513833761, 0.0658064410, -0.0672174320, -0.1168983951 }
    },
    {
      { 0.3565493524, 0.1000785977, -0.2944539487, -0.0913532227, 0.1346873641 },
      { 0.2404824346, -0.5562717319, -0.0150615582, 0.3591120541, 0.2523969710 },
      { -0.1758660078, 0.0787972063, 0.2960181534, 0.2385642529, -0.0220731366 },
      { -0.0395978689, -0.0954314321, -0.2535535097, -0.2936874926, -0.1144987196 },
      { 0.0736998543, -0.1001773104, -0.1065276712, 0.0766726136, 0.0332158543 }
    },
    {
      { 0.2822091281, 0.1997886598, -0.7352892756, -0.4222410917, -0.0646781623 },
      { -0.0883115679, -0.6072901487, -0.6680399179, -0.2154847831, -0.1061211303 },
      { -0.3183472753, -0.2732714415, -0.1290095747, -0.2070102245, -0.0193163101 },
      { -0.0031919018, 0.1081082076, -0.1764442325, -0.1413987726, 0.0846181735 },
      { -0.0132241417, 0.0332146436, -0.2006939799, -0.0682766438, 0.1658689976 }
    },
    {
      { 0.1540231407, -0.1564586163, -0.4381866455, -0.3872777224, 0.0953285471 },
      { 0.2448105961, -0.7322750688, -0.5648559928, 0.0750946626, 0.2603587210 },
      { -0.1957685053, -0.0724039897, 0.3506620526, 0.4448482990, 0.2843444943 },
      { -0.0130807543, 0.0909886286, 0.0186067093, -0.1713520586, -0.2398810536 },
      { 0.2306464016, -0.0084726959, 0.0066456124, -0.0732108355, -0.1036364362 }
    }
  },
  {
    {
      { -0.0676769540, -0.0443527997, -0.1555271745, -0.0741866454, 0.0484586880 },
      { -0.0606907494, 0.0091738300, -0.0729964003, -0.0480130501, -0.1723690331 },
      { 0.1434191167, 0.0279831737, -0.1072087586, -0.1949397326, -0.1336359084 },
      { 0.1213446483, 0.2199344635, 0.1784438938, 0.0293157715, 0.0252998360 },
      { -0.0864883587, 0.0622549765, 0.0709848553, 0.1242235079, 0.0550974719 }
    },
    {
      { 0.0013941738, -0.0527366027, 0.0237884521, 0.0728601664, 0.0002304860 },
      { 0.0255624354, 0.0583514497, 0.0062944000, -0.0649586245, -0.0207530130 },
      { 0.0175674465, 0.0495353863, -0.0180803034, 0.0273180977, -0.0126656899 },
      { 0.0569813773, 0.0684520230, -0.0114881294, -0.0726065636, 0.0293621402 },
      { -0.0823771358, 0.0066373241, -0.0324187689, -0.0485295504, 0.0409607776 }
    },
    {
      { -0.0845938995, -0.0380311944, -0.0121056018, -0.0747421533, -0.0775152296 },
      { -0.0436665863, 0.0341360569, 0.0601945445, -0.0096199820, -0.3065205812 },
      { -0.0022562318, -0.1651874185, -0.2518433630, -0.2420773357, -0.1881379932 },
      { 0.1667390019, 0.1365162581, 0.1171392426, -0.0303175636, 0.0228393637 },
      { 0.2086105049, 0.1709050089, 0.1262900531, 0.1585656404, 0.0111460369 }
    },
    {
      { 0.2460894138, 0.2079569995, 0.2006793916, 0.2310520560, 0.2773118317 },
      { -0.0021164978, 0.2905028164, 0.4531162083, 0.3528090417, 0.1030301526 },
      { -0.1886202991, -0.1899110824, -0.0132591613, -0.1922974437, -0.2028271556 },
      { 0.1035849378, -0.1812800616, -0.4508003294, -0.2149154842, 0.1366121322 },
      { 0.0622420050, 0.1333686858, -0.0269900281, 0.0101740658, -0.0125824893 }
    },
    {
      { -0.0081292503, -0.0407839380, -0.1865178496, -0.1625316143, -0.1544689685 },
      { 0.0338812172, 0.0432629362, -0.0783764124, -0.2568479776, -0.4239177406 },
      { -0.0675144121, -0.0191091746, -0.1026509330, -0.4009246528, -0.5176976919 },
      { -0.3376125395, -0.2493459135, -0.2637781203, -0.2434406132, -0.3502093256 },
      { -0.1887716800, -0.0975493491, -0.0113704186, -0.0819426104, -0.1470130533 }
    },
    {
      { 0.2562527061, 0.1172280982, 0.0533371605, 0.0393890254, 0.1961357892 },
      { 0.0323928967, 0.1142385751, 0.2692232430, 0.2908801138, 0.2510513663 },
      { -0.0296379868, 0.2368505597, 0.5399292111, 0.3850663602, 0.0927244574 },
      { 0.2368776500, -0.2062150687, -0.4667199254, -0.2135378420, 0.0079444759 },
      { 0.3832609355, 0.3165343702, 0.1379659176, 0.0606775619, 0.0844263136 }
    }
  },
  {
    {
      { -0.1540319026, -0.1898015290, 0.1380988061, 0.2022169232, -0.0779215544 },
      { -0.2787235379, -0.0502678119, 0.2664459944, 0.1004146412, -0.3086757362 },
      { -0.1543809623, 0.1542887390, 0.2169997245, -0.2660598159, -0.2083046734 },
      { 0.0536552034, 0.1356628239, -0.0820140019, -0.1532730162, -0.0511453934 },
      { -0.0035191230, -0.0998004526, -0.0478367358, -0.0200902410, 0.0988300443 }
    },
    {
      { 0.0747998208, -0.0317845866, -0.0664723217, -0.0008687331, 0.0131373787 },
      { 0.0248379707, 0.0524963103, -0.0091240760, -0.0718542263, -0.0331578702 },
      { 0.0351867527, 0.0398922525, -0.0572335795, 0.0352841243, 0.0022552868 },
      { 0.0164649282, -0.0373210125, -0.0282969270, -0.0507751964, 0.0306482781 },
      { 0.0683325082, 0.0802677497, -0.0308151357, -0.0275889561, 0.0134447357 }
    },
    {
      { -0.1598475277, -0.0936357304, 0.0910805389, 0.0630827844, -0.0617006645 },
      { -0.2829840183, 0.0875042230, 0.1871225238, -0.0659774691, -0.2348896414 },
      { 0.0530979559, 0.2743279934, -0.0267406460, -0.1969895363, -0.1791361272 },
      { 0.0809676647, 0.0484264791, -0.1742154360, -0.1091424227, 0.1091929674 },
      { 0.0259190053, 0.0285133924, -0.0866074339, 0.0090173632, 0.1165682524 }
    },
    {
      { 0.1960173249, -0.4128277004, -0.3283945918, 0.0963131711, 0.3023632765 },
      { -0.5188319087, -0.2649059892, 0.4201001227, 0.5537934899, -0.2610133588 },
      { -0.2438208759, 0.4082735181, 0.5146308541, 0.0638491809, -0.3152455986 },
      { 0.1494160742, 0.2188423127, -0.0004614590, -0.2948354483, 0.0646831095 },
      { 0.1282794625, -0.2300855815, -0.2617279589, -0.0812862292, -0.1603532135 }
    },
    {
      { 0.1821447611, -0.4181053042, 0.3215401173, 0.6012817025, 0.4695628583 },
      { -0.2992549539, -0.2813912630, 0.2590241432, 0.5203101635, 0.0613114834 },
      { -0.4863876998, 0.0279808324, 0.2660643756, 0.0799855515, -0.3722740114 },
      { -0.0273228902, 0.0740556046, 0.0730051547, -0.2125341743, -0.2837004960 },
      { -0.0406522043, -0.1340254098, -0.1247513667, -0.0978029221, 0.0925934836 }
    },
    {
      { 0.2823978961, -0.0800555199, -0.2838159800, -0.2448121458, 0.1799976379 },
      { -0.4831964970, -1.0761623383, -0.2147061378, 0.2193241268, -0.0455674678 },
      { -0.4070144594, -0.1248059198, 0.2207020521, 0.3319289982, -0.1869773716 },
      { 0.0173087940, 0.3168947995, 0.0471528098, -0.1204483584, -0.0676768646 },
      { 0.0691941977, 0.0754942968, -0.0567347780, 0.0360997729, 0.1586730331 }
    }
  },
  {
    {
      { -0.0179622117, 0.1030082032, 0.0849732235, 0.1568453461, -0.1260539144 },
      { -0.0876572430, 0.1187008545, 0.2697032392, 0.0397866666, -0.1311392039 },
      { -0.3057456017, 0.0073029376, 0.2191617191, -0.0373076983, -0.2230808139 },
      { -0.1361330599, -0.0271248743, 0.1915255189, -0.1025005728, 0.0116737476 },
      { -0.1097476557, -0.0534790456, 0.0530595183, -0.0401600264, 0.0491121486 }
    },
    {
      { 0.0013889447, -0.0149804223, 0.0753196701, -0.0576476268, 0.0180598255 },
      { -0.0249293447, 0.0753438622, 0.0150222816, -0.0293663796, 0.0710014030 },
      { -0.0373095199, 0.0983750746, 0.0729671046, 0.0421061404, 0.0094770659 },
      { -0.0282377061, -0.0472123064, -0.0761190802, 0.0087520266, 0.0123043992 },
      { 0.0285180211, -0.0388314575, 0.0583098792, 0.0451910235, 0.0525055937 }
    },
    {
      { 0.0879144147, 0.1269721538, 0.0440808572, 0.0685236007, -0.0328025520 },
      { 0.0012319651, 0.2513859868, 0.0676061884, -0.0712204427, -0.0311245844 },
      { 0.0005218065, 0.2345810533, 0.0090794601, -0.1919609308, 0.1520830691 },
      { -0.1172766909, 0.1423756331, 0.0290445853, -0.0727429837, 0.1003624871 },
      { -0.1409764439, 0.0349594764, 0.0074474616, -0.1057024002, -0.0231887084 }
    },
    {
      { -0.3264846802, -0.2331490219, 0.1403213590, 0.2878432274, 0.1186753809 },
      { -0.4069810510, -0.1928236634, 0.1012349576, 0.2087148279, 0.0134095158 },
      { -0.5766186118, -0.2049665004, -0.0804849043, 0.1271462888, 0.0285510141 },
      { -0.3520887196, -0.0492456108, 0.0419882797, -0.0646573305, 0.0076998933 },
      { 0.0027901772, -0.0666769221, -0.0554264374, 0.0666401461, -0.1457079947 }
    },
    {
      { 0.0143486038, 0.3877185285, 0.2166474462, 0.0159345306, -0.1839610338 },
      { 0.2347641587, 0.6846043468, 0.4002522528, 0.2135160267, -0.3330639303 },
      { 0.4060541391, 0.6370504498, 0.3965965509, 0.0799970254, -0.2394225895 },
      { 0.3013036847, 0.3182434440, 0.1863479167, -0.1719284654, 0.1145313606 },
      { 0.2320446223, -0.0204881541, -0.1382708549, -0.1446687579, 0.0632050857 }
    },
    {
      { -0.4114263952, -0.4718801379, -0.1616604924, 0.1667613983, -0.0259591844 },
      { -0.3015635312, -0.5924384594, -0.1773852855, 0.1532799900, -0.1172744632 },
      { -0.4966024160, -0.4238811731, -0.1123899668, 0.2129488885, 0.0150640309 },
      { -0.4493088126, -0.1925603300, -0.0383377038, 0.1269361675, 0.1247704476 },
      { -0.1153621674, 0.1169544533, 0.1632178873, 0.0763819963, 0.0145331314 }
    }
  },
  {
    {
      { 0.1424522698, 0.0354552232, -0.1113675311, -0.1622900665, -0.1632576883 },
      { 0.1744431108, 0.0772761926, 0.0862309188, 0.0169317909, -0.1524914503 },
      { 0.2404809445, 0.1640777737, 0.1514310837, 0.0206107236, 0.0106884148 },
      { 0.1468822062, -0.0551819429, 0.0325253382, -0.1093962118, -0.0563755259 },
      { 0.1385026276, -0.1458220333, -0.2501446903, -0.3178350329, -0.0914248005 }
    },
    {
      { -0.0528474450, 0.0593505725, -0.0085964464, -0.0347190015, -0.0578136370 },
      { -0.0549764149, 0.0106228320, 0.0645610690, -0.0039740247, -0.0795207694 },
      { -0.0766003951, 0.0098266061, -0.0408709534, -0.0547906943, -0.0664630681 },
      { -0.0599063598, -0.0171692204, -0.0051550511, -0.0673802570, 0.0145915560 },
      { 0.0695636645, -0.0519927889, -0.0844060332, -0.0947519243, 0.0678307787 }
    },
    {
      { -0.0410631821, -0.0580703020, -0.0261911191, -0.0388274118, 0.0061342595 },
      { 0.1319017112, -0.0138796233, -0.1387862712, -0.1943099648, -0.1899911761 },
      { 0.1321106106, 0.1836757064, 0.0998584852, 0.0511594862, -0.0044222428 },
      { 0.1319764256, 0.0934070051, -0.0095814969, 0.0764842257, 0.2058844417 },
      { 0.0424355567, -0.1246886924, -0.1488916576, -0.1682189554, -0.1429932117 }
    },
    {
      { 0.2012241334, -0.0277186204, -0.1041430458, 0.0172189455, 0.1904972941 },
      { 0.0089283455, -0.2649448514, -0.4490854442, -0.3638820350, -0.1963706762 },
      { 0.0661844537, 0.0864399597, -0.0409375429, -0.1733089536, -0.2075575143 },
      { 0.0741447955, 0.1902042031, 0.1811443567, 0.1167287156, 0.1868904531 },
      { -0.1463652700, -0.0575178824, -0.0142298443, 0.0644100532, 0.0837234259 }
    },
    {
      { -0.1713607609, -0.1226849481, 0.0130247725, 0.2460650653, 0.0694548860 },
      { -0.2243558913, -0.2987608910, -0.1482104361, 0.0578111224, -0.0386392772 },
      { -0.3582875729, -0.4214463234, -0.2875464261, -0.2574065924, -0.3639931977 },
      { 0.0130085247, -0.3021841347, -0.1092932820, -0.3286893070, -0.1826095730 },
      { 0.0280425325, 0.0072959135, 0.0367223397, -0.2206224948, -0.0079519954 }
    },
    {
      { 0.0886045471, -0.0212859567, -0.2166727632, -0.1850646883, -0.0084507642 },
      { 0.1846213937, -0.1197226793, -0.2036735266, -0.0253949091, 0.3183670938 },
      { 0.1960280389, 0.0559106432, -0.0003833325, -0.1118626893, -0.1677762717 },
      { 0.2429526299, 0.4413560331, 0.4585784078, 0.4907838702, 0.3986540735 },
      { -0.0567831397, -0.0127616152, 0.1019624695, 0.1261619478, 0.2152758539 }
    }
  },
  {
    {
      { -0.1019331962, 0.2212918550, 0.0233481191, -0.0706378371, 0.1561698318 },
      { -0.0831703097, 0.2275125384, 0.0211725943, -0.1067587063, -0.2099690288 },
      { -0.0122930314, 0.2442792654, 0.0979355276, -0.1822184622, -0.3434408009 },
      { -0.0821589306, 0.1963833869, 0.1333013475, 0.1060778648, -0.0393937081 },
      { -0.1574853212, 0.1963315606, 0.1547296941, 0.1349448264, 0.1423287541 }
    },
    {
      { 0.0569666512, -0.0723169670, -0.0003190376, 0.0649309233, -0.0663960204 },
      { -0.0051124031, 0.0838916376, -0.0085976701, -0.0369458646, 0.0296253506 },
      { 0.0607697554, 0.0300338045, 0.0411297716, -0.0441488326, 0.0366115607 },
      { 0.0026674946, 0.0533058979, -0.0564403646, -0.0475504175, 0.0448146425 },
      { -0.0040964256, -0.0145434625, 0.0381638221, 0.0649896711, -0.0747337490 }
    },
    {
      { 0.0455005802, 0.0351126119, -0.0271942429, 0.0195047967, 0.2398196608 },
      { 0.0229526199, -0.0574768744, -0.0368883014, -0.0318910182, 0.0557746440 },
      { 0.2117538899, 0.2407595217, -0.2050989866, -0.3417287469, -0.2990890145 },
      { 0.1424096078, 0.1090374365, -0.0801856667, -0.1038837507, -0.1702146083 },
      { 0.0625380576, 0.2530297041, 0.2449384183, 0.1837607324, 0.2462739795 }
    },
    {
      { -0.2669095993, -0.1261432618, 0.0552090108, -0.0223257281, 0.0235735830 },
      { -0.3630265296, 0.0104731871, 0.0337707065, 0.0962663963, 0.0175126921 },
      { -0.3389794230, -0.0460277572, -0.3018305004, -0.5367283225, -0.2159804255 },
      { -0.4181618989, -0.3124645054, -0.5582708716, -0.3556294143, -0.2354912162 },
      { -0.2918021083, 0.0470047891, 0.3726074100, 0.3783487380, 0.1774419695 }
    },
    {
      { 0.0475206301, 0.2783014774, 0.1069397703, 0.1346258670, 0.3649350107 },
      { -0.0807120800, 0.1614257544, 0.1794105619, 0.1455258280, 0.1644423157 },
      { 0.1459584385, 0.1381469965, -0.0502899922, 0.0267729014, 0.1499147415 },
      { -0.1252421886, -0.2093953639, -0.3761933148, -0.0441758074, 0.0648381338 },
      { -0.3471749723, -0.3818331957, -0.2617120445, -0.1139393225, 0.0758365914 }
    },
    {
      { -0.1144353002, -0.1997085363, -0.2210701406, -0.1672171801, -0.0718730316 },
      { -0.3066666424, 0.0294003636, 0.1486834884, 0.1774270236, 0.1687414050 },
      { -0.1542927027, -0.1000426561, -0.1102283373, 0.1109712645, 0.2681531310 },
      { -0.1251738369, 0.3594906628, -0.0801319554, -0.2635599077, -0.2996128201 },
      { -0.0080737928, 0.1762279868, 0.2825035155, 0.4347642064, 0.1818458289 }
    }
  },
  {
    {
      { 0.1378390193, 0.0649643913, -0.2522560060, 0.0635199174, 0.1880413592 },
      { 0.1175052524, -0.1324489266, -0.1757841259, 0.1206804216, 0.2719601393 },
      { 0.0798762664, 0.1089602560, 0.0845155567, 0.1929414272, 0.0872383937 },
      { -0.0353407897, -0.0274395682, 0.1658741534, 0.2587301731, 0.0392579548 },
      { -0.3055499494, -0.1625312120, -0.0203277618, -0.0649171025, -0.1554760784 }
    },
    {
      { 0.0165978298, -0.0378087163, 0.0429614484, 0.0493458845, -0.0840849802 },
      { -0.0757600442, -0.0554206036, 0.0038933600, -0.0139335338, 0.0631466955 },
      { -0.0544132665, 0.0786034986, -0.0239621643, -0.0456763729, -0.0733843371 },
      { -0.0120714186, -0.0865627676, -0.0119235851, -0.0677118376, -0.0081459871 },
      { -0.0396457650, -0.0237574484, -0.0037087894, -0.0245767385, -0.0255193450 }
    },
    {
      { 0.0151155973, -0.0427664034, -0.0783529803, 0.0085180709, -0.0308465958 },
      { -0.1332433522, -0.2178200334, 0.0491883233, 0.2075773925, 0.1039935723 },
      { 0.0663955957, 0.0245432351, 0.1265492290, 0.1158169881, 0.1359309256 },
      { 0.1492164284, 0.1688046306, 0.3025414348, 0.1108462214, -0.0068280026 },
      { -0.2532209754, -0.0265359562, 0.0484255701, 0.0062641706, -0.2020332217 }
    },
    {
      { 0.0060427710, -0.0722663924, -0.1297084391, -0.0589870065, 0.2886419892 },
      { -0.1934583634, -0.3143084645, -0.5021979213, -0.2747413516, 0.0195930209 },
      { -0.1787886322, -0.6716409326, -0.7244918346, -0.1705485284, -0.0044208653 },
      { 0.3731079102, -0.0666553527, -0.0486375131, -0.0370768607, 0.1697118133 },
      { 0.0396719575, -0.1739807576, -0.1472964138, -0.0601225644, 0.0361957699 }
    },
    {
      { 0.0450859405, 0.3467566669, 0.2252462357, 0.0635691881, 0.0059825899 },
      { 0.1991660148, 0.1787603796, -0.0271339491, -0.0400667898, -0.1174915805 },
      { -0.0139852362, -0.0281563140, -0.0437002555, -0.2190587819, -0.2767741978 },
      { -0.0225494858, 0.0836357102, 0.0809676349, -0.1477444023, -0.2111649364 },
      { 0.1504568309, 0.1099230200, 0.1469885707, -0.0108730048, -0.0153290359 }
    },
    {
      { 0.0990380719, -0.0716560334, -0.3909737468, -0.6213379502, -0.2485994399 },
      { -0.2389114350, -0.3661688864, -0.7941541076, -0.8796014786, -0.0038125331 },
      { -0.4154798985, -0.8898899555, -1.0638338327, -0.4070156217, 0.0748260021 },
      { 0.2775987685, 0.0179317892, -0.1649792343, 0.0226563755, 0.1928490400 },
      { 0.1813967526, 0.1368193924, 0.1796899438, 0.1539375037, 0.2799558640 }
    }
  },
  {
    {
      { -0.1641619653, 0.1319812834, 0.1821963936, 0.1809855849, 0.1339441687 },
      { -0.0572872683, -0.1121353507, 0.0309693478, 0.1596096456, 0.0406549461 },
      { -0.0996573642, -0.2894020379, -0.1589705497, -0.0579553731, 0.1081919819 },
      { 0.0358472727, -0.1203242913, -0.2598302960, -0.3028473556, -0.0068008918 },
      { 0.1088158414, 0.0359146744, -0.2044933885, -0.1182119548, -0.0720315203 }
    },
    {
      { 0.0556983277, 0.0509225056, 0.0039765220, -0.0076343599, -0.0069621801 },
      { 0.0209530126, -0.0372570269, -0.0054846751, -0.0029340754, 0.0237507690 },
      { -0.0215855855, -0.0598644912, -0.0788700581, 0.0623052120, 0.0332557335 },
      { -0.0603947788, 0.0133209415, 0.0035561861, -0.0083599221, -0.0831912383 },
      { -0.0069387867, -0.0317443050, -0.0394923538, -0.0455876142, -0.0547877997 }
    },
    {
      { 0.1396173835, 0.3242086172, 0.2434003204, 0.0927324668, -0.1733082533 },
      { 0.0079244077, 0.0963224694, 0.0900920108, 0.1393828690, 0.0063108536 },
      { -0.1919690669, -0.1411637813, -0.0119812889, 0.0837521702, 0.0355321541 },
      { -0.1769983619, -0.2852285802, -0.1621954143, -0.0682342499, 0.0897736549 },
      { -0.0830127075, -0.1882132441, -0.2390398234, -0.3216051161, -0.1166544557 }
    },
    {
      { 0.1721318662, 0.1509840339, -0.2858036160, -0.6763463616, -0.5782518983 },
      { 0.0566717610, 0.0848476365, -0.3090921044, -0.3434796631, -0.0532409437 },
      { 0.0898063779, -0.0842758417, -0.0077124103, 0.0667751431, -0.0493029691 },
      { 0.0529734679, 0.2349556834, 0.2629573345, 0.1398336440, 0.0198921505 },
      { 0.1578199565, 0.1999983937, 0.1262640953, 0.0396800227, 0.0903152004 }
    },
    {
      { -0.4752584994, -0.5308163166, -0.0902319998, 0.1302110255, 0.2341036499 },
      { -0.0743504316, -0.1636222750, 0.1656643301, 0.3402937353, 0.2684885859 },
      { 0.1236021072, -0.1340197325, 0.2944488227, 0.3077144325, 0.3372438550 },
      { -0.0023393393, 0.1416414678, 0.2025538534, 0.1121343523, -0.0088050244 },
      { 0.0167397931, 0.0073408973, -0.0414287634, -0.2586744726, -0.1380960494 }
    },
    {
      { 0.3571333587, 0.2650132179, 0.0059737475, -0.5247766376, -0.6849169731 },
      { 0.1594083011, 0.2318050116, -0.1367353946, -0.6089651585, -0.4947378337 },
      { 0.0444617048, -0.0296695493, -0.2263565660, -0.2770570219, -0.1856089830 },
      { -0.0906215981, -0.1110358313, 0.0547095463, 0.2213054448, 0.1797196716 },
      { -0.0102724899, 0.0495566241, 0.1150421277, 0.2886249721, 0.3303934336 }
    }
  },
  {
    {
      { 0.0558296219, -0.0985054970, -0.2786626518, 0.0087328516, -0.1057799906 },
      { 0.0204078201, -0.0812903270, 0.1428222656, 0.1394158006, -0.0437368639 },
      { -0.0343786553, 0.1096037775, 0.3061712384, 0.2155159265, 0.0400324203 },
      { -0.0162997637, 0.1665938795, 0.2478760928, 0.1041380987, -0.0853228569 },
      { -0.0429790728, -0.0158609189, -0.0041658618, 0.1325496882, -0.0008020553 }
    },
    {
      { 0.0803639442, 0.0465661958, -0.0275395568, -0.0485913903, 0.0602504127 },
      { -0.0758839846, 0.0164106227, 0.0862890258, -0.0124770058, -0.0505301170 },
      { -0.0449402519, -0.0203536339, -0.0285791680, 0.0395908952, -0.0365747213 },
      { -0.0688607171, -0.0207500029, -0.0149040269, -0.0593947023, 0.0607953668 },
      { -0.0489942506, -0.0538716316, 0.0866524801, -0.0068449313, -0.0388244130 }
    },
    {
      { -0.0763864815, -0.2570739686, -0.1711550206, -0.2006016374, -0.2442310899 },
      { -0.1666693836, 0.0111957220, -0.0543788671, 0.0437068902, -0.0216027815 },
      { -0.0442190506, 0.2524760365, 0.1006763652, -0.0434996299, -0.0196163189 },
      { 0.1904282719, 0.2790534794, 0.1925621927, 0.1242849305, -0.0456288159 },
      { 0.1120167673, 0.0628091022, 0.1987868249, 0.0848910958, -0.0684355646 }
    },
    {
      { 0.1141182706, -0.0291910339, -0.0520549789, 0.2467537671, 0.1656026989 },
      { -0.0837633610, -0.6266185641, 0.0236122496, 0.3422639370, 0.1318706125 },
      { -0.6728848815, -0.5218594074, -0.0979794934, 0.0830873773, -0.0124635948 },
      { -0.3225071132, -0.1276468039, -0.1132246777, -0.0588490106, 0.0723238662 },
      { -0.2212612778, -0.1385238618, -0.0283839386, 0.0616034344, 0.0395129286 }
    },
    {
      { 0.2292703986, 0.0701388717, -0.1128950119, -0.1842101216, 0.0572393015 },
      { 0.0900402442, 0.0121509507, -0.2034579962, -0.1305826753, -0.2609200180 },
      { -0.0069016069, 0.1734641939, 0.1108255163, -0.0855178684, -0.1759434044 },
      { 0.2786805630, 0.4192896187, 0.0576371588, -0.1744721532, -0.1963129491 },
      { 0.4907972813, 0.2629710734, -0.1034170017, -0.1291077733, 0.0439171828 }
    },
    {
      { 0.0513184629, -0.0035691336, -0.1348721832, -0.0917918384, 0.0030154339 },
      { 0.0305196121, -0.6555066109, -0.6227948070, 0.1229633614, 0.2441512942 },
      { -0.4192894399, -0.9084835649, -0.5242869854, 0.1360656768, 0.2795172632 },
      { -0.4811315238, -0.3797999322, -0.3955174685, -0.0334984325, 0.1328603178 },
      { -0.3005589843, -0.1538471878, -0.0236808602, 0.0358059555, 0.0249784999 }
    }
  },
  {
    {
      { 0.1228058413, 0.0328547470, 0.0333795510, -0.0680354536, -0.0640015081 },
      { 0.0444020815, 0.0004420739, 0.0339287780, -0.0392252468, -0.2178383321 },
      { -0.0732116327, -0.0486581437, -0.1484605223, -0.4242753088, -0.7030866742 },
      { -0.3361360729, -0.2412334234, -0.2234789580, -0.4406704605, -0.5109661222 },
      { -0.2840347886, -0.2002566755, 0.0276938435, -0.1739794612, -0.3131856322 }
    },
    {
      { 0.0377979651, -0.0868043005, -0.0737040788, -0.0118818404, -0.0205804612 },
      { -0.0512564257, -0.0556620210, -0.0092573129, -0.0419691652, -0.0516324416 },
      { 0.0253763199, 0.0537736751, 0.0171705410, 0.0207902472, 0.0043954905 },
      { -0.0592759363, 0.0106913401, 0.0382977240, -0.0482497104, 0.0279452000 },
      { 0.0151369199, 0.0716771707, -0.0464067683, 0.0246139504, 0.0532769561 }
    },
    {
      { 0.0493876897, 0.0189563502, -0.0951662585, -0.0763415620, -0.0054773269 },
      { 0.1343353242, 0.0480647236, 0.1388438344, 0.0147255016, -0.1678151637 },
      { 0.0130124707, -0.0513456427, -0.0668236315, -0.2962642014, -0.4851788580 },
      { -0.2232766747, -0.2114438266, -0.4251849353, -0.5143151879, -0.4787970781 },
      { -0.2089371383, -0.1237695217, -0.2151290625, -0.2779493034, -0.4347789288 }
    },
    {
      { 0.0948368013, -0.0985174477, 0.1926938742, 0.1885224581, 0.1763447821 },
      { 0.0791661739, 0.2094866782, 0.3542034328, 0.3902370930, 0.3922150135 },
      { 0.1287994236, 0.1987030804, 0.2699754238, 0.0737653002, 0.0584108271 },
      { -0.0648598969, -0.2046697289, -0.1388484538, -0.2379855365, -0.1741181910 },
      { -0.2069639713, -0.2274552882, -0.0547677502, -0.1339342743, 0.0031922553 }
    },
    {
      { -0.1318425536, -0.1935698241, 0.0323833227, 0.1189533547, -0.0238101017 },
      { 0.0671857819, 0.1996652782, 0.2331686765, 0.2906994224, -0.0084436396 },
      { 0.0701671839, 0.2646698952, 0.1894572079, 0.1668371111, 0.0017478372 },
      { 0.0160599183, 0.1274691820, 0.0646988451, 0.0140983341, -0.1222296357 },
      { -0.1437018663, -0.0713777840, 0.1677298844, 0.0553331375, 0.0244249385 }
    },
    {
      { -0.0670871884, -0.1043577939, -0.1336222291, 0.0856539011, 0.0370196179 },
      { 0.2476798296, 0.2587198913, 0.2840508521, 0.1839532107, 0.4204048514 },
      { 0.1846322715, 0.3267654479, 0.3364814520, 0.1854743361, 0.2187183797 },
      { 0.2400060892, 0.0887889490, 0.0400539674, -0.0290212240, -0.1637865156 },
      { -0.1945207268, -0.1814790070, -0.1323278695, -0.0671868473, 0.2125148177 }
    }
  },
  {
    {
      { 0.0850870758, -0.1502795070, -0.1650231779, -0.0770609379, 0.1077519283 },
      { -0.0104182605, -0.0030695675, 0.0000426975, 0.0871554986, 0.0379673354 },
      { -0.1006152704, 0.0404207967, 0.0344223194, 0.1512122899, 0.0895306841 },
      { -0.0630048960, -0.0545819364, -0.1919447482, -0.0111226123, 0.0844132453 },
      { 0.1395086795, -0.0539300479, -0.2178042084, -0.1772265136, 0.0615397394 }
    },
    {
      { -0.0606143251, 0.0710241497, -0.0169117097, 0.0038300147, -0.0186897684 },
      { -0.0246613435, -0.0383536406, 0.0074089514, 0.0503168181, 0.0280809850 },
      { -0.0031242974, 0.0554314777, -0.0082637407, -0.0484700762, -0.0638834611 },
      { 0.0284933243, 0.0149098616, 0.0694343224, 0.0345930196, -0.0066695833 },
      { 0.0148988320, 0.0222779494, -0.0667104572, -0.0455750003, 0.0693788975 }
    },
    {
      { 0.0060211662, -0.0481573902, 0.0548186637, 0.0880039409, 0.1607559770 },
      { -0.0861858651, -0.0923175439, -0.0223753955, -0.0491440333, 0.1376516223 },
      { 0.0127251353, -0.0768954903, 0.0809293836, 0.0108849471, 0.1017786637 },
      { -0.1318156272, -0.0138843013, 0.0591659136, 0.1194146946, 0.0752217174 },
      { 0.0450900011, -0.1150795370, -0.0259113740, -0.0655298978, 0.2450841963 }
    },
    {
      { 0.1027739570, -0.0116397580, -0.3044756055, -0.5186537504, -0.2455796301 },
      { 0.2261604071, -0.4394823909, -0.6002882719, -0.7207252979, -0.3448167741 },
      { 0.1440024972, -0.1800596714, -0.3985835016, -0.6158387661, -0.3306253254 },
      { -0.1153344214, 0.1684396863, -0.2249759883, -0.4592167139, -0.3213651180 },
      { 0.3934595883, 0.2921352983, -0.0202998333, -0.0171036888, 0.1471228600 }
    },
    {
      { -0.0016137406, -0.0782398731, 0.0265184827, 0.1960236430, 0.1126952693 },
      { -0.3154646158, -0.2702723145, 0.1241978779, 0.3159084320, 0.2485459745 },
      { -0.4208724797, 0.0909828991, 0.2486774623, 0.4072130919, 0.2670644224 },
      { -0.2329578996, 0.2784749866, 0.2001093030, 0.2967453897, 0.0813571438 },
      { 0.0984948203, 0.4159774780, 0.2494601309, 0.1884320229, 0.0218957346 }
    },
    {
      { 0.0383829437, 0.2014239132, 0.2202679813, 0.0514903441, -0.0212996528 },
      { 0.3972012401, 0.1899297982, -0.1973171234, -0.4218889773, -0.5442993045 },
      { 0.6290384531, 0.2262997627, -0.1446067095, -0.4994452596, -0.3620944321 },
      { -0.0284407362, -0.0016890494, 0.0038629265, -0.2408512831, -0.2162535638 },
      { 0.0460780784, 0.1178294048, -0.1042824835, -0.0610082485, 0.1166529506 }
    }
  },
  {
    {
      { 0.1215737760, 0.0335491411, -0.2209165841, -0.1710703373, -0.0547406748 },
      { 0.1767474562, -0.0035685261, -0.1542379707, -0.0800872743, -0.0157135613 },
      { 0.0946150944, -0.0880035982, -0.0525132455, -0.1774535179, -0.0915996507 },
      { 0.1860164255, -0.0917859524, -0.1288984567, -0.2706649601, -0.2646216750 },
      { 0.0657014921, 0.0893428624, 0.0703911632, 0.1001207978, 0.0645726398 }
    },
    {
      { -0.0015968630, 0.0525473543, 0.0458487868, -0.0459175818, -0.0229191706 },
      { -0.0449906625, -0.0786011517, 0.0655522794, -0.0032821111, 0.0256632827 },
      { 0.0467988700, -0.0204100609, 0.0536594242, -0.0623462982, 0.0001561220 },
      { -0.0348715037, 0.0562511533, 0.0403221995, -0.0882369503, 0.0020924115 },
      { 0.0878521279, -0.0608457066, -0.0509331264, 0.0387693346, -0.0220922884 }
    },
    {
      { -0.0155608365, -0.1307864338, -0.1722414941, -0.1833719462, -0.0779146180 },
      { 0.0676214620, -0.0677046850, -0.0687874779, -0.0230909549, 0.1427214742 },
      { -0.1120100096, -0.0794104785, 0.0266598612, 0.1180607229, -0.0133790271 },
      { 0.0002962486, -0.2392187268, -0.3686499596, -0.2422471344, -0.2089853436 },
      { 0.0095801931, -0.1706100851, -0.1106576845, 0.0518316217, -0.0480562747 }
    },
    {
      { -0.0291602202, 0.1031542718, 0.0100099035, -0.1768607646, 0.0927364007 },
      { 0.1193348914, -0.1888275743, -0.3886786103, 0.1026229858, 0.5197899342 },
      { 0.0055423235, 0.1557317674, 0.3391814828, 0.4866529703, 0.6619417071 },
      { -0.0562103130, 0.0042293272, 0.2272090316, 0.1187085509, 0.2290556729 },
      { -0.2957722545, -0.3467828929, -0.2248337865, -0.0275179595, 0.0465679578 }
    },
    {
      { 0.2270500660, 0.1795061529, 0.4036513269, 0.1486857831, -0.2288296968 },
      { -0.0206958745, -0.2517729104, 0.0854912624, -0.0505090766, -0.1364639699 },
      { -0.0301567037, -0.3376886845, 0.1077049300, 0.0500647314, -0.1514395326 },
      { -0.0328074917, -0.3170660734, 0.0265891068, -0.0262288228, -0.1703945398 },
      { 0.0352702774, -0.1986665428, -0.1715637445, 0.2250675559, 0.1831517816 }
    },
    {
      { -0.3379123509, 0.0769273862, -0.0343280956, -0.1184170917, -0.1972619891 },
      { 0.1460784078, -0.1886087954, -0.2327522486, -0.1803632826, 0.2277535647 },
      { 0.1170605421, 0.2723273337, 0.3258404732, 0.4157691896, 0.6860926747 },
      { -0.1298439801, 0.2516990304, 0.4115767777, 0.2068168372, 0.3290489316 },
      { 0.0256291404, -0.2825258672, -0.3289115131, -0.3232982159, -0.3119649589 }
    }
  }
};

#endif
