#ifndef CONV1_WEIGHT_H
#define CONV1_WEIGHT_H

const double conv1_weight[6][1][5][5] = {
  {
    {
      { -0.1723741442, 0.0342718326, -0.2076428384, -0.1708904654, -0.0911445171 },
      { 0.1687231809, 0.2424122989, 0.3451245427, -0.0778405219, -0.3286245167 },
      { 0.3793850243, 0.4084753692, 0.3122703731, 0.0367980450, -0.2392055988 },
      { 0.3601573110, 0.3633281589, 0.4297157526, -0.0771382451, -0.0528865196 },
      { 0.2048928887, 0.2288040668, -0.0253094304, 0.0547409616, -0.0542300418 }
    }
  },
  {
    {
      { -0.0734983981, -0.0681988448, -0.0014621631, 0.0090190461, -0.1990025491 },
      { -0.0501172245, 0.0145769874, 0.0564636476, -0.1085655317, -0.0873369947 },
      { -0.0228115879, -0.0031301149, -0.2048119903, 0.1486037523, -0.1475059539 },
      { -0.1790733188, 0.1337059587, -0.0932160988, -0.1624589264, 0.1262500733 },
      { 0.0956735015, -0.1318706125, -0.0304142702, -0.0708866119, -0.0769052505 }
    }
  },
  {
    {
      { -0.1240628362, 0.0237167776, -0.0420434177, 0.1882910877, 0.0096748499 },
      { -0.0015597097, -0.0614362732, 0.4682875276, 0.4262134731, 0.2611332536 },
      { 0.0444180928, 0.2727644145, 0.4030894041, 0.6221813560, 0.3731528819 },
      { -0.1411455870, 0.2166376561, 0.2100181729, 0.0525025390, 0.2139291614 },
      { -0.2997491956, -0.1506648809, -0.3421097398, -0.0544994399, -0.2364584953 }
    }
  },
  {
    {
      { -0.1032007709, 0.1019221395, 0.4496643245, 0.3564160168, 0.3443640769 },
      { 0.4148244262, 0.6621733308, 0.5621827245, 0.3714187741, 0.0557247438 },
      { 0.6320517063, 0.3335818946, 0.1243860796, -0.2441689968, -0.3062642217 },
      { 0.2752683163, -0.3284078538, -0.7226468325, -0.6149170399, -0.4883314669 },
      { -0.2785827816, -0.7555335760, -0.5518220067, -0.1060856804, 0.0171990655 }
    }
  },
  {
    {
      { 0.2916130126, 0.4464318454, 0.0924974531, -0.3939183950, -0.3621199429 },
      { 0.3205011487, 0.2342743129, 0.1195855439, -0.5599361062, -0.6679588556 },
      { 0.3704338670, 0.3576709926, -0.1377824694, -0.7054377794, -0.3923306763 },
      { 0.3193156421, 0.2276415676, -0.3227268457, -0.6844856143, -0.1666208059 },
      { 0.3610149920, 0.3283045590, -0.2909832001, -0.4479652047, -0.0289265364 }
    }
  },
  {
    {
      { 0.2744621933, 0.3554707170, 0.6060134768, 0.5491063595, 0.2635930181 },
      { 0.3127294481, 0.1677297354, 0.2548020780, 0.3436383307, 0.2988439202 },
      { -0.3435558379, -0.4634197652, -0.5813266039, -0.4733280241, 0.1078319699 },
      { -0.2521751225, -0.5710242391, -0.7774944305, -0.5442220569, -0.4548399150 },
      { 0.2306108624, 0.2083807737, 0.1012215391, 0.1991956085, -0.0846660063 }
    }
  }
};

#endif
