#ifndef CONV5_BIAS_H
#define CONV5_BIAS_H

const double conv5_bias[120] = { -0.1163021103, -0.1490394920, -0.0746166334, 0.0196332801, 0.0965917259, 0.2916077077, -0.0634735301, 0.2653239667, 0.0300508551, -0.1629701853, -0.1025265455, 0.2521873116, 0.2544584572, -0.0127734076, -0.2062392980, -0.2119205743, -0.0032374351, 0.2277003974, 0.0705366284, -0.0050511081, 0.0155754164, -0.1549668759, 0.0101498524, 0.1171116009, -0.1078755781, -0.0891068876, -0.0778651461, 0.1424283981, -0.1942333430, 0.1150353923, -0.4694868326, 0.0675535128, 0.1423696429, -0.1465301961, 0.1035497636, -0.1736007780, 0.0572786927, -0.1099686250, -0.0642586201, -0.0565958843, -0.0499477349, 0.1666880101, -0.0617579371, -0.1960024536, 0.3766720891, -0.0091009652, -0.0387986712, -0.2446221411, 0.0074005360, 0.1421877444, 0.0786503553, -0.2343383282, -0.1531596631, 0.2731938660, 0.3772027194, -0.1338980347, -0.1123268232, 0.1069753394, 0.0594995879, -0.0464726351, -0.1186548769, -0.1130039245, 0.0791744664, 0.1327359378, 0.2900462449, 0.4207753539, 0.0492544658, -0.0340019464, -0.2618701160, 0.0523895994, 0.1825796366, -0.0564438850, 0.1768919080, -0.0800520852, 0.0668608844, -0.1100844517, 0.2823782265, -0.0100478968, -0.0508673079, 0.3929955363, 0.2348245680, 0.1283329874, -0.0266986378, -0.0801888704, -0.0720625818, -0.1970299780, 0.1251651049, 0.3294809163, -0.0104712034, 0.0422222614, 0.0297992807, 0.4147281647, 0.2555139065, -0.0058204215, 0.0708210841, 0.1915135980, 0.1891320944, -0.1742922068, -0.0820108503, -0.0798580125, -0.1020991728, -0.1539896429, 0.1674263328, 0.1828922927, 0.2842755616, 0.1269041449, -0.0137972441, 0.0766588226, -0.0380373187, -0.0815552995, -0.1914244443, -0.2353186905, 0.1226406693, 0.2088353038, 0.0604367554, 0.0612667799, 0.1198666692, 0.1467230618, 0.0567052811, -0.0555709749 };

#endif
