#ifndef CONV5_WEIGHT_H
#define CONV5_WEIGHT_H

const double conv5_weight[120][16][4][4] = {
  {
    {
      { 0.0067869294, -0.1511700749, -0.4013673365, -0.3885601461 },
      { 0.1646384150, 0.1182692945, 0.0220432822, -0.0056843171 },
      { 0.0261713509, 0.2326960117, 0.4311742783, -0.0382939391 },
      { 0.2234362364, -0.1207606196, -0.0273342486, -0.1191416383 }
    },
    {
      { 0.1330265701, -0.0081795827, -0.1811343879, -0.0751348361 },
      { 0.0386306569, 0.0801785588, -0.0842165947, -0.3672871292 },
      { 0.1174868569, -0.0071082856, 0.0873710662, -0.0673933923 },
      { 0.1508266926, 0.0782204792, -0.1884068847, 0.0306583028 }
    },
    {
      { 0.2755723596, 0.0375198871, -0.0716730580, 0.2696220577 },
      { -0.2004875243, 0.0249917544, 0.0122110387, -0.0680905059 },
      { 0.0785236806, -0.0629249960, -0.1491741240, -0.2562529445 },
      { 0.0088761449, -0.1268053949, -0.0277882423, -0.1367312223 }
    },
    {
      { 0.0599622317, 0.0036835275, 0.0449904129, -0.2245215327 },
      { 0.3615507483, 0.2551481724, 0.1680439264, -0.6159802675 },
      { 0.0381500125, 0.0115194498, 0.2426918745, -0.0486136191 },
      { 0.2269406915, 0.3486154675, 0.1679328978, 0.0532591194 }
    },
    {
      { 0.0372195877, 0.0432018526, 0.0892330036, 0.1024910510 },
      { -0.0528665073, -0.1723885238, -0.0281313956, 0.2038450539 },
      { 0.1485447288, -0.0356925651, -0.1683303565, -0.0889771357 },
      { 0.0161322970, -0.1181778908, 0.0999873057, 0.2219195217 }
    },
    {
      { 0.1262831092, -0.0507881157, -0.0178380385, -0.4284478128 },
      { 0.1907739192, 0.0214013942, 0.1000145450, -0.2782715857 },
      { 0.0464410894, 0.0773306191, 0.0335610360, 0.1140531451 },
      { -0.0002262463, -0.0902629420, -0.0679951683, 0.1131361350 }
    },
    {
      { -0.1564093083, -0.1149617955, -0.1793649346, -0.1193847284 },
      { 0.2265632302, 0.1263802052, 0.0921163931, -0.0039557712 },
      { -0.0694697723, 0.0088601336, -0.0918713957, 0.1477185041 },
      { -0.0734412670, 0.0682311803, 0.1196128726, 0.1932595223 }
    },
    {
      { -0.0439048894, -0.0959260240, -0.3038458824, -0.1524388194 },
      { -0.0818589553, 0.1090578511, 0.0227198154, 0.0622652657 },
      { -0.0600574054, 0.0883709937, -0.0300693996, 0.0192820057 },
      { 0.0250041317, 0.0572249889, -0.0353843383, -0.1746852994 }
    },
    {
      { 0.2548007369, 0.1772234589, 0.0343956463, 0.1037955359 },
      { -0.2096620798, -0.2114017755, -0.2128004134, -0.4219620526 },
      { -0.0961165652, -0.0683543086, 0.0635601878, -0.0313546658 },
      { 0.1084487736, 0.1897761226, 0.0871082097, 0.0930385068 }
    },
    {
      { 0.0093328338, -0.2255154848, -0.4103708565, -0.3644553125 },
      { -0.0741129518, -0.0322729759, -0.0646370575, -0.2983902395 },
      { 0.1830093265, 0.0997554287, 0.0702873692, 0.1009892225 },
      { 0.0456813723, -0.0428465977, -0.1019226909, -0.0094957687 }
    },
    {
      { -0.0474079065, -0.1246538088, -0.0567522123, 0.2831986248 },
      { 0.0038745983, -0.3273394406, -0.2349317223, 0.1366204619 },
      { -0.0356716141, 0.0491758287, 0.1109492183, 0.0601422563 },
      { 0.0784010664, 0.0430484414, 0.1832014173, 0.0172419138 }
    },
    {
      { 0.0507346466, -0.3328019083, 0.2607156038, 0.4101859033 },
      { 0.0067903246, -0.3075104058, 0.0314719640, 0.1432155520 },
      { 0.0623652861, -0.2199009359, -0.1113993451, -0.1707366705 },
      { -0.0488394275, -0.1408052146, -0.0776451603, -0.1114185452 }
    },
    {
      { 0.0362639055, 0.0063620196, -0.2082926184, -0.1005666181 },
      { -0.1588029116, -0.0843628570, -0.1989609450, -0.1077405289 },
      { 0.0655809417, -0.1116033420, 0.1276285499, -0.0487671196 },
      { 0.1564737856, 0.2812350392, 0.2226491570, -0.0875928625 }
    },
    {
      { 0.3380035758, 0.1127164140, -0.3360092044, -0.2484961748 },
      { 0.2405125648, -0.0817560181, 0.1296506673, 0.0767464563 },
      { -0.0837346166, -0.1726930588, -0.1945209354, -0.2136569023 },
      { 0.0270888135, -0.0207037907, 0.1352213770, 0.0876773372 }
    },
    {
      { -0.1088744029, -0.5471372008, -0.0562850013, 0.2884780169 },
      { -0.2037981600, -0.2375999242, -0.2079267055, 0.0911175013 },
      { -0.0844876468, 0.0524225608, 0.0091270218, -0.0622154437 },
      { 0.0968208909, 0.0898795500, -0.3689769804, -0.3252662122 }
    },
    {
      { 0.2844634652, 0.2883919179, 0.0160815120, -0.2563495636 },
      { -0.0354489014, -0.1415833831, 0.1820571870, 0.0575937852 },
      { 0.1099793315, -0.0741398335, -0.0981398150, -0.0326556824 },
      { 0.1415088028, 0.0364050828, 0.1294658482, 0.1014053226 }
    }
  },
  {
    {
      { 0.0753444731, 0.0474183522, -0.0901888087, 0.0406575389 },
      { 0.0654618442, 0.2000351548, -0.1230707467, 0.0170483887 },
      { -0.1243869662, -0.0964529142, 0.0771363005, -0.0358478762 },
      { 0.2949282825, 0.0358336084, 0.1432122737, -0.1394500434 }
    },
    {
      { -0.0695769489, 0.0193436686, 0.1398948431, 0.0235281922 },
      { -0.0362394415, -0.1828003377, -0.1822656691, -0.0161796585 },
      { 0.2968776822, -0.4622153938, -0.6133915186, -0.1819093376 },
      { 0.1481818855, 0.1801903695, -0.1174540296, 0.0377894714 }
    },
    {
      { 0.0423651896, -0.1106655225, 0.0677506030, -0.0459858477 },
      { 0.0188192092, 0.1160327196, 0.2221134007, 0.1666133851 },
      { 0.1059086546, -0.1105937511, -0.0398363322, 0.1081006154 },
      { -0.0763522163, -0.0740817636, -0.0346348844, -0.0647291914 }
    },
    {
      { 0.0624068119, 0.1388708055, 0.1371531934, 0.1712173969 },
      { 0.0081435293, 0.2182979882, -0.0587725751, -0.0898377374 },
      { -0.1683313102, -0.0260067713, -0.2031458467, -0.0341381505 },
      { 0.1337304413, 0.1059770435, 0.1277616173, 0.2128731757 }
    },
    {
      { -0.1706666648, -0.0912775993, 0.2413362414, 0.1036654413 },
      { 0.0385222845, 0.0160753299, -0.0378547981, -0.0088280607 },
      { 0.0259462856, 0.0537274815, -0.1690614671, -0.1916272044 },
      { -0.0867869034, -0.1564608216, 0.0896690711, 0.0930508524 }
    },
    {
      { 0.2373376340, 0.1315596104, 0.0112572480, 0.2620740533 },
      { -0.0668446794, -0.0545408204, -0.2154316455, -0.1511093378 },
      { -0.1011986285, -0.1084337234, -0.2861790657, -0.2143516243 },
      { 0.1322918087, -0.0969250798, 0.1561512351, -0.1307933778 }
    },
    {
      { -0.2068229318, -0.2534762919, -0.1168162823, 0.0476083085 },
      { 0.0890010297, -0.1086546704, 0.0185466055, -0.1422268897 },
      { -0.0770323947, 0.0429011881, 0.0279202685, -0.0083494605 },
      { 0.1793464720, -0.1258363575, 0.2421429306, 0.2626896501 }
    },
    {
      { 0.0067249360, -0.6296187043, -0.2226041108, 0.0524656400 },
      { 0.0573819838, -0.0604683049, 0.0557015575, 0.1197149977 },
      { -0.0646309629, 0.0319338143, -0.0469975732, 0.0877903998 },
      { -0.2707145512, -0.1119240895, -0.0116836447, -0.1248964295 }
    },
    {
      { 0.0098283486, 0.1485260576, 0.1143874303, 0.1472979635 },
      { 0.0404397547, 0.0318094902, 0.0801189542, -0.0149205308 },
      { -0.1411778927, -0.2306017131, -0.2265926152, -0.2986494601 },
      { -0.1290101409, 0.1026592478, 0.1525100023, -0.0011316717 }
    },
    {
      { 0.0550960228, -0.0913791060, 0.0279136896, 0.0329173319 },
      { -0.0567229167, -0.2625976801, -0.3039314151, 0.1404564679 },
      { -0.0135771781, 0.0255625844, -0.0949448496, 0.0261578653 },
      { 0.0827319473, 0.1212979406, 0.0641896725, 0.1046497747 }
    },
    {
      { 0.0843100473, 0.2001068592, 0.3072663546, 0.1281505227 },
      { 0.1324234307, 0.1531113535, -0.2320246398, 0.0129666859 },
      { 0.0386497006, -0.0379222818, -0.2198289633, -0.2018587291 },
      { 0.0351789966, -0.1031439677, 0.2593155205, 0.1487845629 }
    },
    {
      { -0.2645565271, 0.0028962868, -0.1870709509, -0.3683947027 },
      { -0.1297825128, 0.0957759321, 0.0385661349, -0.1702184230 },
      { 0.0110381786, -0.1756741554, -0.0774124116, -0.1293206960 },
      { 0.0701116174, -0.0053553786, -0.0997535139, -0.1626183093 }
    },
    {
      { 0.0854248479, 0.0650260895, 0.2582052052, 0.1455017775 },
      { 0.0177920498, -0.0277968589, -0.2043416202, -0.0042639002 },
      { -0.1442257166, -0.1667718738, -0.0193038918, -0.1533869654 },
      { -0.1249673218, 0.2323158681, 0.1843926609, -0.1811931431 }
    },
    {
      { 0.1752502024, 0.3956257999, 0.1514817178, -0.0076633752 },
      { -0.0207821503, -0.0852482542, 0.2417856455, 0.1284749657 },
      { -0.1295514405, 0.3150143623, 0.1234532222, -0.0600297228 },
      { -0.0461701490, -0.1074628830, -0.0909451321, 0.0330143608 }
    },
    {
      { -0.1178076863, 0.0994917452, -0.0178596675, -0.2500188351 },
      { 0.0152455438, -0.1051860973, 0.1953264922, -0.2002191544 },
      { 0.1210328713, 0.0880620182, -0.1693153828, -0.2060284615 },
      { -0.1019565165, 0.0232275389, 0.0507736132, -0.4253831208 }
    },
    {
      { 0.1290084571, 0.1414836943, -0.0285003725, -0.0646294355 },
      { 0.0289813038, 0.0813122541, -0.0347913280, -0.0506640300 },
      { 0.0653386936, -0.0636139810, -0.3031796813, 0.0483375862 },
      { -0.1121595725, -0.1811237931, -0.0170751959, 0.0274176002 }
    }
  },
  {
    {
      { 0.0617984980, -0.1636272967, -0.0730665177, 0.0880206972 },
      { -0.1653783768, 0.1119798273, 0.0650518909, 0.0739013106 },
      { -0.0653499365, 0.0640206859, -0.3216122687, -0.0065009212 },
      { -0.4350970685, -0.1645168960, -0.2767925858, -0.1273842007 }
    },
    {
      { 0.2628709078, -0.1273422539, -0.1188642755, -0.1338012815 },
      { 0.1441402584, -0.1430147141, -0.5160150528, -0.5083352327 },
      { 0.1251783520, 0.1717694104, 0.0149507066, -0.0178942420 },
      { 0.0837895870, 0.1465126574, 0.1052330211, -0.0084810844 }
    },
    {
      { 0.0277886335, -0.0846858993, -0.0214987602, -0.0878506675 },
      { 0.0648249760, -0.1953549236, -0.1487043351, -0.1709189862 },
      { -0.0976080894, -0.1119322181, -0.2808025777, -0.1860236377 },
      { -0.1592000127, 0.0340733454, -0.1132633165, -0.1268301308 }
    },
    {
      { 0.1188713759, 0.0980468690, -0.0240083225, -0.3543275595 },
      { -0.0994830430, -0.1276794076, 0.0287192073, -0.2709112763 },
      { -0.1366264373, -0.1288641989, -0.1013263687, 0.0427210182 },
      { 0.3054182231, 0.0489248298, -0.2180786878, -0.1246379241 }
    },
    {
      { 0.1303927898, 0.0745386854, 0.0428778902, 0.1623387933 },
      { 0.0010466402, -0.0323732384, 0.0923906937, -0.0882766545 },
      { 0.0574664921, -0.4457916915, -0.2205952555, -0.2884660065 },
      { -0.0166553725, -0.0110120513, 0.0454236381, -0.2311643362 }
    },
    {
      { 0.1532025784, 0.1267017871, -0.4853803515, -0.3876618147 },
      { 0.0999539495, 0.0279739741, -0.1455508471, -0.3113640845 },
      { 0.0866664723, 0.1018586531, -0.0796587840, 0.0915301219 },
      { -0.1697841436, -0.0660436004, 0.0189843569, -0.0214048885 }
    },
    {
      { -0.2121748179, -0.0155502949, 0.3784193695, 0.3725930750 },
      { -0.0358971544, -0.0044703465, -0.1174571440, -0.0428471528 },
      { 0.3462607265, -0.2485860586, -0.1398747116, -0.2444636822 },
      { -0.2095555663, -0.6472462416, -0.3026701212, -0.1782383919 }
    },
    {
      { -0.1311241686, 0.0102602821, 0.2975920439, 0.1309834868 },
      { 0.1112191826, 0.0629668981, -0.0091061266, 0.0930926353 },
      { 0.2615507841, 0.0133173475, 0.0494930446, 0.1342078149 },
      { -0.3057344854, -0.7208400965, -0.0559202433, 0.0965038314 }
    },
    {
      { 0.1662949175, 0.1688728929, 0.0778031573, 0.0299047809 },
      { -0.0015529395, -0.1165579781, -0.4921782911, -0.6360903978 },
      { -0.0085706916, -0.0714265928, 0.0787629262, -0.0039780876 },
      { 0.2464306951, 0.2231335789, 0.0462853014, 0.0810022280 }
    },
    {
      { 0.2093321681, -0.0084361667, -0.2359057963, -0.2547125518 },
      { -0.2671149373, -0.2517766654, -0.4419432878, -0.1940442473 },
      { 0.2143601924, -0.0172741469, 0.1409340501, 0.1652839333 },
      { 0.0010351420, 0.1476577371, 0.1693286449, 0.0800204203 }
    },
    {
      { -0.0557469167, -0.1125431955, 0.0738248080, -0.0095279459 },
      { -0.0365077183, 0.0457525551, 0.0046131755, 0.0878774747 },
      { -0.3564925194, -0.0165712964, 0.2341323048, -0.1065467596 },
      { -0.3680638671, 0.0577519350, 0.3639436662, 0.1604022086 }
    },
    {
      { -0.0507658608, 0.1041682214, -0.1652673781, -0.3605703115 },
      { 0.2628995478, -0.0648929700, -0.0411901847, -0.1385505944 },
      { 0.4207375646, 0.0992725715, -0.1750636995, -0.5860684514 },
      { -0.0778908953, -0.0333380662, 0.0046401317, -0.4553671777 }
    },
    {
      { -0.1222530380, -0.0964900702, -0.3294429779, -0.1977010816 },
      { -0.1366362274, -0.1141702905, -0.1025930867, -0.1116557121 },
      { -0.5447031856, -0.4523094296, -0.0046586096, 0.1344683915 },
      { -0.6704073548, -0.6114960909, -0.0350559466, -0.2193424255 }
    },
    {
      { 0.0123629086, 0.3149383366, 0.4620783031, 0.3083862960 },
      { 0.1324981600, 0.0754061043, 0.2018238008, 0.2720358372 },
      { 0.0419879295, -0.2673979402, -0.3527575135, -0.2314181179 },
      { -0.0316230729, -0.2971654236, 0.0215898827, 0.0933162645 }
    },
    {
      { -0.0195363481, -0.1514457464, -0.0981945843, -0.0956993178 },
      { 0.0836806372, 0.1055795550, 0.0105808936, -0.7417626381 },
      { -0.2821154594, 0.2118280083, 0.3906295896, -0.2667584419 },
      { -0.3586506546, 0.3469641209, 0.0716998577, -0.2874924839 }
    },
    {
      { 0.1751374602, 0.2742993534, 0.1149856821, 0.2487994432 },
      { 0.0008641721, 0.1276474297, 0.1595496237, 0.2124233991 },
      { 0.1218989193, -0.3925312161, -0.6394335628, 0.1223740876 },
      { 0.3093344271, 0.1623874605, 0.0205315910, 0.1212208122 }
    }
  },
  {
    {
      { -0.0544543266, -0.0561053678, -0.0200475249, -0.0420337953 },
      { -0.0282005016, -0.0002632999, -0.0552202910, 0.0011371848 },
      { -0.0124518042, -0.0763398260, -0.0280416887, -0.0065082740 },
      { 0.0275467560, -0.0585228764, 0.0320263505, 0.0250476301 }
    },
    {
      { 0.0486765094, -0.0482450873, -0.0170989912, -0.0663727894 },
      { 0.0366086438, 0.0408612303, 0.0330124274, 0.0134283593 },
      { 0.0410292335, 0.0243002102, -0.0629794449, 0.0122382734 },
      { 0.0051035243, 0.0242145173, -0.0602159873, 0.0346899293 }
    },
    {
      { -0.0676101968, 0.0096471254, -0.0112008909, 0.0082940785 },
      { -0.0457690731, -0.0176685024, -0.0227273051, -0.0332828015 },
      { -0.0786903128, 0.0340785310, -0.0050842920, -0.0674123913 },
      { 0.0190210231, -0.0490259975, -0.0560256205, -0.0340670086 }
    },
    {
      { -0.0125593496, -0.0341008268, 0.0247639362, -0.0838687718 },
      { -0.0529766977, -0.0285987370, 0.0496883132, -0.0644836202 },
      { -0.0680606440, -0.0234374106, -0.0449434333, 0.0205415804 },
      { 0.0154626444, -0.0459727533, -0.0448343195, -0.0511915423 }
    },
    {
      { -0.0083715124, 0.0144097097, -0.0626726076, 0.0111999251 },
      { 0.0264201779, 0.0217518359, -0.0583381467, 0.0027274382 },
      { 0.0233239215, -0.0575528592, 0.0060689193, 0.0434027202 },
      { -0.0158325695, -0.0697542876, -0.0832243413, -0.0832990631 }
    },
    {
      { -0.0300783738, -0.0781428590, -0.0460789353, -0.0404513180 },
      { -0.0707494244, -0.0460620262, 0.0005961304, -0.0027621607 },
      { -0.0838381872, -0.0172569901, -0.0032570900, -0.0258145854 },
      { -0.0005181028, 0.0401119553, 0.0286206361, -0.0078098220 }
    },
    {
      { -0.0675724894, -0.0278547406, 0.0133017143, -0.0584194958 },
      { -0.0264421348, 0.0041288384, -0.0698743984, 0.0071832268 },
      { 0.0427280441, -0.0187514424, -0.0581623204, 0.0388621204 },
      { -0.0284093749, -0.0095609790, -0.0260955170, 0.0150812650 }
    },
    {
      { -0.0313369893, 0.0279642306, 0.0197789278, -0.0126527669 },
      { 0.0384862088, 0.0438984968, 0.0500056483, -0.0893151984 },
      { -0.0585669875, -0.0413671583, -0.0783516616, -0.0390390679 },
      { -0.0598717444, -0.0316972919, -0.0674394518, -0.0424522609 }
    },
    {
      { -0.0368415825, 0.0283406842, -0.0126411747, 0.0097256731 },
      { -0.0414586663, 0.0149642769, -0.0091807200, -0.0510327294 },
      { 0.0339480452, -0.0807529762, 0.0098931454, -0.0796231553 },
      { -0.0145516507, -0.0163497943, 0.0114447176, 0.0275022909 }
    },
    {
      { -0.0052745505, -0.0238075033, -0.0465685315, -0.0306004509 },
      { 0.0320326537, -0.0286368113, -0.0205825083, 0.0009228432 },
      { -0.0018581821, -0.0642661080, 0.0127973463, 0.0001386279 },
      { 0.0436434671, -0.0626694933, -0.0529476292, -0.0285247564 }
    },
    {
      { 0.0163422376, 0.0296912342, 0.0129677858, 0.0298210047 },
      { -0.0479938053, -0.0246182885, 0.0156666469, -0.0620099045 },
      { -0.0617436133, -0.0310282651, 0.0230973028, 0.0371305235 },
      { 0.0030651162, -0.0091612171, -0.0100141913, -0.0109827323 }
    },
    {
      { 0.0087920772, -0.0771454200, 0.0112736505, 0.0093981139 },
      { -0.0268920567, -0.0752971247, -0.0173954610, 0.0458180681 },
      { -0.0522865802, 0.0082091596, 0.0328127407, -0.0220162421 },
      { 0.0245767348, -0.0672892556, -0.0415759087, -0.0196115579 }
    },
    {
      { -0.0426967479, -0.0496211201, -0.0104797883, -0.0655873790 },
      { -0.0039819400, -0.0231209639, 0.0199400149, -0.0789426267 },
      { 0.0018775596, -0.0154945739, -0.0398538299, 0.0203516278 },
      { 0.0271076579, 0.0007360670, -0.0249942131, -0.0177928433 }
    },
    {
      { 0.0083910208, 0.0385106355, -0.0215589739, -0.0485373028 },
      { -0.0152401868, -0.0634558722, 0.0080393190, -0.0069008861 },
      { -0.0251514018, 0.0105332145, -0.0121231247, -0.0085536670 },
      { 0.0247861408, 0.0203338247, -0.0292881876, -0.0252046268 }
    },
    {
      { -0.0065251691, -0.0326241292, -0.0768908933, -0.0430861600 },
      { -0.0802784935, -0.0379450470, -0.0506287925, -0.0638845563 },
      { -0.0819508508, -0.0350465775, -0.0766437948, -0.0730615780 },
      { -0.0589449108, -0.0726988763, 0.0150038321, 0.0092754858 }
    },
    {
      { -0.0397275202, -0.0378184319, -0.0528323054, -0.0337633006 },
      { 0.0151593573, -0.0118339164, -0.0140691614, 0.0409055725 },
      { 0.0321590230, 0.0175457671, -0.0090472512, -0.0181075595 },
      { 0.0255563129, -0.0343009718, -0.0796619430, -0.0165890828 }
    }
  },
  {
    {
      { 0.0921003073, 0.0160536021, -0.1070843562, 0.1089035422 },
      { 0.1487613320, -0.0822002739, 0.0901533365, -0.0491537899 },
      { 0.0627149343, -0.0736048073, 0.3045802116, -0.1093344688 },
      { 0.2804391384, -0.0481459498, -0.1834086031, 0.0175091345 }
    },
    {
      { 0.2769598663, 0.1130033508, -0.0738062784, -0.1226140037 },
      { 0.1421076506, 0.0380483009, -0.3204696178, -0.0962780565 },
      { 0.0050037722, 0.2217635512, 0.1288018227, 0.1039200425 },
      { -0.2018119395, -0.3884567022, -0.1720955521, -0.0766875818 }
    },
    {
      { 0.2390437573, 0.1434779763, 0.0592834949, -0.1201027557 },
      { 0.1435175985, -0.0231070947, -0.1160422936, -0.2028551400 },
      { 0.1664757878, -0.0587310530, -0.0176814571, 0.0277610682 },
      { -0.1255031824, -0.2223946899, -0.2505473197, -0.0991772935 }
    },
    {
      { 0.0635829568, 0.1353035867, -0.0132872136, -0.0393253341 },
      { 0.0290619899, -0.1345201135, -0.1802053601, -0.4069266319 },
      { -0.0486419611, -0.0397290885, 0.2215890884, -0.4258597791 },
      { 0.2410909981, -0.0327280536, -0.4235742092, -0.3344404995 }
    },
    {
      { -0.0075556771, -0.1669610292, -0.1336832792, 0.1480273455 },
      { 0.0795040578, -0.0000915302, -0.0622063316, 0.3628598154 },
      { -0.0398788042, -0.0470116623, -0.0008930009, 0.1152252182 },
      { 0.0724776164, 0.0216686875, -0.0632094145, -0.4354161322 }
    },
    {
      { 0.0391807482, -0.2239133865, -0.0790616870, -0.2601083517 },
      { 0.0687021092, -0.0965304747, -0.0994414240, -0.1406994462 },
      { -0.0505642779, 0.0482342727, 0.0236228220, 0.0951071754 },
      { 0.0946402773, -0.0691716298, -0.1158905774, -0.0871030539 }
    },
    {
      { -0.2073012143, -0.0374288298, -0.0484141596, 0.2789500058 },
      { 0.1003939509, 0.2504081130, 0.0674215332, 0.1789480746 },
      { 0.4077829421, 0.0176544432, 0.0928509980, 0.0558394305 },
      { 0.2668661177, 0.0840321928, -0.1482279152, -0.1900514066 }
    },
    {
      { 0.0716004223, 0.1436388642, 0.2410968095, 0.1191204786 },
      { 0.2453823090, 0.2747071087, 0.1432476044, 0.1253210604 },
      { 0.2695850730, 0.3213693798, 0.0641990378, -0.1309018731 },
      { 0.0391598307, 0.1282965988, 0.2030754983, 0.1332398504 }
    },
    {
      { 0.1811253577, 0.1673121750, 0.1277041882, -0.0977272987 },
      { 0.1254706830, -0.1265604049, -0.0091492375, -0.0951951221 },
      { 0.0343049765, -0.0468181968, 0.1476290822, 0.1363486648 },
      { -0.1814328432, -0.2165687531, -0.1485810131, -0.3377318680 }
    },
    {
      { 0.1015421376, 0.1006104872, -0.0546432845, -0.2412212789 },
      { 0.0305465236, -0.0577834286, 0.0270570405, -0.0267550219 },
      { 0.1120734885, 0.1181787625, 0.1757720560, 0.0461761840 },
      { -0.2544151247, -0.4724388123, -0.2695521712, -0.0132877687 }
    },
    {
      { 0.1002397165, 0.0189370029, 0.0917874798, 0.2996835709 },
      { -0.0108098760, 0.1135773957, -0.0017575538, 0.3489324749 },
      { 0.0058464152, 0.0572092533, 0.1506959200, 0.2776734531 },
      { -0.2592720985, -0.2028937191, -0.2545336783, -0.2103560269 }
    },
    {
      { 0.1196861193, 0.1432106346, -0.3497571051, -0.0737205520 },
      { 0.2058812529, -0.1197844744, -0.0143956672, -0.0530082621 },
      { 0.0886866227, -0.0502176099, -0.1360733807, -0.1269572973 },
      { -0.1028380990, -0.1032205373, -0.1049483567, 0.1880958974 }
    },
    {
      { 0.2810898125, 0.1047907919, 0.0742471963, 0.0201587770 },
      { 0.0272958148, 0.1404977292, -0.1991446167, -0.1284648329 },
      { -0.3009183109, 0.0381075479, 0.0940250605, 0.1543352604 },
      { -0.2686268985, -0.1644379199, -0.0179127660, 0.2507166266 }
    },
    {
      { -0.3341020644, -0.1740038097, 0.1236387491, -0.1492479742 },
      { 0.1555272341, 0.3163109720, -0.0770902410, 0.0135475919 },
      { 0.2463042885, -0.1787325889, 0.0408620313, -0.0328841805 },
      { 0.0597187355, -0.0692983866, -0.1157175526, -0.1883352399 }
    },
    {
      { 0.2844313085, 0.1327034831, 0.0797331110, 0.1386164278 },
      { 0.0564749241, 0.0437337868, -0.0592648238, 0.0436798669 },
      { 0.0151891960, -0.0879059285, 0.2256774455, 0.1808721274 },
      { -0.1611453295, -0.2150492817, 0.2065491825, 0.1902478784 }
    },
    {
      { 0.1746975929, -0.0712295175, -0.2011323124, -0.0050935722 },
      { 0.0793350190, 0.0195574313, 0.1160323918, 0.3723131418 },
      { 0.0682076365, 0.0514866002, 0.2278226912, 0.0981588736 },
      { -0.1209107563, -0.1820764840, -0.1771408319, -0.2661298513 }
    }
  },
  {
    {
      { -0.0619335100, -0.3548893929, -0.0237483718, 0.0582272001 },
      { -0.5970428586, -0.3449748158, 0.1422487497, 0.1834089309 },
      { 0.2217912823, 0.2871848047, -0.3208824396, 0.1792269796 },
      { -0.0001930977, 0.1184890047, -0.2166488916, 0.0320216902 }
    },
    {
      { -0.1015154421, -0.1191446483, 0.0722667426, -0.0445117168 },
      { -0.1591769159, 0.3267788589, 0.1464649886, -0.2756880522 },
      { 0.0965931863, -0.2125126570, -0.1946192235, -0.0894947648 },
      { -0.0403111912, -0.0943083391, 0.0696883127, 0.0487588607 }
    },
    {
      { -0.0072325389, 0.2016137242, 0.0937646031, -0.1576937586 },
      { -0.0154796429, 0.1352509707, -0.0345924795, 0.1142741367 },
      { -0.0928008333, 0.0686651915, -0.1510601938, -0.1247369722 },
      { 0.0532447249, -0.2649499178, 0.0617372990, -0.1808093339 }
    },
    {
      { -0.2196155190, -0.1727734506, -0.1362406909, -0.0285821650 },
      { -0.5755376220, -0.4384321868, 0.3536587358, -0.2355190068 },
      { 0.3100715876, 0.1095834523, 0.0229629129, -0.2420333624 },
      { 0.1625185907, 0.0278055482, -0.0185526237, -0.1009173393 }
    },
    {
      { 0.0353156999, 0.1366467923, -0.0658818930, -0.0931366384 },
      { -0.1057272330, -0.1922498941, -0.0314035080, 0.1466865689 },
      { -0.0757474303, -0.1606223732, 0.0993168727, -0.0974213779 },
      { -0.0908961669, 0.0017719637, -0.0800288320, -0.0751045793 }
    },
    {
      { -0.2498292476, -0.1071984321, 0.0234279353, -0.1471508443 },
      { -0.3281410336, 0.0426794738, 0.0987351239, -0.2404970080 },
      { 0.1058089957, -0.1122919247, -0.0667371750, -0.0909245536 },
      { -0.0114030009, 0.0979389176, -0.0767600685, -0.1501571834 }
    },
    {
      { 0.0183278657, 0.3772055507, 0.0479803234, -0.0536074638 },
      { -0.5372444987, -0.4780889452, 0.0308636967, 0.2575065494 },
      { -0.4663098156, -0.0426799729, 0.1438612342, 0.0473889038 },
      { 0.1922762245, 0.0698866919, 0.0014666225, -0.0637024492 }
    },
    {
      { 0.0111057861, 0.3306111693, 0.0047066603, 0.0635072216 },
      { -0.0945532173, -0.0511882082, -0.0793141648, 0.1350346357 },
      { -0.4690928459, -0.1519063115, 0.1474590600, 0.1275165528 },
      { 0.2984929979, 0.1219782010, 0.1067602336, 0.1122755334 }
    },
    {
      { -0.0376207344, -0.1992421150, -0.1848836541, -0.0541636199 },
      { 0.1513029784, 0.1582217664, 0.0123180328, -0.0059021479 },
      { -0.0271388236, 0.0449597538, 0.0183882620, -0.2001604289 },
      { -0.0808622241, 0.0408765338, -0.0182586648, 0.1631100029 }
    },
    {
      { -0.3077000082, -0.0303174071, 0.1418398023, 0.0065295147 },
      { -0.0654987171, 0.2671755850, 0.0081642698, -0.1524199992 },
      { -0.2336493731, -0.5168203115, -0.1943013966, 0.0973269418 },
      { 0.0326050706, -0.0551795289, -0.0932969898, 0.2149921656 }
    },
    {
      { 0.0003439617, -0.1386741996, -0.2459357530, -0.1228129566 },
      { 0.0525968336, -0.0414526500, 0.2352012843, -0.0619159490 },
      { -0.1299600601, -0.1682901680, 0.0628500953, -0.0607239231 },
      { 0.0017410117, -0.0442032814, -0.0676393434, -0.1391190588 }
    },
    {
      { 0.3192358613, 0.1700470746, -0.0607990660, 0.1052138507 },
      { 0.1150622591, 0.0663290545, -0.0324729532, 0.1575771272 },
      { -0.1327051371, 0.2213379592, 0.1169390827, -0.2083489746 },
      { -0.0827678517, -0.0333935134, 0.0670182258, -0.1191898733 }
    },
    {
      { -0.1099920496, 0.1250795275, -0.1477013379, 0.0620277263 },
      { 0.0854402483, 0.0266078822, 0.1139511541, 0.1844216138 },
      { -0.1329254806, -0.1523275226, 0.0573536418, -0.0089173047 },
      { 0.1231826320, 0.0564508066, -0.1057550758, -0.1305643022 }
    },
    {
      { -0.4520465136, -0.0263461303, -0.0928244963, -0.2113651633 },
      { 0.0310541037, -0.3097052872, -0.1261200160, -0.0325630121 },
      { 0.0306199435, 0.0631452203, 0.1617226303, 0.2125297338 },
      { 0.0051276097, -0.1087607518, -0.1330226809, 0.0679029748 }
    },
    {
      { 0.1964179277, 0.0609064214, -0.0365640111, -0.0396196619 },
      { 0.2244156748, 0.0608011372, 0.1871025413, -0.1312528551 },
      { 0.0356149748, 0.0290571731, 0.1258670390, -0.3508813679 },
      { 0.1083616838, 0.0487918183, 0.2054250687, 0.1680243015 }
    },
    {
      { -0.4756829143, -0.0676203296, 0.0883582607, -0.0735291690 },
      { -0.0751696378, -0.0974717140, -0.1437198967, 0.1983360946 },
      { 0.0060753347, 0.1164325103, 0.0643605143, 0.1133813411 },
      { -0.3097459078, -0.3236882389, 0.1511180103, 0.2484080493 }
    }
  },
  {
    {
      { -0.0389997251, -0.0044922107, -0.0375034921, -0.0129019814 },
      { -0.0034077645, -0.0210983567, -0.0271044690, 0.0179545693 },
      { -0.0197047573, 0.0399054512, 0.0660971552, -0.0069749434 },
      { -0.0016082982, -0.0528396964, -0.0485670418, -0.0652372539 }
    },
    {
      { 0.0160166733, -0.0103146238, 0.0532243773, -0.0302007254 },
      { -0.0151212513, 0.0137824519, -0.0369106233, 0.0279886704 },
      { 0.0199085809, 0.0215581432, -0.0632992983, -0.0612724945 },
      { -0.0223874375, -0.0343716480, 0.0040638666, -0.0088628000 }
    },
    {
      { 0.0055719069, -0.0113752224, 0.0428095311, 0.0340416804 },
      { 0.0081121009, -0.0553889088, -0.0164422747, -0.0421719588 },
      { -0.0251168665, -0.0424449965, 0.0058782138, 0.0174745359 },
      { 0.0459839888, -0.0580057539, -0.0169821512, -0.0680570751 }
    },
    {
      { -0.0233217608, -0.0336896591, -0.0235170349, -0.0068531912 },
      { 0.0018015660, 0.0029095372, -0.0133508872, 0.0510833375 },
      { 0.0440849550, -0.0534467623, -0.0279333759, -0.0406720862 },
      { 0.0015610101, 0.0175984185, -0.0003898918, -0.0526029095 }
    },
    {
      { -0.0262595862, -0.0492171235, -0.0364420153, -0.0258118231 },
      { 0.0439751446, -0.0450341627, 0.0496308357, 0.0386625007 },
      { 0.0225590505, -0.0616301969, -0.0459411331, 0.0104981167 },
      { 0.0261009634, -0.0394446440, -0.0353073440, -0.0633198097 }
    },
    {
      { -0.0113079436, 0.0096745864, -0.0027579165, 0.0227166694 },
      { -0.0275284853, -0.0595836192, -0.0248273015, 0.0307694934 },
      { -0.0473832637, -0.0849785134, -0.0186026748, 0.0093567958 },
      { -0.0043636244, -0.0647221580, -0.0616917126, 0.0355937518 }
    },
    {
      { -0.0404236019, -0.0614279769, -0.0607778542, -0.0628352240 },
      { 0.0361743234, 0.0368309952, -0.0249766093, -0.0088946046 },
      { 0.0236298367, -0.0453060158, 0.0299315993, 0.0184167363 },
      { -0.0493410081, 0.0055430573, -0.0128097609, -0.0337749347 }
    },
    {
      { -0.0672462285, 0.0087134866, 0.0022496141, -0.0522123799 },
      { -0.0329459123, 0.0232214723, 0.0120910741, -0.0406076722 },
      { -0.0471798815, 0.0205791257, 0.0197029002, 0.0117261754 },
      { 0.0245580785, -0.0542766824, 0.0233816784, -0.0292346552 }
    },
    {
      { -0.0318921134, -0.0760937408, 0.0153147280, 0.0117838336 },
      { 0.0442108475, -0.0671657771, -0.0462648720, 0.0523747467 },
      { 0.0502154604, 0.0203013420, -0.0154089183, -0.0072395876 },
      { -0.0388337858, -0.0397256352, -0.0217432659, -0.0222261157 }
    },
    {
      { -0.0763374344, 0.0026174712, -0.0009028956, -0.0346248485 },
      { -0.0367444865, -0.0002793233, 0.0143055618, -0.0418768562 },
      { 0.0578973740, -0.0213140342, -0.0445862375, -0.0577539057 },
      { -0.0243528802, 0.0480115190, -0.0175202973, -0.0178272240 }
    },
    {
      { 0.0420983098, -0.0448402390, 0.0272990707, -0.0038356525 },
      { -0.0110013550, -0.0563259497, -0.0594334044, 0.0272644702 },
      { 0.0196481850, 0.0512239113, -0.0470284671, 0.0221700352 },
      { -0.0006399350, -0.0322512016, 0.0631607696, 0.0119592864 }
    },
    {
      { 0.0102054197, 0.0113764452, -0.0533751585, -0.0628089905 },
      { 0.0105029969, -0.0621011294, 0.0265073031, 0.0464010984 },
      { 0.0286226589, -0.0129379509, -0.0556482524, -0.0118058901 },
      { -0.0294302106, 0.0309190974, 0.0518900678, 0.0088819610 }
    },
    {
      { 0.0014469028, 0.0172569230, 0.0314853713, -0.0210462753 },
      { -0.0143968547, 0.0331792571, 0.0130059784, 0.0008649889 },
      { -0.0329746641, -0.0229246672, 0.0334534869, -0.0280014332 },
      { 0.0534376241, -0.0135457302, 0.0100065535, 0.0500206575 }
    },
    {
      { -0.0153672686, 0.0117242057, -0.0126872724, -0.0037713978 },
      { 0.0098126195, 0.0119494582, 0.0293309540, -0.0651170835 },
      { -0.0237956326, 0.0469663143, -0.0680820569, -0.0072411797 },
      { 0.0519430898, -0.0114487270, 0.0321221948, -0.0703771561 }
    },
    {
      { 0.0235425811, -0.0426757075, -0.0763168931, -0.0047902139 },
      { -0.0646524578, -0.0038715608, -0.0092785554, -0.0558644235 },
      { -0.0390523486, -0.0192167033, -0.0378775634, 0.0537741818 },
      { -0.0063452586, -0.0266166478, -0.0648605302, 0.0051232371 }
    },
    {
      { 0.0614046082, 0.0280373450, -0.0516719408, 0.0212389287 },
      { 0.0460722968, -0.0422545969, -0.0626762509, -0.0382052884 },
      { -0.0310635846, 0.0421133935, 0.0193580575, -0.0672287196 },
      { -0.0451695658, -0.0422415026, 0.0330661647, 0.0285708383 }
    }
  },
  {
    {
      { 0.1043314338, -0.2481304854, 0.1889941990, 0.1667535752 },
      { -0.0928121880, -0.0885838643, 0.1381809562, 0.0426935107 },
      { -0.0843773559, -0.1043102667, 0.0513479523, -0.1744404584 },
      { 0.1333066076, -0.5850580335, 0.0260027926, -0.0291155092 }
    },
    {
      { 0.3350710273, 0.1176437661, -0.2155207694, -0.2676351666 },
      { 0.2729688287, 0.1435124278, -0.1684302539, -0.0369204544 },
      { 0.1259635091, 0.1970525533, 0.1288795471, 0.0951890945 },
      { -0.5966647267, -0.1840160936, 0.0519819856, -0.1089829281 }
    },
    {
      { 0.2548246086, 0.0084481249, -0.0234501250, -0.1388284713 },
      { 0.1399621814, -0.0423333682, -0.3205933273, -0.3886693120 },
      { -0.0410513692, -0.0445543528, -0.1975129396, -0.1297972053 },
      { -0.1470049322, 0.1455658227, -0.0380658358, -0.0715876445 }
    },
    {
      { 0.2305709869, 0.1694138050, 0.0531706214, -0.0339558199 },
      { -0.0391992182, 0.0661035553, -0.0315861292, -0.1577545851 },
      { -0.1343649328, -0.1162200868, 0.1498565078, -0.1569720507 },
      { -0.1691276282, -0.4955455959, -0.3432519436, -0.4573831260 }
    },
    {
      { 0.3723424375, -0.0641893744, -0.1259535551, 0.2019167393 },
      { 0.1291283220, -0.0155787896, -0.0632142723, 0.2449822128 },
      { -0.0497661680, -0.3282285631, -0.0251790676, 0.2497304380 },
      { -0.2012407184, -0.0051884428, 0.0303977504, -0.3452749252 }
    },
    {
      { 0.1846947223, 0.2662510872, -0.0604925081, -0.1096151993 },
      { 0.1170305908, 0.0467743538, 0.0784999430, 0.1763908267 },
      { 0.0524806753, 0.0739522204, 0.0672259033, 0.1797665805 },
      { -0.0771532357, -0.2615182996, -0.1323801726, -0.0701802894 }
    },
    {
      { 0.4047060013, 0.1669226140, -0.0186998956, 0.1435286999 },
      { 0.0777566060, -0.0133468760, 0.0656845123, 0.2385258675 },
      { 0.1640600860, -0.0140131805, 0.0313773863, 0.1439694911 },
      { 0.1001386270, -0.1523305029, -0.0729727596, -0.1830929071 }
    },
    {
      { 0.2154325247, -0.1622377336, -0.1730570495, 0.1440762877 },
      { 0.1297127753, 0.0150172561, -0.0338086039, 0.0294525772 },
      { -0.0814438313, 0.0606702007, -0.0174184889, 0.0104639679 },
      { -0.1744271368, 0.0380443744, 0.1017262712, 0.2314661890 }
    },
    {
      { 0.2032633424, 0.0745755881, -0.0762033984, -0.0563383289 },
      { 0.3822477460, 0.1508869082, 0.1890844256, -0.3151607811 },
      { 0.2894031405, 0.0748167560, 0.1147477180, 0.2245968580 },
      { -0.0400721394, -0.0708721876, -0.0194046255, -0.2261991650 }
    },
    {
      { 0.2165424824, 0.2142239660, -0.2677987814, -0.2998428643 },
      { 0.1875538677, 0.0670004338, 0.0087947845, 0.1070469841 },
      { -0.0796324313, 0.1621819884, 0.0701411590, -0.0176960360 },
      { -0.7522503138, -0.2178436220, 0.1679273695, 0.0582435057 }
    },
    {
      { 0.1076695994, -0.0417612456, -0.0642374083, 0.1285444498 },
      { 0.0658128262, -0.0321256444, -0.0806431249, 0.3905224204 },
      { -0.0137148434, 0.0475831106, 0.0805302188, 0.1294205189 },
      { -0.2322273254, 0.0352099761, 0.0646932200, -0.0059753489 }
    },
    {
      { -0.0037527767, 0.1804660559, 0.0625315756, 0.0449183658 },
      { 0.0502260886, -0.1214613393, -0.0831822455, -0.0097199362 },
      { -0.1816442758, -0.0832357183, -0.1505719572, -0.0817553326 },
      { 0.1640108079, 0.1340705007, -0.1207354218, 0.0742388368 }
    },
    {
      { 0.0532812886, -0.0563446097, -0.2106303126, -0.0483827814 },
      { 0.1182470098, 0.0729009956, 0.0122984601, -0.1469004303 },
      { -0.3044911921, -0.2261337936, 0.1370841265, 0.1769300550 },
      { -0.3110119104, -0.0528719760, 0.0113428663, 0.1589652151 }
    },
    {
      { -0.0070749018, 0.3035576642, -0.1744390875, -0.0824177414 },
      { -0.0133104119, 0.1679142565, 0.0617248043, 0.0822141021 },
      { -0.0188807547, -0.0855405480, -0.4972687066, -0.2897248566 },
      { 0.0769286528, -0.5227986574, -0.0927994698, 0.0074744220 }
    },
    {
      { -0.0435944609, -0.1608167142, 0.0706401765, -0.1794425994 },
      { 0.0413566269, 0.0055012018, 0.0934755132, -0.4575434923 },
      { -0.0910010189, -0.0346935242, 0.1389584392, 0.0213895272 },
      { 0.1859098673, 0.0806047767, 0.0654098839, 0.0424750596 }
    },
    {
      { 0.2577190399, 0.1290422231, -0.1802991629, 0.1155597121 },
      { -0.0537474193, -0.0484310463, 0.2917002738, 0.1641798317 },
      { -0.0235605091, -0.1935716867, 0.0609168895, 0.1184298471 },
      { -0.2903808355, -0.3663803041, -0.1698151082, -0.0399910808 }
    }
  },
  {
    {
      { 0.2479629964, 0.4641395211, 0.2084719688, -0.2276925594 },
      { -0.1278605014, -0.1628551334, -0.0022855431, 0.0463266745 },
      { -0.0146796759, -0.1807184368, -0.1039219722, 0.3096655011 },
      { -0.1394851208, -0.3875242472, -0.1254646927, 0.1633737385 }
    },
    {
      { -0.2221848667, -0.0346809551, -0.1121331230, 0.0718451068 },
      { -0.1409289092, 0.2358403504, 0.1762790829, 0.1444526017 },
      { -0.1174949035, 0.0080053117, -0.0331262015, -0.0817148313 },
      { -0.0369418822, -0.0917184427, 0.0986848995, -0.0526753590 }
    },
    {
      { -0.2369027883, -0.2128106058, -0.3187361360, 0.1718555391 },
      { -0.0261299554, -0.0533352122, -0.2009226680, -0.1518526822 },
      { -0.1361650229, -0.1414854825, -0.1004298925, -0.1542691290 },
      { -0.0216464438, -0.0108465701, 0.1720177531, -0.0317879431 }
    },
    {
      { -0.1615930051, 0.1813245565, 0.2898527980, 0.0482235178 },
      { -0.3610664904, -0.1857060343, 0.0587242208, 0.2554668486 },
      { -0.0953825191, 0.0538653620, 0.2180146128, 0.3173090518 },
      { 0.0016192066, -0.0675816089, -0.1003792956, -0.1354236454 }
    },
    {
      { -0.3121135831, 0.1217015013, 0.1779068708, 0.1294071972 },
      { 0.0053043333, 0.0132222623, -0.0346121080, -0.0853927732 },
      { -0.0389554054, -0.0276553202, 0.0403547734, -0.0276174452 },
      { 0.0057748021, 0.0579948016, -0.0491313338, -0.1420468241 }
    },
    {
      { -0.1349912733, 0.1314078420, 0.1750098616, 0.4313583970 },
      { -0.2890250087, 0.1603238732, 0.2546955645, 0.4049670398 },
      { -0.1393153369, -0.0478097163, -0.0037935509, -0.0524901859 },
      { -0.1849620938, -0.0627412125, -0.0811863318, -0.2439274788 }
    },
    {
      { 0.3285512328, 0.3144465387, 0.3000921309, 0.0726045966 },
      { -0.1311469525, 0.0123559246, -0.0620574988, -0.3495533466 },
      { -0.1423787177, 0.0216495693, 0.1216509417, -0.0911077037 },
      { -0.2461226135, 0.0747254863, -0.0838839114, 0.0238730349 }
    },
    {
      { 0.4239626825, 0.2024402171, 0.0125464732, -0.3242743909 },
      { -0.1449781954, 0.0501377918, 0.0349512026, -0.2592746615 },
      { -0.3197799623, 0.1344692856, 0.2391503006, 0.0008044438 },
      { -0.2729625106, 0.1184801385, 0.1041655242, 0.2006570697 }
    },
    {
      { -0.6846446991, -0.1616188288, 0.1322919726, 0.1876229495 },
      { 0.0587647967, 0.0389619060, 0.0716888756, -0.0113893934 },
      { 0.1072608605, -0.0181633532, -0.1564266682, 0.0567507073 },
      { 0.0573874936, 0.0868094042, -0.0351333506, -0.0524415560 }
    },
    {
      { -0.2292556763, 0.1092990339, -0.0836599991, -0.0980630368 },
      { -0.1013987958, 0.2420301288, 0.1099211946, -0.1111990288 },
      { -0.1599467993, -0.0964009687, -0.0104250433, 0.0441101007 },
      { -0.1795932651, 0.0653052106, 0.0089658601, 0.1330450326 }
    },
    {
      { -0.0690581277, 0.1131268069, -0.0364278443, 0.2529036403 },
      { 0.1403521746, 0.2166558206, 0.0815308020, -0.2086251676 },
      { 0.2363139987, -0.0428941958, 0.1557179689, -0.3539197147 },
      { 0.1237836778, -0.0081767123, -0.1154920533, -0.0879221708 }
    },
    {
      { -0.0443994775, -0.1439889371, -0.0208168160, 0.1761162728 },
      { -0.0042776586, 0.0237945039, -0.1994628757, -0.1612350047 },
      { -0.1606763303, -0.1480871290, -0.0142788375, 0.1894106418 },
      { 0.1138596311, 0.0469404571, -0.1181782186, -0.1248724014 }
    },
    {
      { -0.1357616484, 0.0945155025, -0.0127012692, -0.3108275831 },
      { -0.0291265938, 0.1479481757, 0.1213409305, 0.1435182542 },
      { -0.1833966523, 0.0005039151, 0.2074189186, -0.0033402597 },
      { -0.1379887760, 0.0843400657, -0.1733764410, 0.2936300635 }
    },
    {
      { -0.0951557979, -0.0551503971, 0.0602351837, 0.2804033756 },
      { -0.1926873177, -0.0709088817, -0.0624330975, 0.1571500450 },
      { -0.2048201710, -0.0265204664, 0.1500587612, -0.0389434285 },
      { -0.2970820963, -0.3066985607, 0.0078337034, -0.0577010773 }
    },
    {
      { 0.1901092380, -0.2055464387, -0.3164900839, -0.3006300330 },
      { 0.2777229548, 0.0379253477, -0.2355433255, 0.1662315279 },
      { 0.1086647138, 0.0362673588, -0.1248404607, 0.0620529614 },
      { 0.0680895373, 0.1979315877, 0.0595765598, -0.0024271635 }
    },
    {
      { -0.5367981791, 0.2197538316, 0.2022079974, 0.3288232684 },
      { -0.3081223369, 0.0796132162, 0.2959465384, 0.0892635882 },
      { -0.1012947634, 0.0006825371, 0.1131368876, -0.0024617780 },
      { 0.0394359306, -0.0609252155, 0.0118214618, -0.0574720278 }
    }
  },
  {
    {
      { 0.0319447033, -0.0351535566, 0.0651770383, 0.2604790926 },
      { -0.1940587312, -0.1707952470, 0.0508725941, 0.1867731661 },
      { -0.1087068617, -0.1159845516, 0.0366848819, 0.1550229937 },
      { -0.0086485054, 0.0910364389, -0.1413796544, -0.0042913118 }
    },
    {
      { -0.0509434417, -0.0237564873, -0.0107758148, -0.1002165899 },
      { -0.1461907625, 0.0903227255, 0.1498803496, 0.0128779132 },
      { -0.0304750651, -0.1371674538, -0.1382351965, -0.1925070584 },
      { -0.0878690705, -0.1834869981, 0.0415534675, 0.0752369389 }
    },
    {
      { -0.0097012520, -0.1341395825, -0.0000016273, -0.2655199170 },
      { -0.0290286951, 0.0128695602, 0.0639863014, -0.0242281258 },
      { -0.0702692941, 0.0892067999, 0.1452274919, 0.1678943485 },
      { -0.2601466477, -0.0804203525, -0.0602774322, -0.1968819052 }
    },
    {
      { 0.0898149535, 0.0071044592, -0.0664697140, -0.1180448458 },
      { -0.1579711884, -0.1003029868, 0.1615905911, 0.1340193450 },
      { -0.0797912702, 0.1302874088, -0.2099091411, -0.2335650027 },
      { 0.1273846179, -0.0556587949, -0.3195182085, 0.3447082043 }
    },
    {
      { -0.1145229191, -0.0054170140, -0.0768788904, -0.1205055043 },
      { -0.0850218758, 0.1502105892, 0.1243908480, -0.1229446903 },
      { -0.0166208670, 0.1150691882, 0.0141000254, 0.0483561531 },
      { -0.1022267789, -0.0218532141, 0.0044118804, 0.1273100972 }
    },
    {
      { 0.0374066271, 0.0039009773, -0.1714463085, -0.3081246316 },
      { -0.1652652025, 0.0067521194, -0.0631005540, -0.2791784108 },
      { -0.0607808381, 0.0972128436, -0.1831626445, -0.1633388400 },
      { -0.0565718152, -0.0044341846, 0.2066124827, 0.5841180682 }
    },
    {
      { -0.0688298643, -0.0019794153, -0.1013282016, 0.0580610186 },
      { 0.0268817451, -0.0552200638, 0.1512877792, -0.0951889977 },
      { -0.3205244541, -0.2095474601, 0.1184054241, -0.0264944769 },
      { 0.0926264375, 0.0943813249, -0.1267226189, -0.1128398329 }
    },
    {
      { -0.4160765111, -0.0397715792, 0.0895770565, 0.0797154754 },
      { -0.2667483091, -0.2029795051, 0.0767136738, 0.0648645982 },
      { -0.5079887509, -0.3688139617, 0.1304971129, 0.0594701432 },
      { 0.0785870850, 0.1294043958, 0.0299547575, 0.0140833817 }
    },
    {
      { 0.0027501271, -0.2958716154, -0.2036462575, -0.1299326867 },
      { 0.1441169977, 0.1115791649, 0.0362525098, -0.0294949245 },
      { -0.0608553700, -0.1214111000, -0.0059335027, 0.0106005659 },
      { -0.3184861541, -0.3037348986, -0.0878853947, 0.0137753058 }
    },
    {
      { -0.1803853959, -0.0198504776, 0.1086482555, -0.0437724367 },
      { -0.0261630621, 0.0169927627, 0.1264244616, 0.2336021364 },
      { -0.1691118181, -0.1701092869, -0.2345478535, -0.0376757346 },
      { -0.2584047019, -0.1186039150, 0.0961433277, 0.4166484177 }
    },
    {
      { -0.2052202523, -0.0745568201, -0.1285929084, -0.1280532330 },
      { 0.1074740291, 0.1113654599, 0.0531736389, 0.1296504140 },
      { 0.0463968925, 0.0837958530, -0.0291909613, 0.0829411000 },
      { -0.0649591684, -0.1281802952, -0.1670344174, 0.2432660013 }
    },
    {
      { 0.1274093091, 0.0551433116, -0.2117973864, -0.2651352584 },
      { 0.1361282915, 0.1992487162, -0.1012317017, -0.1488832682 },
      { 0.0081887795, 0.1404529810, 0.1496890932, -0.0744865239 },
      { -0.2060075402, 0.0347445793, -0.0673314631, -0.2099475116 }
    },
    {
      { -0.3223360777, -0.0055730841, 0.1378351003, 0.1478367001 },
      { 0.0119512621, 0.0517758429, 0.1400496960, 0.0619590767 },
      { -0.0874089077, -0.0653811991, -0.2785685360, -0.0459468812 },
      { -0.0220146291, 0.1982297748, 0.1056858748, -0.1664438397 }
    },
    {
      { -0.1922965944, 0.2009875327, 0.0677696988, -0.1637328416 },
      { 0.0168758575, -0.1285143495, -0.1115763783, -0.0315525979 },
      { 0.1590571851, 0.0585418232, 0.2003997713, 0.1083156243 },
      { 0.2615457177, 0.0574092418, 0.0095256148, -0.0683033094 }
    },
    {
      { 0.0616961606, 0.1839102060, -0.0512683839, -0.1584184915 },
      { 0.0766267329, 0.0122208018, 0.1448664218, -0.3232621551 },
      { -0.1112788841, -0.0259726252, -0.0044561480, -0.1956848651 },
      { -0.0722156465, 0.0459901057, 0.2769528031, -0.0849903524 }
    },
    {
      { -0.1827326268, -0.0330108069, -0.1057289466, -0.0206056200 },
      { 0.1203654706, 0.0274967644, -0.1967316121, -0.0577191003 },
      { 0.1860949397, 0.0326167494, 0.0536787920, 0.3601863682 },
      { -0.1176432520, -0.0715236887, 0.0640199035, 0.0939373225 }
    }
  },
  {
    {
      { 0.0224648938, -0.2879188359, -0.2196935564, -0.2409390658 },
      { -0.2159475833, 0.0511291511, -0.0950052813, 0.2244396061 },
      { 0.0379171371, 0.2998033762, -0.1081497222, 0.3291660547 },
      { 0.0538644120, 0.2001434863, -0.2500405014, 0.1552681476 }
    },
    {
      { -0.1886795461, -0.0381147340, 0.1263940781, 0.1431196779 },
      { 0.1086797044, -0.0022663879, -0.1045476496, -0.0174236130 },
      { 0.0853356346, -0.0874096826, -0.2364371419, -0.2189306021 },
      { 0.0214258023, 0.2312491387, -0.1061226502, 0.0311759971 }
    },
    {
      { -0.0076561924, 0.0808817819, 0.1027401462, 0.1298317760 },
      { 0.2179912478, 0.0702137500, -0.0872586221, 0.3519746959 },
      { 0.1350366622, -0.0942044184, -0.3344834447, 0.0687919483 },
      { -0.0185607504, 0.0492030233, 0.0081907809, 0.0686599985 }
    },
    {
      { 0.0275207255, -0.0061993548, 0.0289021991, 0.0036352542 },
      { -0.2363801897, 0.0394852795, -0.1430536807, -0.0273749884 },
      { 0.1113745496, 0.2984777391, -0.0159722865, 0.4620466530 },
      { 0.0231519192, 0.0659068972, -0.1688135415, 0.3003531098 }
    },
    {
      { 0.0784435943, 0.0782222599, 0.0439624265, -0.0414240658 },
      { 0.1178554893, -0.0681409240, -0.2863556147, -0.3527063131 },
      { -0.0660707876, -0.0136321597, -0.1643364429, -0.1116083488 },
      { 0.1048837751, -0.2751221359, 0.0087078381, 0.3215463758 }
    },
    {
      { 0.0301164947, -0.0200209487, 0.1223318651, 0.0866095051 },
      { -0.1357120275, 0.0261846911, -0.0419798195, -0.1032725871 },
      { 0.1301984638, -0.0438919589, -0.0794770345, -0.2948080599 },
      { 0.0637638271, 0.0730563551, 0.0678263605, 0.2660777569 }
    },
    {
      { 0.1032250300, 0.2267265320, -0.0677282587, -0.2064685524 },
      { 0.1956210583, -0.0565547310, -0.2000677586, -0.2074577063 },
      { -0.3256543577, -0.0758523792, 0.0457889847, -0.1186076030 },
      { -0.0599441007, -0.1380891204, 0.0958832651, 0.1781194359 }
    },
    {
      { 0.0524288341, 0.1829654723, -0.3181861639, -0.1166070178 },
      { 0.0973391533, 0.1323379725, 0.0551653765, -0.0302014947 },
      { -0.2809221447, -0.1246666238, 0.0891608372, 0.0099073574 },
      { -0.0574084483, -0.1688739657, 0.0618308336, -0.1442053467 }
    },
    {
      { 0.0065253279, 0.0607228056, 0.0596586764, -0.0219614170 },
      { -0.0147458361, 0.1007967666, 0.0049854023, -0.1177218184 },
      { 0.0577008277, -0.0110232113, -0.1789421886, -0.3615368307 },
      { 0.0633332953, 0.0018231373, 0.0400166288, 0.0685717389 }
    },
    {
      { -0.1347040683, 0.0133451708, -0.0353725627, -0.0219246671 },
      { 0.0387488492, 0.0647947937, -0.3195740283, -0.0064577796 },
      { 0.2185353935, -0.0950930938, -0.3134539723, 0.0102921445 },
      { -0.0291925054, 0.2754489481, 0.0334415771, 0.1645498425 }
    },
    {
      { 0.0876971483, 0.0632704794, 0.2077803612, 0.0888997987 },
      { 0.2033219784, -0.0222692788, -0.0949426666, -0.1896563768 },
      { 0.2099023610, -0.1403368711, -0.2997749448, 0.0440219454 },
      { -0.0806898698, -0.1046232954, 0.2109010667, -0.0163249001 }
    },
    {
      { 0.2104637772, -0.1052176282, 0.0460899472, -0.0415851772 },
      { 0.1164303571, -0.0362014659, 0.0745028406, -0.0061172885 },
      { 0.1722261459, -0.1907184571, 0.1656519771, 0.0332999229 },
      { -0.0879181996, -0.1434605867, 0.0388798788, -0.0629779398 }
    },
    {
      { 0.1890191585, 0.1641323566, 0.0790141001, -0.0287577864 },
      { 0.0058103539, 0.0308658388, -0.2709762454, 0.1199273840 },
      { 0.1309744269, -0.0376265310, -0.3107281625, 0.1541369855 },
      { 0.0869739801, 0.2597235441, 0.0231322981, 0.1272408813 }
    },
    {
      { 0.0625470057, 0.1872670352, -0.0251435786, -0.2088104784 },
      { -0.0158296302, 0.1920028627, 0.1016364545, 0.0936254337 },
      { 0.1337724775, -0.0228898693, 0.0663707778, 0.1507393718 },
      { 0.1557848454, 0.1556055844, -0.1231132001, -0.1124832779 }
    },
    {
      { 0.1745024323, -0.0384253003, -0.0319511816, 0.1541119516 },
      { 0.0143219093, -0.1774371415, 0.2326557040, 0.0526677594 },
      { -0.2245756239, -0.2349160910, 0.1912251711, 0.0104424534 },
      { -0.0898330063, -0.0528321676, 0.1534203142, -0.0641085431 }
    },
    {
      { -0.1141299456, 0.1685409099, 0.1347962767, -0.0407837294 },
      { 0.2307938784, 0.0321812890, 0.2135841697, -0.1187286153 },
      { -0.0309540853, 0.0058196448, -0.2629658282, 0.2434112728 },
      { 0.0381571837, -0.0782686621, -0.1403851807, 0.1377237737 }
    }
  },
  {
    {
      { -0.0297863092, -0.3266379535, 0.0667788610, -0.0648196191 },
      { 0.1041288152, -0.1626071632, -0.2038428038, -0.0491756611 },
      { 0.1717277914, -0.2552175522, -0.1038933098, 0.0588622354 },
      { 0.0786774978, -0.2663120031, -0.1013822109, 0.0747559369 }
    },
    {
      { 0.0612265915, 0.1466882527, -0.0040051052, -0.1724615395 },
      { -0.1274973005, 0.1091627106, -0.0685408786, 0.1602281779 },
      { -0.0844693258, -0.2275051773, 0.0564184040, 0.0614097379 },
      { -0.1147563010, 0.0480139703, 0.0155775622, 0.2766878903 }
    },
    {
      { -0.1054245234, 0.1915722489, 0.1165562645, -0.2051576972 },
      { -0.0374879576, 0.2628740966, 0.0476365574, -0.2992814481 },
      { -0.3157249093, -0.2852495313, -0.1709049791, -0.0473977625 },
      { -0.0183801074, 0.1295457184, 0.1102033481, 0.1875625253 }
    },
    {
      { -0.0428660735, -0.0191987809, -0.1228359789, 0.0732631385 },
      { 0.2870847583, 0.1004117727, -0.0230589639, 0.0821381807 },
      { 0.2266704589, -0.1607223302, -0.3144733608, 0.0248132441 },
      { -0.0000111209, -0.2860538661, 0.0744730681, -0.0461368449 }
    },
    {
      { 0.1103020534, 0.1382720470, 0.1582242846, 0.0167134199 },
      { -0.0639702976, 0.1173657924, -0.0235630441, 0.1274071336 },
      { -0.0509330593, -0.1457204819, -0.0060430304, 0.0649554208 },
      { -0.2103739530, 0.1672803909, 0.1375745982, -0.0206774846 }
    },
    {
      { 0.0097874533, -0.0123308888, 0.0081598246, 0.1603413969 },
      { 0.0268830266, 0.0778451413, 0.0436956026, 0.0031682150 },
      { 0.1660331637, -0.0119377980, -0.1082536951, 0.2110096812 },
      { 0.0818697438, 0.0521988459, -0.1694991887, -0.3319550455 }
    },
    {
      { -0.0474701561, 0.0112461634, -0.0217579436, 0.0771349296 },
      { -0.0704801381, -0.0520385168, -0.1113005355, 0.1178623959 },
      { 0.0017685636, 0.2154359370, -0.1436761618, 0.0742794126 },
      { -0.0706769973, -0.0023486759, 0.1278605759, 0.1326449215 }
    },
    {
      { -0.1920924336, 0.0325533003, -0.0544093400, 0.1732978225 },
      { -0.3362370729, 0.0108742649, -0.0174587481, 0.1731916666 },
      { -0.4401996732, -0.1642961502, -0.0326699540, 0.1907643676 },
      { -0.0675156936, -0.0689827427, -0.0212684367, 0.2095275670 }
    },
    {
      { 0.0425581895, 0.0239400622, 0.0727306977, 0.0602000728 },
      { 0.1494728327, -0.0764905065, -0.0755859390, -0.1037129462 },
      { -0.4843647778, -0.3901768923, -0.2135514021, -0.2648346126 },
      { 0.1744581610, 0.0105956849, 0.1334361583, 0.1368629783 }
    },
    {
      { -0.0803830251, -0.0177858695, 0.0543685891, -0.1873120219 },
      { -0.1535800248, 0.0309144985, -0.0012266450, 0.1097403169 },
      { 0.0213228241, -0.1030500680, 0.1584884077, 0.0578380749 },
      { 0.0182380397, 0.0207163375, 0.1587028503, 0.2372447997 }
    },
    {
      { 0.0391801856, 0.2002170086, -0.0309773572, -0.1833344996 },
      { -0.0900961161, -0.1310168654, -0.0267389342, 0.2514535487 },
      { -0.3677386343, -0.4462229908, -0.2995461822, 0.2259922922 },
      { 0.2938959301, 0.1273671091, 0.0103575168, -0.0434638262 }
    },
    {
      { -0.0073056920, 0.5766754150, 0.0198597033, -0.0505105481 },
      { 0.1714947671, 0.1505083889, 0.2413051277, 0.0400923342 },
      { -0.3741201758, 0.1945740134, -0.0893415213, 0.0021332651 },
      { 0.0277195647, -0.0488162935, 0.2159310281, 0.0842302144 }
    },
    {
      { 0.0303288158, 0.1406728029, -0.0707233474, -0.1138727069 },
      { -0.4550713003, -0.2229682058, 0.0252666175, 0.2631127536 },
      { -0.0855292454, -0.1415987164, 0.1403943151, 0.0637455657 },
      { 0.2253901213, 0.0310764220, -0.0559553839, 0.2334092408 }
    },
    {
      { -0.0274960268, -0.0688659176, -0.0193875004, 0.0870291442 },
      { -0.0469204187, -0.0502791591, -0.1467138976, 0.0691027790 },
      { -0.1893988997, -0.1983449161, -0.4131564796, -0.2457274050 },
      { -0.4349413812, -0.3165180385, -0.2864969075, -0.0694277287 }
    },
    {
      { 0.0091838259, -0.0201684572, 0.0532976426, -0.2823493779 },
      { -0.0656990111, 0.0900680125, 0.2037485540, 0.0177792329 },
      { -0.1569181681, 0.0031667450, 0.1422002763, -0.0470675454 },
      { 0.2704240382, -0.1289203018, -0.1189167723, 0.3273224235 }
    },
    {
      { 0.1491625607, -0.0851128101, -0.0953996330, 0.0893342793 },
      { -0.1498734951, -0.1888834238, -0.1082246527, -0.0005509660 },
      { 0.0008719956, -0.2790109813, -0.0906890333, -0.0128362319 },
      { -0.4785792530, -0.0056158374, -0.0818876028, -0.2001519948 }
    }
  },
  {
    {
      { 0.2265378088, 0.0710093305, -0.3476134241, 0.1266824454 },
      { -0.0152830826, 0.1516945213, 0.0985215157, -0.0065356079 },
      { 0.1056857333, 0.0761876553, 0.0292811841, 0.0937748551 },
      { -0.0609369837, -0.1357555389, -0.5669785142, 0.0942624062 }
    },
    {
      { -0.1720701158, 0.0645329207, 0.1366942674, 0.0885377303 },
      { -0.0687862933, -0.0252991021, 0.2203328907, -0.1883780360 },
      { -0.1925743073, -0.0215667821, 0.0379564799, -0.0061650639 },
      { -0.0212476924, -0.0756951272, -0.0982234329, 0.0060869372 }
    },
    {
      { 0.0404957980, -0.0668040365, -0.0818100050, -0.1401526481 },
      { -0.0703915283, -0.1000140309, -0.0013049297, -0.1451462954 },
      { -0.2326565087, 0.0773224607, 0.1706620455, 0.1337557584 },
      { -0.0802080631, -0.0543530919, -0.0698794052, 0.0843081772 }
    },
    {
      { 0.2512544394, 0.2156132311, 0.1848305166, -0.0099233482 },
      { 0.1091836616, 0.2088337690, 0.1049798205, 0.0167013928 },
      { 0.0479330271, 0.0489143059, 0.0209180191, -0.4824364781 },
      { 0.0114889219, 0.0560145825, -0.2830890417, -0.1756322533 }
    },
    {
      { 0.2312518954, 0.1264150739, 0.0596721210, -0.2497188747 },
      { -0.0087474789, 0.0115642203, 0.0028344230, -0.0958869234 },
      { -0.2940285206, 0.0063665761, 0.2138796747, 0.1293231547 },
      { -0.0040815272, 0.0782972798, 0.0916427225, -0.0967319459 }
    },
    {
      { 0.2961018085, 0.2914428711, 0.2053050548, 0.0644540116 },
      { 0.1162671521, 0.2113286853, 0.2483353466, -0.1741475910 },
      { 0.0766656697, -0.0167798866, 0.1341277212, -0.1526734382 },
      { -0.0435478762, 0.0316032507, -0.3644691110, -0.1663657278 }
    },
    {
      { 0.5362991095, 0.1590414941, -0.1042579785, -0.2570051849 },
      { 0.3194093704, -0.0151137915, 0.0384468324, 0.1879048496 },
      { -0.0880644694, -0.4145749509, 0.1849872321, 0.1942236573 },
      { -0.1513299495, -0.0935329050, 0.0139842825, 0.0634653345 }
    },
    {
      { 0.1243175864, -0.3526502252, -0.3916337788, -0.0259791948 },
      { 0.0849401429, -0.0893884972, -0.1223029718, -0.0047725881 },
      { 0.0150466720, -0.2626712322, 0.0912410989, 0.1080905795 },
      { 0.1748595387, -0.2403487265, 0.0385810584, 0.0917384550 }
    },
    {
      { -0.0769248456, -0.0081565063, 0.0023219958, -0.0798185691 },
      { -0.0421532951, -0.1317599118, -0.0935571790, 0.0552875064 },
      { 0.0709093586, -0.0331333727, 0.0262863431, -0.0095899608 },
      { 0.0632753447, 0.0136736780, -0.0471743755, -0.0743932799 }
    },
    {
      { -0.0773320422, -0.1707977057, -0.0081331274, 0.1469105780 },
      { -0.1564584970, -0.0950541422, 0.1272737980, -0.1492430717 },
      { -0.0088878423, 0.0460165329, -0.0151786897, -0.0286109485 },
      { -0.0137320962, -0.2310943604, -0.1542713493, 0.1468052864 }
    },
    {
      { 0.1061493829, -0.0511736721, -0.1453476101, -0.2880342603 },
      { -0.0608081780, -0.1403229684, -0.2646766603, -0.0379469134 },
      { -0.0070856917, -0.0614629649, 0.0250613894, -0.0216859095 },
      { 0.1527833045, -0.0399122871, -0.2939632237, -0.2743909955 }
    },
    {
      { -0.2037800103, -0.0934187099, 0.1384122372, 0.2254844904 },
      { -0.1819765121, -0.1053905264, 0.1428340822, 0.2579065561 },
      { -0.0478124805, -0.0356383808, -0.2052273005, -0.2618337572 },
      { 0.0429445691, -0.0443934985, 0.0118820397, -0.0295020789 }
    },
    {
      { -0.1153433025, -0.1247360110, -0.1669596434, -0.1273937374 },
      { -0.0488219894, 0.0046123746, 0.0335441604, 0.0774614364 },
      { -0.0495707430, 0.1269715875, 0.0809991136, -0.0724114478 },
      { 0.3887812197, 0.0453264676, 0.3351694345, 0.2238081098 }
    },
    {
      { 0.2913424075, -0.0718172491, -0.0163263679, -0.0711618215 },
      { 0.1783568412, -0.1783499718, -0.2863058746, 0.1122767702 },
      { -0.0791658089, -0.1969598979, -0.0578861870, 0.0379453711 },
      { -0.0279759094, 0.0284253433, -0.1448780894, 0.0556484833 }
    },
    {
      { -0.2644927502, -0.1667174995, 0.0955088362, 0.2863296270 },
      { -0.0235485397, -0.0123109110, -0.1048502326, 0.1750692278 },
      { 0.1008210331, -0.2151347250, -0.2288296521, 0.0148673952 },
      { -0.1863358617, -0.0523137748, 0.1358008832, -0.0914432332 }
    },
    {
      { 0.3397276998, 0.1961463690, -0.0503936484, -0.2242782712 },
      { -0.0430113673, -0.1146949902, 0.0552262813, -0.0454798788 },
      { -0.0030385701, 0.0853324607, -0.1603635699, -0.0992937982 },
      { 0.1120902076, 0.0743491799, -0.1367530823, 0.1133443192 }
    }
  },
  {
    {
      { 0.1222333014, 0.1879125386, -0.6128393412, 0.1980509162 },
      { 0.0205219034, 0.1450639963, -0.1484066993, 0.0795907527 },
      { -0.0599485412, -0.1225868613, 0.1170494333, -0.1296375841 },
      { -0.4100876451, -0.0274072997, 0.3040630519, 0.0007771101 }
    },
    {
      { -0.1046184897, -0.2168677151, -0.0500616208, 0.1284354329 },
      { -0.3086122274, 0.0070211948, -0.0462396666, -0.1411771327 },
      { -0.1742316186, 0.0583710633, 0.0149129266, 0.0379351526 },
      { -0.1347695589, 0.1117285714, 0.0315572321, -0.1355706304 }
    },
    {
      { 0.4676642716, -0.1101059392, 0.0581589490, 0.3056020141 },
      { -0.1878732890, -0.3346866369, -0.3185170293, 0.1017863676 },
      { -0.0515534692, 0.0171337388, -0.3460290730, -0.2446217388 },
      { -0.1065392718, 0.0947779268, 0.0275759213, 0.0142577598 }
    },
    {
      { -0.0869732872, -0.1155534536, -0.2400032133, -0.3414260745 },
      { -0.2724910975, -0.3688625097, -0.0214751866, -0.0976469740 },
      { 0.0241889730, -0.0784708709, -0.0211991649, -0.1093223765 },
      { -0.3538038731, -0.3716799021, 0.1356661320, -0.0925155208 }
    },
    {
      { 0.1270764321, 0.1972094476, 0.1183877215, 0.1440124959 },
      { 0.1974273920, 0.0763655081, -0.2447398007, -0.4732905030 },
      { -0.1503492296, 0.0021894921, -0.4113436937, -0.1402036697 },
      { 0.0665096045, -0.3643677235, -0.0085809976, 0.1513948292 }
    },
    {
      { -0.0216491092, -0.2313091904, -0.1292849481, -0.2197394520 },
      { 0.0414682738, 0.0273538362, 0.1147835031, 0.0609956197 },
      { -0.1905741394, -0.1753898114, 0.0192582849, -0.3126917183 },
      { -0.2714816332, -0.1021879315, 0.0005823060, -0.2929312885 }
    },
    {
      { 0.0383178852, 0.4331121743, 0.1362876296, -0.1134414822 },
      { 0.2801442742, 0.2252387553, 0.0199188311, -0.6024338007 },
      { -0.1556779593, 0.1499836445, -0.1813948601, -0.1923035383 },
      { -0.0474293232, -0.0350878723, 0.0827798396, 0.2318136990 }
    },
    {
      { 0.1335157156, 0.2745848596, 0.1167966202, -0.1108338609 },
      { 0.1331889927, 0.2795508504, 0.0711947381, 0.0389887020 },
      { -0.0338519290, 0.1284202635, 0.0638363287, 0.0028633345 },
      { -0.0169157218, 0.0462306589, 0.1336414218, -0.0213441271 }
    },
    {
      { -0.0364774019, -0.0067558088, 0.0767395645, -0.0000852586 },
      { -0.2605380714, -0.0763556585, -0.1117442846, -0.4613942206 },
      { -0.1841469258, 0.0893840566, 0.0267464668, -0.0702863783 },
      { -0.2364111990, -0.1350104660, -0.1638041139, -0.0547751747 }
    },
    {
      { -0.2893418968, -0.3469611704, -0.1875151396, -0.0646952838 },
      { -0.1215878427, 0.0676379427, 0.0204064474, -0.1330039799 },
      { -0.1318916976, 0.0653919056, 0.0478805862, 0.0297908075 },
      { -0.0662598163, 0.0974012092, 0.1014454588, -0.0744505599 }
    },
    {
      { 0.1701662093, 0.2136916965, -0.1552024633, 0.1249528155 },
      { -0.0792382658, 0.0803058669, -0.2767753899, -0.0702166408 },
      { -0.0942442268, -0.2106661648, -0.1705030501, -0.3510980904 },
      { -0.0845408142, 0.0395432077, 0.0178242568, -0.2094471604 }
    },
    {
      { 0.0400608927, 0.0539920963, 0.0442142338, 0.4860080183 },
      { -0.0892079696, -0.2906971276, 0.2145458311, 0.0554767065 },
      { 0.2061064690, -0.0844961777, -0.0305431169, -0.0432725810 },
      { 0.0424803160, 0.2031661868, -0.1691945791, 0.1795352995 }
    },
    {
      { 0.0330470204, 0.0671923608, 0.1252506524, -0.0223329067 },
      { -0.2103340626, 0.1362208873, -0.1878986508, 0.0794075355 },
      { -0.0433043055, -0.0296832211, 0.1611761749, 0.0629386753 },
      { -0.0315604731, -0.0424688086, 0.2201214731, -0.1433986574 }
    },
    {
      { -0.2112464905, 0.1981209964, 0.0374227837, 0.0885647833 },
      { 0.0179294385, 0.0346340872, -0.0184811298, -0.0771490708 },
      { -0.3175213039, -0.0229641981, -0.3274408579, -0.5527353883 },
      { -0.3088480234, -0.0318962634, -0.2114326656, -0.0340780765 }
    },
    {
      { 0.0835202411, -0.1219057292, 0.2491313219, 0.1268192530 },
      { 0.1350762844, -0.1468055397, 0.1965626776, 0.1671254337 },
      { 0.1769512147, 0.2610493004, -0.1557133198, 0.2729941607 },
      { 0.0846399218, 0.2860925496, -0.2605963051, 0.0447136648 }
    },
    {
      { 0.0945879444, 0.1434489936, 0.1778108925, 0.0456954911 },
      { -0.0680844188, -0.2817559838, -0.1801492423, -0.2393337637 },
      { -0.3924613893, -0.1952288151, -0.1027026772, -0.0936193615 },
      { 0.0155284880, -0.3410556614, -0.1566540450, -0.0142053179 }
    }
  },
  {
    {
      { -0.0083236462, -0.1971621215, -0.0930928513, 0.1766554713 },
      { -0.1722083092, -0.1059471965, -0.0859445482, 0.1128534153 },
      { -0.0037419728, 0.0396060534, 0.0310981032, 0.1905568689 },
      { 0.2811712921, 0.2942563593, 0.0654276311, -0.0335807800 }
    },
    {
      { -0.0275543947, 0.2127328068, 0.1135820523, -0.0085267220 },
      { -0.0434784368, -0.0626366138, 0.0710441843, -0.0810256302 },
      { 0.0479461290, 0.0615010522, 0.1368119717, 0.1968435794 },
      { -0.0506612472, 0.1463600248, 0.0381691419, 0.0979617238 }
    },
    {
      { -0.1141306534, 0.1991623491, 0.0537670329, 0.1118247062 },
      { 0.1046393663, 0.0710496604, -0.1945217997, 0.0166116785 },
      { 0.1410164535, 0.0552649163, 0.0604122989, -0.0841288567 },
      { -0.2170179635, -0.1109610274, -0.1704661101, 0.0658609942 }
    },
    {
      { -0.0597328506, -0.1021375135, 0.1745308787, -0.1451036334 },
      { -0.1465967447, -0.1775159985, -0.0352232084, 0.1040653288 },
      { 0.0856311172, 0.0415522903, 0.1676993966, 0.4594272077 },
      { 0.2361527979, 0.1060217917, 0.1585983485, 0.3159166276 }
    },
    {
      { -0.3025723994, -0.0284237564, -0.2317855358, -0.0647080690 },
      { 0.1422412544, 0.0216050260, -0.2457171232, -0.1530170143 },
      { -0.0089132329, -0.2214039117, -0.2614140213, -0.2505436540 },
      { 0.2259913087, -0.0562316738, -0.0467170887, -0.0852216110 }
    },
    {
      { -0.0884466767, -0.1277134269, 0.0271362849, -0.0564881265 },
      { -0.1068754643, 0.0541171245, -0.0819473192, 0.0767706633 },
      { 0.0313454866, 0.0481601283, 0.2336444259, 0.1360913962 },
      { 0.0575031452, 0.1553954333, 0.0475982092, 0.0881341398 }
    },
    {
      { -0.4627779424, -0.0755614191, -0.0366368070, -0.2574906647 },
      { -0.0942564607, -0.1017489433, -0.0992217064, -0.5187716484 },
      { -0.3645518720, -0.1066868678, -0.1014577746, -0.4248457551 },
      { 0.0593134575, 0.1380521208, -0.0454290882, -0.1682348102 }
    },
    {
      { -0.3160304129, 0.0385772549, 0.1576637924, -0.2362253964 },
      { -0.1108831838, 0.0459331684, 0.0743134469, -0.1681682169 },
      { -0.2479131222, -0.2633848786, -0.0025106759, -0.1168531328 },
      { -0.5297091007, -0.3680478036, -0.0105089014, -0.1789135039 }
    },
    {
      { 0.0743937343, 0.0614627153, 0.1318249851, 0.0186040476 },
      { -0.1211981177, -0.0391911715, -0.0172120593, -0.0611952320 },
      { 0.0495928079, 0.0823817402, 0.0965652689, 0.0593700856 },
      { -0.0293725468, -0.0959375352, 0.0282790828, 0.2335928380 }
    },
    {
      { -0.0759580582, 0.1656034142, 0.1216027066, -0.1416745484 },
      { -0.0660857260, -0.0237331204, -0.0075251400, -0.0931891128 },
      { 0.0157261845, -0.2163767070, -0.0040284372, 0.1404732317 },
      { 0.1010797173, 0.1668638438, 0.0368384942, 0.0571898334 }
    },
    {
      { 0.0304208305, -0.0526099838, -0.0646427199, -0.1180668473 },
      { 0.0882848501, -0.1382129639, -0.1908710450, 0.0080475807 },
      { -0.0737153962, -0.0595717691, -0.1314579993, -0.0425668508 },
      { -0.1172600314, 0.1985890865, -0.0003208915, 0.1356911808 }
    },
    {
      { 0.1475017816, 0.0092249550, 0.3811210990, -0.0349774770 },
      { -0.0957000479, 0.0629715249, 0.1607761383, -0.1919657886 },
      { 0.1264862418, 0.1135365292, 0.0740428045, 0.0468043126 },
      { -0.1093756407, -0.1490433067, 0.0430712923, 0.0509073362 }
    },
    {
      { -0.0369872935, 0.0593396351, 0.0028444813, -0.1958558559 },
      { 0.0682546347, -0.0559349433, 0.1259851158, 0.1444775015 },
      { -0.2366058975, -0.2016288787, 0.0363408849, 0.1880416125 },
      { -0.4083742797, 0.1426026225, 0.2731482387, -0.0761438832 }
    },
    {
      { -0.2758256793, -0.2639729679, -0.0502617806, -0.1058178172 },
      { 0.0924505666, 0.1000056565, 0.2724603713, 0.0690534189 },
      { -0.0823195279, 0.1632313728, -0.2060931474, -0.0485749878 },
      { 0.2847035229, 0.5419467688, 0.0912508816, -0.1236346960 }
    },
    {
      { 0.0201260615, 0.0941583365, -0.0904332027, -0.2435508221 },
      { -0.1316060126, 0.1724776328, 0.0342893526, -0.3279976547 },
      { -0.4541886747, 0.0659203306, 0.0576158166, 0.0804424062 },
      { 0.0750670657, -0.0765419826, 0.1236294955, 0.2115995288 }
    },
    {
      { -0.0236378331, 0.0000816098, 0.1464181095, 0.0286890604 },
      { 0.2061685175, 0.1465280950, 0.1477206498, 0.1667186767 },
      { 0.0957655087, 0.0957650840, -0.0676026717, -0.0116995135 },
      { 0.2475346625, 0.1573934108, 0.1840249300, 0.1553985327 }
    }
  },
  {
    {
      { -0.1931008548, -0.0238728784, 0.0969423503, 0.1111919656 },
      { 0.3637287617, 0.2477655262, 0.0781454816, -0.2931485772 },
      { 0.0633854270, -0.0643567517, 0.1437166631, -0.2809651196 },
      { -0.0647118837, 0.1960485578, -0.2108283043, -0.1236689687 }
    },
    {
      { 0.3666714430, 0.1585351378, -0.1028782278, -0.2844502330 },
      { -0.0631348863, -0.0283822007, -0.0179042593, -0.1688351929 },
      { -0.1782774180, 0.0099090924, 0.0764176995, 0.0125684431 },
      { 0.0215609856, -0.0153942546, 0.0071801846, -0.0214540754 }
    },
    {
      { 0.1592304409, -0.0109973000, -0.1132855639, 0.2035671473 },
      { 0.0426564626, -0.0520385616, -0.1161834747, -0.3322318792 },
      { -0.1661059409, -0.0014399521, 0.0667898729, 0.0324751362 },
      { -0.1641237587, 0.0364791453, 0.0539877228, -0.0580894314 }
    },
    {
      { 0.0322857276, 0.0070702941, -0.1433748156, -0.0767713264 },
      { 0.3516796529, 0.2054244578, 0.1312328130, -0.4022231102 },
      { 0.0297078378, 0.0700901076, 0.1644287556, -0.3267759681 },
      { 0.0488940813, 0.0090819653, -0.1049771234, -0.0491265953 }
    },
    {
      { -0.1084107980, -0.2116918415, -0.1755928099, -0.0621530004 },
      { 0.0460475795, 0.1676506698, -0.0335221365, 0.2389027625 },
      { -0.0378392562, 0.0682185292, 0.0563202426, 0.1149871051 },
      { 0.1787695438, 0.0107862018, -0.0595778488, 0.1938890666 }
    },
    {
      { 0.1227523237, -0.0568044186, -0.0510800332, -0.2523562610 },
      { 0.1135556847, -0.0452907644, -0.0658459738, -0.1626254618 },
      { 0.0728692263, 0.0726531968, 0.0211181138, 0.2705928087 },
      { 0.1217273548, 0.0047225747, -0.1252485365, 0.0121629247 }
    },
    {
      { -0.3591475785, -0.2460885942, -0.1225032508, 0.1316825747 },
      { 0.2741887867, 0.2777141333, 0.1542985588, 0.0044510947 },
      { 0.0013455770, 0.0767797455, -0.0656947419, 0.1175343692 },
      { -0.0988870114, 0.1443735808, -0.0869989172, 0.1332508177 }
    },
    {
      { -0.1685026139, 0.1361653656, 0.2992762029, 0.2130965441 },
      { -0.2511092126, -0.0745059028, 0.0251996443, 0.0513441302 },
      { -0.0184429977, 0.0870014057, -0.2632634342, -0.1275600344 },
      { -0.0722022951, 0.0852492973, -0.0292957425, -0.0056744255 }
    },
    {
      { 0.3578253090, -0.0781606287, -0.1223301291, -0.2082578540 },
      { -0.0789152607, -0.1440986097, 0.0932873935, -0.1379590780 },
      { -0.0639820248, -0.0149493236, 0.1683110595, 0.1056527272 },
      { -0.1397652179, -0.1386693567, 0.0212711506, 0.1737824678 }
    },
    {
      { 0.2214693725, 0.1428836882, 0.0222337339, -0.2878501713 },
      { -0.0280208644, 0.0219453741, 0.0882340521, 0.2311015427 },
      { -0.2041309625, -0.0380221792, 0.1947067082, 0.0358854793 },
      { -0.0009955507, -0.0977219641, -0.1018795744, -0.2170950025 }
    },
    {
      { -0.1571122557, 0.0990396962, 0.0540301129, 0.3670751750 },
      { -0.1278457493, -0.1290415972, 0.0065623662, 0.4043270350 },
      { -0.0969263241, -0.0102241142, 0.1741340607, 0.1827107817 },
      { 0.0363093950, 0.0129520288, 0.1302989423, -0.0676487684 }
    },
    {
      { 0.0784546658, 0.2437062562, 0.0380177163, 0.1835615188 },
      { 0.2132321298, 0.0284305364, -0.2333928943, -0.0322702192 },
      { -0.0145804528, 0.0407720730, -0.1368724257, -0.1230952442 },
      { -0.1622157097, 0.0977106839, 0.1796249896, -0.0651068166 }
    },
    {
      { -0.0129527971, -0.0276375469, 0.0541996844, 0.2013808489 },
      { -0.2451206595, -0.1171954647, -0.2249908000, 0.0388115942 },
      { -0.2470571697, -0.0807090104, 0.0783136636, 0.1368953735 },
      { 0.1351647079, 0.0555358268, 0.0280783623, -0.1030412242 }
    },
    {
      { 0.0942173675, 0.1419166028, 0.1010280475, -0.1899940073 },
      { 0.1255945563, 0.0074947970, -0.1996006221, -0.1977952272 },
      { 0.0921154916, -0.2172690779, -0.0945822299, -0.1392565966 },
      { 0.1028377786, -0.0716454834, 0.0006059338, 0.1093545109 }
    },
    {
      { 0.1096462533, 0.1115921363, 0.1814501882, 0.0184861571 },
      { -0.1411604434, -0.1075099334, -0.0412846543, -0.0324916914 },
      { -0.2626486421, -0.0182552766, 0.1104650944, -0.0677884445 },
      { 0.1122270748, -0.0930549353, -0.1887337863, -0.2696805894 }
    },
    {
      { 0.1369668990, 0.0316646658, -0.3790539503, -0.3261538446 },
      { 0.1085921600, 0.0563507378, 0.0702900141, -0.1250934005 },
      { 0.0684228614, -0.0981098041, 0.1351667643, 0.0007140933 },
      { -0.1377389580, -0.2700817883, -0.1183726341, 0.0378599204 }
    }
  },
  {
    {
      { 0.0616873764, -0.0083134687, -0.2533684075, -0.0708150044 },
      { 0.0006532722, -0.1202349067, 0.0855984837, 0.2050607949 },
      { -0.1505913436, 0.1659580320, 0.1202499047, 0.1091087684 },
      { 0.0502417311, -0.0985453650, 0.0319469087, 0.0162796434 }
    },
    {
      { -0.0824101120, 0.0645447299, 0.1242948174, 0.2330732644 },
      { -0.0009188352, 0.0036669928, 0.2176027745, -0.0160103925 },
      { 0.0225579124, -0.1058342606, 0.0844606981, -0.0728042349 },
      { -0.1171294302, -0.0993498638, -0.3378743231, -0.1976452321 }
    },
    {
      { 0.0837428570, 0.0118913334, 0.0302711073, 0.2054512799 },
      { 0.0177061595, 0.0414345711, 0.0802402571, 0.0303849876 },
      { 0.0449278913, -0.0001902009, 0.1506152302, 0.0581793562 },
      { -0.1587337404, 0.0173516795, 0.1288404316, -0.1911092699 }
    },
    {
      { 0.1280219108, 0.1540619582, 0.2181499451, 0.2013771534 },
      { 0.1004013270, 0.1265853643, -0.1602741331, 0.0360663347 },
      { -0.2097596079, 0.0921244547, 0.1404235810, 0.3231341243 },
      { -0.1385345310, -0.1102184430, -0.1665847450, -0.1165123582 }
    },
    {
      { 0.2588256299, 0.0331818797, 0.0111749070, -0.1840912700 },
      { 0.0471504144, 0.0012298328, -0.0790659189, -0.2915306389 },
      { -0.0015394492, 0.0550088771, -0.0463459492, -0.1084081009 },
      { -0.0632044822, -0.1726807654, 0.1414174438, 0.1272501200 }
    },
    {
      { 0.2350450903, 0.1266274154, 0.0420986749, 0.1023332402 },
      { 0.1345470697, 0.0713583007, 0.1690975577, -0.2028949708 },
      { -0.0260521676, 0.0498082824, -0.0254455432, -0.3478223085 },
      { -0.1437024176, -0.1954772174, -0.0937236845, 0.0419332944 }
    },
    {
      { 0.0383456796, -0.0228979848, -0.3298358619, -0.3351686001 },
      { 0.0793017969, -0.0000347118, 0.0210449509, -0.1866834611 },
      { -0.1226163283, -0.0733168647, 0.1675617099, -0.0009925223 },
      { -0.2143321931, -0.1210475191, 0.0239863731, 0.2501358390 }
    },
    {
      { -0.3876438141, -0.5032547116, -0.4002306461, -0.1940005720 },
      { -0.0001890667, -0.0863035545, 0.1372729838, -0.0356719419 },
      { -0.0975214094, -0.0443267897, 0.1326957494, 0.1017479450 },
      { 0.0863120928, -0.1460262835, -0.0169968605, 0.0610955022 }
    },
    {
      { -0.0051820921, 0.1508655101, 0.1428182423, 0.1745554209 },
      { 0.0090323733, 0.1786585897, 0.1012532040, -0.0270327944 },
      { 0.0302815121, -0.0058805621, -0.1445929408, -0.0982117280 },
      { -0.1002098918, -0.0278186426, -0.0476726070, 0.0025794487 }
    },
    {
      { -0.1282737553, -0.0935280249, 0.0165714249, 0.2344005704 },
      { -0.0191823263, -0.1043054163, 0.0952790678, 0.0327568613 },
      { 0.0921863914, 0.0692941546, -0.0603739135, 0.0423130132 },
      { -0.4847025871, -0.1578639746, -0.2766806483, 0.2255541831 }
    },
    {
      { 0.1446905434, -0.0387761667, -0.1762806773, 0.0007423643 },
      { 0.1305848062, 0.1021794379, -0.2241934091, -0.0732569993 },
      { 0.2129335999, -0.0527594201, 0.0613617003, -0.0141056385 },
      { -0.0461788811, -0.0924522057, 0.1609082520, -0.0457676984 }
    },
    {
      { -0.0389421433, 0.0208038334, 0.2082027644, 0.1274996400 },
      { -0.1140505672, 0.1079380438, 0.1879036129, 0.1247811541 },
      { -0.0371879674, -0.1180101037, 0.0323697180, -0.1175968349 },
      { 0.0031276022, -0.1203761250, -0.1327787638, -0.0902259722 }
    },
    {
      { 0.0042022872, -0.0027284955, 0.0588220730, 0.0400926732 },
      { 0.1052986607, 0.0842455328, 0.0951402560, 0.1493927538 },
      { 0.2412022650, 0.0240075346, -0.2084746361, 0.0621761456 },
      { -0.2661975026, 0.2512716651, 0.2700566649, -0.0450374149 }
    },
    {
      { 0.2829784453, -0.0965919271, -0.1437584758, -0.2338370830 },
      { 0.0496195219, -0.0786818042, 0.1938368976, -0.0214111786 },
      { 0.0298451111, 0.0554897040, 0.0694423094, 0.0806600973 },
      { 0.0774684399, 0.0859788358, -0.0445298925, -0.0994294286 }
    },
    {
      { -0.1173388287, 0.0195836052, 0.0020102600, 0.2617125809 },
      { 0.0943376869, 0.0474853739, 0.0499800742, 0.0654530376 },
      { 0.1313526034, -0.1664588004, -0.0601015016, 0.0021440967 },
      { -0.1576724201, -0.0268872939, -0.0073966538, -0.2929798663 }
    },
    {
      { 0.1850855350, 0.1341937631, -0.0146130584, -0.0523267798 },
      { 0.0136288702, -0.0416108631, 0.1438455433, -0.1040484458 },
      { -0.0063261162, -0.0117262928, -0.3063075244, 0.0573279895 },
      { 0.1220308542, 0.0390071571, 0.0089671426, 0.0977547914 }
    }
  },
  {
    {
      { 0.0262716413, -0.1121874526, -0.5389738083, -0.0898614153 },
      { -0.0297510773, -0.0910144150, -0.1886097938, -0.0487579219 },
      { -0.1094300896, -0.0063257907, 0.1437983513, -0.0163985007 },
      { 0.2007356137, 0.6465934515, 0.1896203309, 0.0618058480 }
    },
    {
      { -0.2771918178, -0.1658738852, -0.0263318736, 0.2096618414 },
      { -0.2543075979, -0.0924446881, 0.2142695636, -0.0032308113 },
      { 0.0384210534, -0.0327900946, 0.0663468391, -0.0183373969 },
      { 0.2238101959, -0.0668108538, -0.4693044126, -0.5195876360 }
    },
    {
      { -0.1672706604, 0.0382852145, 0.0565271415, 0.2475266606 },
      { -0.0735197291, -0.1152277514, 0.0782891512, 0.3331950605 },
      { 0.0507108830, 0.0716294423, 0.0125155691, -0.1975150555 },
      { 0.0854289159, -0.1520267725, -0.1193246245, -0.1605681032 }
    },
    {
      { -0.0996538550, 0.0019128510, 0.1461326033, -0.0232020244 },
      { -0.2517670691, -0.1147777885, 0.0973633677, 0.0979171023 },
      { 0.0042963400, -0.1107363701, -0.1507509947, 0.2581144869 },
      { 0.1853104979, 0.2193630487, 0.0019265451, 0.0528613739 }
    },
    {
      { 0.0994339213, 0.1187464520, 0.0815028250, 0.0002659503 },
      { -0.0685822591, 0.0467827767, 0.0967164040, 0.0881817639 },
      { -0.1340412498, 0.0753911585, -0.1645649523, -0.2403113395 },
      { 0.0215216074, -0.0489622317, 0.0911911204, -0.1503952295 }
    },
    {
      { -0.0133382352, 0.1009832174, -0.2008796185, -0.0043766927 },
      { -0.0442032814, 0.0433227904, 0.1362491101, 0.2095549107 },
      { -0.1593851447, -0.0507207103, 0.0786417276, 0.0454322062 },
      { 0.1343387365, -0.0068258424, -0.2288291156, -0.6263030767 }
    },
    {
      { -0.0537951663, -0.1851457357, -0.2201280594, -0.0098723723 },
      { -0.1297966093, -0.2611947060, -0.1572465152, -0.0413864180 },
      { -0.3675961792, -0.0505053550, -0.0496290810, -0.1792186946 },
      { -0.0351186618, 0.1003115401, 0.3098499775, 0.3483833671 }
    },
    {
      { 0.1078466326, -0.3270896971, -0.0657507479, -0.0275589451 },
      { -0.0133352270, 0.0229282603, 0.0426873975, -0.0616763085 },
      { -0.1378611773, 0.1520684659, 0.0637253448, 0.1614725143 },
      { -0.3255438507, -0.1312063336, 0.1113639027, 0.0986969993 }
    },
    {
      { -0.1067042872, -0.0426864028, 0.0143468650, 0.3012408614 },
      { -0.1701889634, -0.1024884656, -0.1283876151, 0.0374621861 },
      { 0.1269590855, -0.1353375912, -0.2501124740, -0.1421051621 },
      { 0.1210136190, -0.0601148345, -0.0500745066, -0.0736019984 }
    },
    {
      { -0.2319559604, -0.2094637603, -0.1188147068, -0.0364064276 },
      { -0.0758617148, 0.0003365982, 0.2075061947, -0.0837696865 },
      { 0.2168333977, 0.0207682308, 0.0416443013, -0.1925605536 },
      { 0.3974581361, -0.1931245476, -0.5172152519, -0.4475953877 }
    },
    {
      { 0.0198569112, 0.1458598673, -0.0200575572, -0.0023585383 },
      { -0.0680575669, 0.1095850915, -0.2250267565, -0.1575834602 },
      { 0.0307668522, -0.0047148075, -0.2009641826, -0.0345089883 },
      { -0.0116194077, -0.1221793145, -0.0721499324, -0.2027969956 }
    },
    {
      { -0.1218775883, -0.2363166511, 0.1865372211, -0.0532839112 },
      { -0.1670933068, -0.0490562804, -0.0924090743, 0.0096579893 },
      { 0.1671102196, 0.0502223745, 0.2781436443, 0.2101103216 },
      { -0.0803835541, -0.1132993549, 0.1737537384, -0.0039122077 }
    },
    {
      { -0.0694749355, 0.0152692292, 0.0160088073, -0.1520800889 },
      { -0.1749140322, 0.1579997987, 0.0693934113, -0.1415080577 },
      { -0.0804930031, 0.0409048498, -0.0850877240, 0.1254257411 },
      { -0.0749180838, -0.2414539158, 0.3209608793, -0.0112106474 }
    },
    {
      { 0.0101477085, -0.2405021489, -0.1209446713, -0.1230811700 },
      { -0.0830527022, -0.2262187302, -0.0823072493, 0.1502004117 },
      { -0.1653427780, -0.0349777304, 0.2045571953, 0.1266664118 },
      { -0.0720721558, 0.1347883195, 0.0925083980, 0.1246128529 }
    },
    {
      { -0.0442941859, -0.1669890583, -0.1996401995, -0.0966878533 },
      { 0.1921759397, 0.0301926080, -0.0356123634, 0.0413235947 },
      { 0.1640379429, -0.1922963113, -0.0664635450, 0.3011987805 },
      { -0.0263404567, -0.4158269763, -0.0792856514, -0.0871168077 }
    },
    {
      { -0.0223505329, -0.0839498788, 0.0340747647, 0.1038527340 },
      { -0.0019633211, -0.0384324305, 0.0876630917, 0.1416830122 },
      { -0.0179404505, 0.1292780638, -0.1113484502, -0.0849283263 },
      { 0.2722535133, 0.0067423675, -0.0242694262, -0.0344708711 }
    }
  },
  {
    {
      { 0.1205669045, 0.2128014117, -0.1578543037, 0.2538378239 },
      { -0.0583728738, -0.0511524603, 0.0403287187, 0.1647174507 },
      { -0.1945157051, -0.2243152857, 0.2311967760, -0.0701988041 },
      { -0.1094328985, 0.1154278368, -0.1712382138, -0.1823602319 }
    },
    {
      { 0.1293509156, -0.0847523883, 0.0513109267, -0.0153911281 },
      { 0.0268035159, -0.0721574426, 0.1535790116, -0.0659661666 },
      { 0.0183078460, 0.0639983118, 0.0115154563, -0.1598002911 },
      { -0.0574181415, 0.0060361112, -0.1297438741, 0.0051290295 }
    },
    {
      { 0.1875390410, -0.0773576424, -0.1222655177, 0.0675692335 },
      { -0.0520996675, 0.0190197956, -0.0881481692, 0.0350695662 },
      { 0.0797102824, 0.1145292595, -0.0582943968, 0.1925226748 },
      { -0.0391546227, 0.0207029544, -0.0314135589, 0.0199159887 }
    },
    {
      { 0.1851513237, 0.0703083649, 0.0597720519, 0.1103717014 },
      { -0.2646463811, 0.0596139021, 0.1491813511, -0.1638147533 },
      { -0.4763398170, -0.0693348870, 0.1007858813, -0.0051961201 },
      { 0.0227371883, 0.1888369173, -0.1272286475, -0.6467275023 }
    },
    {
      { 0.3125541210, 0.0403591730, -0.2123496979, -0.2429379225 },
      { 0.1041480899, 0.0189018603, -0.0381123461, -0.0417432487 },
      { 0.0452368893, 0.0426447168, -0.0506418422, 0.0289674085 },
      { 0.0131545300, -0.0274982806, -0.0840870067, 0.3412512541 }
    },
    {
      { 0.2266954929, 0.0636235178, -0.0966612622, -0.1480777860 },
      { 0.0608739071, -0.1497362405, 0.0344704837, -0.1872759014 },
      { -0.1262274534, 0.1439953893, 0.1455982774, -0.3070729375 },
      { 0.0348880030, -0.0210712198, -0.1429006457, -0.4036506414 }
    },
    {
      { 0.3636038899, 0.2270713001, -0.1217647120, -0.2886119485 },
      { 0.3346894681, 0.1840943098, 0.1979781985, -0.0482152961 },
      { 0.0396698415, -0.0793642327, -0.0493317954, 0.0184916798 },
      { -0.2098908871, -0.2648329139, -0.0189047586, 0.2076393813 }
    },
    {
      { -0.0970828235, 0.0730301067, -0.0681995824, 0.0945569724 },
      { 0.2119403332, 0.1395438015, 0.0488423482, 0.1235182509 },
      { 0.3847678006, 0.2022232562, -0.0281330682, 0.1641522199 },
      { 0.1561550200, -0.0723452047, -0.1097984165, 0.0925004408 }
    },
    {
      { 0.0187104512, -0.0177799128, -0.0821703672, -0.1764670163 },
      { -0.0079586525, 0.0824540555, 0.1804384291, -0.0674587339 },
      { 0.1374807954, 0.0456472747, 0.0417132489, -0.0161061734 },
      { 0.0073840027, -0.0238234010, -0.0416545197, 0.1030736566 }
    },
    {
      { 0.0069172471, -0.0246674921, 0.0193358939, 0.1454689950 },
      { -0.1431183964, -0.1268148869, 0.1553939581, 0.0854469836 },
      { 0.0951600969, 0.2328927517, -0.0111945625, 0.0135199521 },
      { -0.0863118097, -0.0352746695, -0.2984226644, 0.0016794455 }
    },
    {
      { 0.1729116887, -0.1298548877, -0.3677616715, -0.0036407302 },
      { -0.0713407844, 0.1228388920, 0.0293349344, 0.4180138707 },
      { 0.0199317504, -0.0141549567, 0.3082132041, 0.0385961384 },
      { 0.0648280755, -0.1745756567, 0.2531894147, -0.0589979216 }
    },
    {
      { -0.1723362356, -0.1838134825, 0.1148077026, 0.2156354636 },
      { 0.0796312094, 0.0926875547, 0.2707837522, 0.0974940285 },
      { 0.0874699280, 0.0906089842, 0.1770478636, -0.0369407944 },
      { 0.1941353828, -0.1476066560, -0.1304020137, 0.0165910199 }
    },
    {
      { 0.1424697638, -0.0322726369, 0.0515342206, 0.1955707222 },
      { 0.0984968022, 0.1486261636, -0.0813161135, 0.0841728449 },
      { 0.2265793830, 0.0361372083, -0.1498334110, 0.0342640243 },
      { -0.0920741335, -0.4935170114, 0.0484898649, -0.2244363129 }
    },
    {
      { 0.0308080614, -0.1604754478, -0.2582938671, -0.4108913541 },
      { -0.0224369559, -0.1353487372, -0.0128982365, -0.0653518438 },
      { 0.0213805363, -0.0062835542, -0.0336761884, 0.0777496547 },
      { 0.1234509572, 0.1312810928, 0.0129145728, 0.1173726469 }
    },
    {
      { -0.0023962050, -0.1153985485, 0.2913445830, 0.3282732069 },
      { 0.0531795025, -0.0538222566, 0.1664542407, 0.1048651412 },
      { 0.1254083961, -0.3791646361, -0.0101683484, 0.0359786861 },
      { -0.3443553746, -0.0380074196, -0.1825488210, 0.0518258065 }
    },
    {
      { 0.0119229965, 0.0621730573, -0.2045446336, -0.1786290407 },
      { -0.0294107106, 0.0372719020, 0.0896908864, -0.2112396210 },
      { -0.0857904106, 0.0320121273, -0.0310697667, 0.0041630897 },
      { 0.2035900503, -0.1427869499, -0.1509288549, 0.0880106166 }
    }
  },
  {
    {
      { -0.1274926513, -0.4723202586, -0.4107119441, -0.2444571108 },
      { -0.1254883111, 0.0783717930, 0.2158733457, 0.1657381207 },
      { -0.1036929786, -0.2055202127, -0.2512223423, 0.0772017241 },
      { 0.3442507386, 0.4179241657, -0.1366199106, -0.0988107696 }
    },
    {
      { 0.0101344539, -0.0093889423, 0.0457275473, 0.0797792375 },
      { -0.1826624721, -0.0139715839, 0.1249933392, -0.0313986801 },
      { -0.1120710671, 0.0371715873, 0.0146692703, 0.0832024440 },
      { 0.1210086271, 0.0347172469, 0.0420662984, -0.0622692220 }
    },
    {
      { 0.0680732876, 0.0876057073, -0.0751706585, 0.0805474147 },
      { 0.3366561234, 0.2281342447, -0.0163050331, 0.3196680248 },
      { 0.0917214900, 0.0543244220, 0.0911449417, -0.0817364603 },
      { -0.2668718100, -0.2036125511, -0.0140349995, -0.0795530304 }
    },
    {
      { -0.2059647441, -0.0467943922, 0.0683210045, 0.0878405049 },
      { -0.1792679280, -0.0647632480, -0.0353788324, 0.0525930636 },
      { -0.3090988398, -0.2251344323, -0.0309124552, 0.4200887978 },
      { 0.6662763357, 0.0992828310, -0.0641283467, 0.0509488471 }
    },
    {
      { 0.1996226758, 0.0672380179, -0.0539159365, 0.0766452849 },
      { 0.1043023169, -0.0357005186, 0.0682964772, -0.0549268425 },
      { -0.1763741523, 0.0168204382, 0.1810616702, 0.0701222345 },
      { -0.1309272796, 0.1634436697, -0.1014714241, -0.1818679422 }
    },
    {
      { -0.1361674070, -0.0270018950, -0.1128991544, 0.0202920474 },
      { 0.0454622135, 0.1537217647, 0.1152386740, 0.1637806743 },
      { -0.2174216062, -0.1190435737, 0.0077159619, 0.1038459465 },
      { 0.2257063091, 0.1237698346, 0.1240435392, -0.2566684484 }
    },
    {
      { -0.0718402117, 0.0306605380, -0.0599562861, 0.1860610396 },
      { -0.1227378845, -0.1427233219, -0.1032981053, 0.0578081869 },
      { -0.1368472427, -0.1474654377, 0.1472180337, 0.0127742467 },
      { -0.4266817868, 0.1472599506, 0.1521636993, -0.0455190539 }
    },
    {
      { -0.0303677954, -0.0406354889, 0.0105659310, -0.1094041318 },
      { 0.1198302656, -0.0275200363, 0.0079319701, -0.0711565688 },
      { -0.1141682193, 0.0563350506, 0.1319807619, -0.1156914011 },
      { -0.7997360229, -0.2921633720, 0.0805183500, 0.0096545964 }
    },
    {
      { 0.1481778473, 0.2556812167, 0.1187879145, 0.1027493253 },
      { -0.1709622592, -0.0920256078, -0.0677677318, 0.2720234990 },
      { 0.0298978873, -0.0944640189, 0.0880244672, -0.0963466242 },
      { -0.0129433190, -0.0669253990, -0.0229023788, -0.0643862560 }
    },
    {
      { -0.1680315584, -0.0769920424, 0.0452991910, 0.1809340268 },
      { -0.2820268571, -0.0360993892, 0.0582766868, -0.1157211289 },
      { 0.0315672308, -0.1576289684, 0.0591234602, 0.1223287433 },
      { 0.3175061345, 0.0629798621, -0.1375037134, -0.1432942450 }
    },
    {
      { 0.2233421206, 0.2043151259, 0.0407864898, -0.0531075299 },
      { 0.0040851976, -0.0171615444, -0.0790605545, -0.4033476412 },
      { -0.2483990341, 0.2844730020, 0.0517036468, -0.0765213296 },
      { -0.2232402861, -0.0870199949, -0.0152254933, 0.1327049136 }
    },
    {
      { 0.1699862629, -0.1414531916, 0.0895888433, -0.2563492656 },
      { -0.1324664503, -0.1006345227, 0.0440453403, -0.0252836291 },
      { 0.1518477947, 0.1587050557, 0.0708963200, 0.1111439094 },
      { -0.2311713398, -0.1207849160, 0.0601876862, 0.2184671164 }
    },
    {
      { 0.2427213788, 0.2163512111, -0.0304412898, 0.0212691613 },
      { -0.0987362787, 0.0868563429, 0.0441265218, -0.1657903641 },
      { -0.8022643924, 0.0100668771, 0.0086809816, 0.1232638359 },
      { -0.3195676804, -0.5299311280, -0.1767172068, 0.3596027493 }
    },
    {
      { 0.0654377267, 0.1534642726, 0.2031116933, 0.0751629695 },
      { -0.0370067656, -0.0895325840, 0.1592996418, -0.0238253493 },
      { -0.0267857201, 0.0793333948, 0.0567523800, 0.1222741902 },
      { -0.0851178467, 0.1125700399, 0.1099557877, -0.0465995930 }
    },
    {
      { -0.1114101186, -0.2380642593, -0.1455895901, 0.0414404795 },
      { 0.0510137118, -0.0916329324, -0.1548121572, 0.1162172779 },
      { 0.0827850699, 0.0274885446, -0.1363804787, 0.1991921067 },
      { -0.1918091476, -0.2507690489, 0.1678037047, 0.2267477661 }
    },
    {
      { 0.1512800753, -0.0628011227, 0.0294455960, 0.1269287318 },
      { 0.0697541684, 0.0160360858, -0.0862483457, 0.1572767943 },
      { 0.0250707846, 0.1446579248, -0.3170597553, -0.2479873449 },
      { 0.3633927107, 0.2620123625, -0.0750880241, -0.2172838002 }
    }
  },
  {
    {
      { -0.1501352936, 0.0249413271, 0.2955903411, -0.0616173670 },
      { -0.0221906826, 0.2543970942, -0.1572157145, -0.0025882097 },
      { 0.0185903702, -0.0899938941, -0.0664082691, 0.0515942052 },
      { 0.0428324863, -0.0679075345, 0.2621116936, 0.0948325917 }
    },
    {
      { -0.0473644920, 0.0391752757, -0.1790262610, -0.0923342928 },
      { -0.1198756918, 0.1408356279, 0.0588341206, 0.1443779469 },
      { 0.0873968229, -0.1746841818, -0.0415189639, 0.1965529472 },
      { -0.0819389448, 0.0518063046, 0.0849945843, -0.2847927213 }
    },
    {
      { -0.0822768584, -0.1112552434, -0.0493905246, -0.1401383579 },
      { 0.1434527189, 0.0514128953, 0.1835051179, -0.2253695279 },
      { -0.0393457487, 0.0082089556, 0.0210712329, -0.0413141437 },
      { -0.0222119298, 0.1187333092, 0.0450985059, -0.0922001973 }
    },
    {
      { -0.1580438465, 0.1414099038, 0.1105519086, -0.0233784337 },
      { 0.0077817431, 0.0919402316, 0.1169133112, 0.3377467096 },
      { 0.2655258179, -0.0625251085, -0.2094327509, 0.1495815814 },
      { -0.0007786431, -0.0063167252, -0.0034108339, -0.1746464819 }
    },
    {
      { 0.1440498084, 0.0197919626, 0.1605844051, 0.0473278873 },
      { -0.1504722983, -0.0474791266, 0.0954518020, 0.1022918224 },
      { 0.0505070910, 0.1921061575, 0.0997404084, -0.1097735465 },
      { 0.0844324455, 0.1357373744, 0.1115721911, -0.1976473182 }
    },
    {
      { -0.0550369322, 0.1218150035, 0.1506841034, 0.4331217408 },
      { -0.0219986644, 0.0836431906, 0.1164952293, 0.4348445833 },
      { 0.1800967306, 0.0713969320, 0.0727215409, 0.0645756274 },
      { -0.0295767374, 0.0020657587, -0.0068745129, -0.4085978568 }
    },
    {
      { -0.0543561503, -0.1693305373, 0.0985661224, 0.3394283056 },
      { -0.2828462124, -0.2991214097, -0.0611696243, 0.2284094691 },
      { -0.1189755499, 0.0711305067, 0.0599778257, -0.2290069312 },
      { 0.0894942507, -0.1250302494, 0.0847834274, 0.1448434591 }
    },
    {
      { 0.2674269974, 0.0062189111, -0.0486676060, 0.0028240785 },
      { -0.0588606931, -0.1582354754, -0.0711281076, -0.1871298552 },
      { -0.1269036531, -0.0073734797, 0.0258524120, -0.0556265302 },
      { -0.2010782957, -0.1714394689, -0.0887955129, 0.1958733499 }
    },
    {
      { -0.0450419262, 0.0787021443, -0.0281330738, 0.1814495176 },
      { 0.1110717431, 0.0791008398, 0.0459929034, 0.0989513770 },
      { -0.2266395837, -0.1773643047, -0.0747378916, -0.0073401295 },
      { 0.1019804031, 0.0637850463, 0.1003741473, -0.0167033672 }
    },
    {
      { 0.1900256574, 0.0656267777, -0.0883061364, 0.0903737471 },
      { -0.0744178593, 0.1538606137, -0.1061938256, -0.1094509661 },
      { 0.0974750444, -0.1276393086, 0.0988524109, -0.0032629627 },
      { 0.0619517528, 0.1362502426, 0.0879300162, -0.5504499674 }
    },
    {
      { 0.0143688824, 0.0462884158, 0.0845914930, -0.3842196167 },
      { 0.0795019716, 0.1905317605, 0.0506034680, -0.1745421141 },
      { -0.1198221892, 0.0547697358, -0.0046185721, -0.0065181367 },
      { -0.0581945628, 0.2438704371, 0.0663670301, -0.0443388633 }
    },
    {
      { -0.0782043785, -0.0432833023, -0.2931124270, 0.0124575356 },
      { 0.0314805098, -0.1400967687, -0.3182487786, -0.2397176623 },
      { 0.0813844129, 0.0036817237, -0.1173887774, 0.1622616947 },
      { 0.0004640333, 0.0857382044, 0.1078814343, -0.0123018948 }
    },
    {
      { 0.0547485724, -0.0109140603, -0.0653094426, -0.2668473721 },
      { -0.0827006921, -0.0959253460, 0.2720743716, -0.1576362848 },
      { -0.1320496053, -0.0063249688, 0.3132161796, 0.0216339286 },
      { -0.0437947623, -0.0010281291, -0.1203139871, 0.0064570820 }
    },
    {
      { 0.0615630485, -0.1236777306, 0.2129511237, 0.4357291460 },
      { 0.0238151066, 0.0264614988, 0.0832568556, 0.1628258824 },
      { -0.0966161415, 0.1806534678, 0.0205011722, -0.0942737609 },
      { -0.1546756774, -0.1125887111, -0.0214175470, 0.0884852186 }
    },
    {
      { -0.0613114573, -0.2106291354, -0.4017842412, -0.2301280797 },
      { 0.0347680375, 0.0490184464, -0.3924917579, -0.1672275364 },
      { -0.0472014062, 0.0779681504, -0.0890252590, 0.2049785554 },
      { 0.0582611002, 0.1915384829, 0.0245242156, 0.0242421757 }
    },
    {
      { 0.1455898583, -0.1127279326, 0.1652015746, 0.2026723921 },
      { -0.0494788587, 0.0619530454, -0.0877070129, 0.0997023433 },
      { -0.0322717316, 0.0021740801, -0.1462325156, -0.2701624334 },
      { 0.1342228949, 0.0788200051, 0.0649753585, -0.1924207509 }
    }
  },
  {
    {
      { -0.0037643493, -0.0145274540, -0.0299926363, -0.2285182029 },
      { 0.0158488601, 0.1271089166, -0.0611422136, 0.0623220056 },
      { -0.0214877874, 0.0248363260, 0.2005226463, -0.1388511509 },
      { 0.2533695400, 0.0840302855, 0.0682804957, -0.1963400692 }
    },
    {
      { -0.1468560547, 0.2078931481, 0.2509852946, 0.2140889764 },
      { -0.1130524427, -0.0408144929, -0.0150656821, 0.0687088370 },
      { 0.1906914264, -0.0074512148, 0.0437709205, -0.1291104704 },
      { -0.0217673834, -0.2622334659, -0.3899035454, -0.2855970562 }
    },
    {
      { 0.1069956720, 0.0082258424, 0.0562681369, 0.0550039373 },
      { 0.0235949215, 0.1212655902, 0.1793981194, 0.2293032259 },
      { 0.1420738995, 0.0507224239, 0.0170838591, 0.0015678310 },
      { -0.3477557600, -0.1889180839, -0.1644647121, -0.1802120209 }
    },
    {
      { -0.1357706338, 0.1072785407, 0.2488401830, 0.1720025390 },
      { 0.0909139365, 0.0733168572, -0.0469887778, -0.0887115970 },
      { 0.0272352733, 0.2300582230, 0.0922998041, 0.2018729150 },
      { 0.1588510722, -0.1607847363, -0.1584439874, -0.1466198266 }
    },
    {
      { 0.0084018121, 0.0212951675, -0.0201595966, 0.1657693237 },
      { 0.0117151113, -0.0700336471, -0.0298905987, -0.1628979594 },
      { -0.0136537375, 0.0581750907, 0.0461826436, -0.2247167528 },
      { 0.0462272018, 0.0079340981, 0.1370391995, 0.1533837318 }
    },
    {
      { 0.0370379835, 0.1029046252, 0.1748457402, 0.2475746721 },
      { -0.0245876610, 0.0427938364, -0.0270490367, -0.0212098323 },
      { -0.1660446376, 0.0367389955, 0.1566421688, -0.1281174123 },
      { -0.0030111992, -0.2650715411, -0.0638522133, -0.2738311887 }
    },
    {
      { -0.3765683174, -0.1312604845, -0.2055079490, -0.0945906341 },
      { -0.2637183070, -0.0370407179, 0.0271347258, -0.0581777580 },
      { -0.1414079666, 0.0542146154, 0.0745523274, 0.0793975070 },
      { 0.2135104388, 0.2190586776, 0.1942143440, 0.1230019480 }
    },
    {
      { -0.3895100355, -0.3096564114, -0.2959323823, -0.2581360638 },
