#ifndef FC_WEIGHT_H
#define FC_WEIGHT_H

const double fc_weight[10][120] = {
  { 0.1624316275, 0.1411617100, -0.1232512742, -0.0460522957, -0.6630010009, -0.3331373334, 0.0529165864, -0.1636970937, -0.2497517467, -0.0706695318, 0.1255762875, 0.0919971243, -0.1241093650, 0.4528263807, 0.0756819248, 0.1156923845, 0.0541080795, 0.0014197169, 0.1312953085, -0.2198215723, -0.2058917433, 0.0103455586, -0.5152013898, -0.0326337814, 0.0468163453, -0.2529216111, 0.0083881384, 0.1444533169, -0.3640599549, -0.0874919966, -0.2915680408, -0.2694195211, -0.3729266524, -0.2119069546, 0.2305505276, 0.1534987986, -0.0695701987, -0.1711635292, 0.0343934968, 0.3043467104, -0.0797062144, -0.1962397099, -0.0171468891, 0.0311906189, 0.0233236663, 0.0544456951, -0.0778336301, 0.1803335845, 0.0429132581, 0.1231180727, -0.1970377862, -0.2459994107, 0.0285304189, 0.0617508106, 0.1059943810, 0.1857472807, -0.4399653375, 0.1235697493, -0.3135727942, 0.0316052139, -0.2898863852, -0.5988146663, 0.3338384032, 0.1237639561, -0.3770366013, 0.0882528871, 0.2069054544, 0.0483142249, 0.0120068118, 0.2757649422, -0.6636515856, 0.1202934757, 0.4756512046, -0.0332486182, 0.1936509907, -0.0080265552, -0.0010067164, -0.2204715908, 0.0348954760, -0.3678367436, 0.0724633411, -0.1222783551, -0.0210034437, 0.0928141400, -0.0872175917, -0.3021405339, -0.0609514974, 0.0351691544, -0.0037984161, -0.0613700822, -0.0718192160, 0.1059122160, 0.0685979426, -0.2561955452, 0.2315894663, -0.0143682547, 0.1708957255, 0.0526786409, -0.0347345322, -0.0148981279, 0.1823242605, -0.0877275765, -0.1932288855, -0.0447702371, 0.0524033606, 0.1959518641, -0.0525549091, -0.0215882286, -0.0927007422, 0.0990908146, 0.0841097832, -0.0670005903, -0.2799450457, -0.4679440856, 0.1452360451, -0.1067803130, -0.1930438578, -0.4365260601, 0.1952871382, -0.0409880131 },
  { -0.0217080824, 0.1433354914, 0.3888911903, 0.0423603728, -0.0812837929, 0.1501706392, 0.0394976325, -0.3915482759, 0.0332036689, 0.0870200992, -0.1137924567, -0.0228813421, -0.1399544030, -0.0596441031, 0.3084286153, 0.0725464970, -0.1276548207, -0.5040966272, -0.4469912350, -0.1285230070, -0.0159226377, 0.0156287812, 0.0082446318, -0.0087416321, 0.0104856919, -0.5046193004, -0.0817344636, -0.1392063648, 0.1049915999, -0.2267253101, 0.2053006738, 0.0543124489, -0.0996389315, 0.2235056907, 0.1274263561, -0.0213847999, -0.0912722871, -0.1402783841, -0.3206237555, 0.1384991407, 0.0135204708, -0.0284040477, -0.0098015917, 0.2348329127, -0.1053716317, -0.0116350269, 0.0728806555, 0.1446505934, 0.0109593933, -0.1677060127, -0.0962314680, 0.2061184049, 0.2192155421, 0.0233432669, -0.1647783220, 0.0294980686, 0.1907722950, -0.4419285655, 0.0506453253, -0.3420746028, -0.3795056641, -0.0225900002, 0.1542245299, -0.2676623166, -0.2391143143, -0.1294044703, -0.2443749607, -0.0253385808, 0.0995984226, 0.1218645796, -0.1991201937, -0.0962378904, 0.1439149976, -0.0442320704, -0.0537113808, 0.0382719003, 0.0447647944, 0.1180765182, 0.0288683642, -0.1478859484, 0.1948491037, 0.1227760762, -0.0022002796, 0.0124768335, -0.1288475692, 0.2895299494, -0.0008348785, -0.3730199337, 0.0535544977, -0.0683779866, -0.4067284465, -0.2477472126, -0.0105371037, 0.0839813277, 0.0389942080, 0.0488719344, -0.3860321641, 0.0145937679, -0.0413370728, 0.0481441580, -0.1710682660, 0.0509395078, -0.0322027206, 0.0012447231, -0.2057644874, -0.1889515221, 0.0265911426, 0.0428225622, -0.0344124287, -0.0626775846, 0.1380032450, 0.1024560258, -0.0199283753, -0.1693949848, 0.0151177309, 0.1730858386, -0.1377405524, -0.0458530933, -0.3965227902, 0.0332348533 },
  { 0.0998921022, 0.1152891368, -0.5288599133, -0.0638518929, -0.3184812367, -0.2469890714, -0.0891831815, -0.1218012348, -0.3144174218, 0.1021265760, 0.1349647641, 0.1085438207, 0.1171472296, 0.0151399802, 0.0773457438, 0.1200219467, 0.0842998624, -0.2702915668, -0.0992608741, -0.5362524390, -0.2027880251, -0.3086650074, 0.3239268363, 0.0526131168, 0.0355531462, 0.0868632570, -0.0409477092, 0.1607671827, 0.1783474386, 0.1827604920, 0.1790538132, -0.0778179243, -0.4153790176, -0.2958481610, -0.1215479597, 0.1099053174, -0.5114907622, 0.3951369822, 0.0378908664, 0.2532410026, 0.0565294027, 0.2388860881, -0.0060832822, -0.5183518529, 0.0686367452, -0.0065267310, -0.0053215544, 0.0710921958, 0.0304523464, -0.0490676239, 0.0031322178, 0.0956301466, -0.1480608284, -0.0582166500, 0.0123413354, 0.1830219924, 0.1581928283, -0.5009912252, 0.0455868915, -0.4120437205, -0.0317423157, -0.1247608438, -0.2919858694, -0.2866094112, 0.1142892689, -0.3568797410, 0.2343872488, -0.0289655291, -0.0707028136, -0.2821753323, -0.2297282517, -0.0520631820, 0.1327801943, -0.0633045584, 0.0204588994, -0.0012208689, -0.1119313240, 0.1792994291, -0.0616639517, -0.0234949850, -0.5262442231, 0.1014353409, 0.1621633470, -0.0481769070, -0.1214090362, -0.3055625260, -0.3234055042, 0.2485426664, -0.0953716189, -0.0490074717, 0.1619879454, -0.0645721480, 0.1653836966, 0.0632509664, 0.1872146428, -0.1341818422, 0.0226970054, 0.0734655485, 0.0799990743, -0.0988835320, 0.0627464354, 0.1447396576, -0.0795030221, 0.1613962948, -0.1230964288, 0.1967793703, -0.0648785084, 0.0750858411, 0.0013148404, 0.0299026985, -0.1904548258, 0.2969845831, -0.4147301614, 0.0915897265, 0.0836439207, 0.0221802946, -0.3038529456, 0.0442132093, -0.2342741340, -0.0534693599 },
  { -0.0055375085, -0.0173857193, -0.5269654989, 0.0749687552, 0.2409582883, -0.3387922347, -0.0020940879, -0.3064173162, -0.6233644485, -0.0219681468, -0.1573771685, 0.0637652650, 0.1795617938, -0.3307793736, 0.0183541216, 0.1785547435, -0.1249485090, 0.2061124891, 0.0275495742, 0.2159050256, 0.1213187352, 0.0479189306, 0.0938126445, 0.1224965751, 0.0248812530, 0.2877727151, 0.0705786124, 0.0943274274, -0.0427581407, -0.2247751802, -0.2341442704, 0.1265483350, -0.1885548085, 0.1941695362, 0.0534364581, 0.1013419777, 0.0481401831, -0.1628081053, -0.2980242670, -0.4734915197, 0.0136287361, -0.1819163114, -0.0430011749, -0.3511877060, 0.0475599617, -0.0532983132, -0.0182849336, -0.3568529189, -0.0403668955, 0.2159411013, 0.1269381791, 0.0380937755, 0.3061149716, -0.4843248129, -0.1824396253, 0.0075324667, -0.1951241493, 0.0078679770, 0.1841382682, -0.6206843853, -0.0316567011, 0.2111796886, -0.4869123399, -0.3276175261, -0.1263653785, 0.1407019347, 0.0424932130, -0.1123256832, 0.0597512834, -0.1135213897, 0.0353653170, -0.0545836948, -0.2923213243, 0.0203088168, 0.2326471508, 0.3439011872, 0.1053684205, 0.1134698316, -0.0637701973, -0.1019636840, -0.5751285553, -0.0856191590, 0.1475107521, -0.0169809405, -0.0281946100, -0.2334885448, -0.2419700921, -0.0697081983, 0.0702424645, -0.0541722775, -0.1301408261, -0.0030091461, -0.1770787239, 0.1562772989, -0.0074639525, 0.1322580129, -0.1503132284, 0.0293716360, -0.1033027545, -0.0442578308, 0.1416011155, -0.2767372131, 0.1177857146, -0.0905248299, 0.0746318474, -0.3304648399, -0.1851267368, -0.1740362346, -0.0257742014, 0.3796648085, 0.0978657827, 0.0401493013, 0.1009733975, -0.0128893116, -0.0525477454, -0.2842946053, 0.1763402671, 0.1264908761, 0.1685494184, -0.0321938619 },
  { 0.1462521404, -0.6656960845, -0.0134464931, -0.0699141845, 0.2016689330, 0.2942958474, -0.0260289405, 0.0989591181, -0.0264087804, 0.1045173332, 0.1160369217, -0.4529127777, -0.1600803733, 0.0110109132, -0.4078840911, 0.1840983331, -0.1273432672, -0.2506969571, 0.1114755198, -0.0084811384, -0.2731796205, -0.0924687982, -0.0580425039, -0.4055181742, -0.0212280527, -0.0155805321, 0.0154328942, -0.6269958615, 0.0157965310, -0.0356780365, 0.0218242556, -0.2256585658, 0.1563010514, 0.1682941765, -0.5705844760, -0.3312368095, 0.1544423699, -0.1882513762, 0.0239577033, 0.0854186267, -0.0324368402, -0.0139445746, 0.0512960106, -0.0234837923, 0.0501928218, -0.0315505676, -0.0478729717, 0.0755920708, -0.0370359458, -0.3887451291, 0.0094824834, -0.2524934709, -0.2587749362, 0.0249697305, 0.0710888281, -0.4728776515, 0.1120274886, -0.0519065037, -0.3019725978, 0.1444770545, 0.1835614294, -0.1177447438, -0.3988958299, 0.0291161165, 0.0858218297, -0.0327692963, -0.2129399180, 0.0195616931, 0.1729545742, 0.0439076610, 0.0555054732, -0.0368405208, -0.3930845261, 0.0786026120, -0.2469306141, -0.0528031886, -0.2966154218, -0.0313598067, 0.0601510815, 0.0155351702, 0.2432496697, 0.2624656856, 0.0687869266, -0.0016783632, -0.0209645592, 0.1896630526, 0.2566349804, 0.0673057809, -0.0352476016, 0.0596275441, -0.0415760726, 0.0203622691, -0.2407331169, 0.0884296224, -0.6147693992, 0.0301776957, 0.0836306661, -0.0333614536, -0.0132078184, -0.0702801347, -0.2071972787, 0.3138818741, -0.0580145940, 0.2073708773, 0.0918635726, 0.2016584873, 0.1634216905, 0.0817642510, 0.0006813097, 0.1711515933, -0.2629008889, 0.1114604250, 0.2297373861, 0.1640902311, -0.4588956237, 0.2098872662, -0.3085750043, -0.3417373300, -0.1852261275, -0.0283274781 },
  { -0.5030886531, 0.0012524810, -0.0179091394, 0.0650725812, -0.0373496078, -0.1717374474, -0.0240124017, -0.0112365223, 0.1311610788, -0.4463317990, 0.0511673056, 0.1214572489, -0.4568815529, -0.2527710199, 0.1740160435, -0.1869646758, -0.1749760062, 0.1989929080, -0.2892693579, 0.2199479938, 0.1759632975, 0.0096904114, -0.0545241684, -0.2275416553, 0.0824517459, 0.2801724374, -0.1034695953, 0.0834472999, -0.0106825335, 0.1303719729, 0.2208751142, -0.2883297801, 0.2242379785, 0.0711999387, 0.0810424611, 0.1385380626, 0.1703080982, -0.3378380835, 0.1117440462, -0.2322312742, -0.0330110118, 0.0915120542, 0.0685997084, 0.2088543773, -0.2457623780, -0.0435056388, -0.0143323569, -0.2007223368, 0.0293593518, -0.0360296816, -0.0463532470, 0.0194388535, 0.1401790082, -0.1097107008, -0.2258240134, -0.0118271429, -0.2765158415, 0.1236800328, -0.4971752465, 0.1580139846, 0.0638004169, 0.1895924807, -0.0396806709, 0.0846959352, 0.1074436456, -0.0996430665, -0.1606258005, 0.1706917882, -0.2014936954, 0.1332750022, 0.1094977483, -0.0575939156, -0.3700457513, -0.1852283329, -0.1538001299, -0.1651261151, 0.1174076498, -0.3161512315, 0.0717223287, 0.0874855518, -0.1546115130, -0.0637050569, -0.4259973168, -0.0653389841, -0.0198273323, -0.0789924264, -0.3999960721, 0.1520739347, 0.0337923206, 0.0009292380, -0.1184553429, -0.0159828514, 0.0649396479, 0.0401037335, -0.1802503467, 0.1585285217, 0.0450004376, 0.0609674081, -0.1083038300, 0.0823995918, 0.0616253689, 0.1092797071, 0.0871028453, -0.1580261886, -0.3073472679, 0.0980091244, 0.2541088760, 0.1778496504, 0.0169214755, -0.0233181715, 0.1926943660, -0.1363445222, -0.2661695778, 0.0314842090, 0.1064213365, -0.1691253781, 0.2806474268, 0.1123373285, 0.0547004491, 0.0604824461 },
  { -0.3635843098, -0.2429353595, 0.0203865506, -0.0033271606, -0.3651810288, -0.4352861643, 0.0185779259, 0.0550148003, 0.1916711926, -0.2735295594, 0.0020539162, -0.4713269770, -0.0296237189, 0.0874227881, 0.1138584688, -0.0712344721, -0.4684358537, -0.1639875025, 0.0303038843, -0.2775484025, 0.1716075838, -0.6343287230, 0.0326128267, 0.0488269143, 0.0840657353, 0.1325504631, 0.0096711274, 0.1128019542, -0.3135510683, 0.0827096179, -0.3024623394, 0.0288331732, 0.1674121618, -0.1877450049, 0.0787163675, 0.0659386367, 0.1581094563, 0.2123164833, -0.3373290300, -0.0688475519, 0.0033590922, 0.1307804435, -0.0221063886, -0.0167499147, 0.0048120576, 0.0821273550, -0.0301749669, 0.0018143065, 0.0170571674, 0.1737326235, -0.4085757136, 0.2086501569, -0.0119332159, 0.1849890351, 0.0251451079, 0.0037891641, 0.1749586463, 0.0258353539, -0.1402357072, 0.2835496962, -0.1815640181, 0.0386913046, 0.0652398989, 0.0804559588, -0.1175048053, -0.4839154780, 0.0729424730, -0.1278583407, -0.0320675895, -0.0253964551, -0.3353979588, 0.0062138634, -0.0857961103, 0.0267990306, -0.0339159332, 0.1828423589, 0.1785524935, -0.2633046806, -0.0258018635, -0.4144046307, -0.1522239149, -0.0913815722, -0.1352904737, -0.0189475436, -0.0742537528, -0.1488424391, 0.1521334797, -0.0824094638, 0.0523236915, -0.0162854698, 0.2288322449, -0.0230883192, 0.1654032916, -0.5023156404, -0.3736880124, 0.1766699106, 0.1808902919, -0.4739051759, -0.0588977374, -0.1682171971, 0.0873397142, 0.1941178888, -0.2029859275, -0.4265917838, -0.2414393574, 0.0335932747, -0.0613389574, -0.2050927132, 0.0690853074, 0.1666935384, -0.4051377475, -0.0157633852, -0.5862122178, -0.4195873439, -0.1404381990, 0.1606136560, -0.3764780760, 0.0528960079, 0.1119022816, -0.0363367535 },
  { 0.2200491577, 0.0431228578, 0.4745854735, -0.0077766003, 0.1624343842, -0.1529765725, 0.0152521115, 0.1533314735, -0.4635386467, 0.0954657346, -0.0152863702, -0.0764204040, 0.0252011381, -0.3369785249, -0.1648246944, 0.1447225213, 0.0655230135, -0.1890386492, 0.1402538568, -0.1373519450, -0.0001163607, 0.1876066476, 0.2161701322, 0.1858928353, 0.0140197072, -0.0460580476, 0.0536073409, -0.4691158831, 0.1356189102, 0.0685691833, 0.2251529694, -0.1568283737, -0.3445838988, 0.2700145245, 0.1329047680, 0.0458649434, -0.0974325985, 0.1675060242, 0.1827586144, 0.0345129818, -0.0745603144, 0.0191698652, -0.0122664049, -0.0119557865, -0.0681302845, -0.0245633274, 0.0431188606, 0.1705237925, -0.0099226041, -0.0641929880, 0.0964306742, -0.2066572756, -0.1003062502, 0.1590209156, -0.1131754890, 0.1021662876, 0.0237817261, 0.2134720236, 0.0654739439, 0.1974239796, 0.2295462340, 0.0686448887, 0.1116269827, 0.0744616091, -0.0889336392, -0.2193978131, -0.3019867241, -0.1189059466, 0.3710803390, -0.3123441339, -0.0104083018, 0.0757990703, -0.0192703530, -0.2734200656, 0.0818179399, -0.2489011735, -0.3275088072, 0.1568131596, -0.0744466558, -0.0050168880, 0.0430382714, -0.3627226949, 0.1000090986, -0.0352343991, -0.0620803013, 0.2841807008, -0.6800273657, -0.2841706276, -0.0432598218, 0.0129845841, -0.3688737750, -0.2633754313, -0.0943914875, -0.0945293754, 0.0177819226, -0.3684621453, -0.4207170904, 0.0235209074, -0.0221528858, 0.0162779242, -0.3678470254, -0.5844210386, 0.0581702292, -0.1542625129, -0.1369824260, -0.3664259911, -0.4392771423, 0.0454294235, -0.0597583838, -0.2291136384, 0.1044995934, 0.1000570729, 0.1450073123, -0.0241773017, -0.1300160140, -0.0323705375, -0.0596335717, -0.0150232343, 0.0304118376, -0.0451147370 },
  { -0.2068136483, -0.1159929931, 0.0861947164, -0.0539192259, 0.2043820918, 0.0678224191, -0.0137170199, 0.4848170280, 0.1182387993, -0.1450919509, -0.4301410615, 0.2554638088, 0.1628106833, -0.3696810007, -0.3991849124, -0.1189733148, -0.0243935306, 0.0225895122, -0.0949247032, -0.1324962229, 0.1582032591, -0.3047108650, 0.0804123059, 0.1053142622, -0.0074303849, -0.5264710784, 0.0377184190, 0.0120461537, -0.3479112685, 0.1459305286, -0.5424763560, 0.1863840967, 0.0459804498, -0.1925406158, 0.1689621210, 0.0577017330, -0.0204895902, -0.2627512515, 0.0221790355, -0.0811710060, -0.0609359294, 0.1668558717, -0.0444524065, -0.2138320953, 0.1014925465, -0.0410125256, -0.0636014342, -0.2475005388, -0.0154366139, 0.0347967111, 0.0144267157, -0.3573127389, -0.2195521295, 0.1377189159, 0.1257698983, -0.0193935297, 0.1486842483, -0.0145713650, 0.0383222997, -0.1893422306, -0.4787839353, 0.0242897868, -0.0184279960, 0.1324311495, 0.1736014485, 0.3232613206, 0.1251453459, -0.0189539492, -0.6279615164, -0.0912488997, 0.1008258238, 0.0340392441, 0.1319054365, -0.0836417004, 0.0752563924, -0.0660060272, 0.2335626036, 0.0541787036, -0.0210605338, 0.2463768870, 0.1525894701, 0.1811617613, 0.0451614037, -0.0624103546, -0.0168565921, -0.4319606423, 0.0272360817, 0.0632413402, -0.0824630037, 0.0142217595, -0.0302532390, 0.1182157770, 0.1680171639, -0.0990558863, 0.0438939482, 0.2955505848, 0.0784203559, -0.1796738207, -0.0890890360, -0.3884705603, -0.0124980081, -0.3470055759, 0.0711510256, 0.1003098190, 0.1202261150, 0.0665060654, -0.1357733458, 0.2195195109, 0.0429066420, -0.1256608963, -0.2037814409, -0.3586164117, 0.1219572276, 0.1409460902, 0.1067163870, 0.1144465581, 0.0442913435, 0.1140255705, -0.0292013064, 0.0428899415 },
  { -0.0636379644, 0.0359648876, -0.1779157966, -0.0617060214, 0.0002258713, 0.2398835123, 0.0722139031, 0.0102125192, 0.2228787690, 0.1167433336, 0.1531462818, -0.1939711422, 0.1120271161, 0.1678970903, 0.1755859554, -0.2677206695, 0.1934271008, 0.2069398314, 0.1859069616, 0.1222689748, -0.1919513196, 0.1992162615, -0.5022560358, -0.2722345889, 0.0375693589, 0.0381414220, -0.0039098319, -0.0833848640, 0.0465896539, -0.2590871751, -0.0188369807, 0.1560333818, 0.0871022418, -0.3009302914, -0.1246630698, -0.3700885773, 0.0622634217, -0.2567195296, 0.0402977094, 0.1234467253, -0.0358980037, -0.3622586429, -0.0085345330, 0.0939824581, -0.0842233300, 0.0214886609, 0.0200955272, -0.3897387385, 0.0133825531, -0.0110749025, 0.0237366799, 0.0589753576, -0.0003282327, -0.4213189781, 0.0671535581, -0.3233303130, -0.4435992837, 0.2034009099, -0.0581423491, 0.0994173214, 0.1858969927, -0.2569413185, -0.3246872425, -0.0596924350, 0.1082048491, 0.0340618081, -0.2746994793, -0.0439846553, 0.0771914646, 0.0749045163, 0.0960443914, -0.0626143888, -0.1140413657, 0.0066911201, -0.1865024716, -0.1988256872, -0.2113919854, 0.1768637598, 0.0265098028, 0.0722707137, 0.1442691386, 0.0073537347, -0.1076351106, -0.0187763479, -0.0138481185, 0.0690784380, 0.2456024140, 0.0943878517, 0.0042480887, 0.0702545792, 0.2889167070, 0.1187711358, -0.1897529513, 0.1671189517, 0.1121937484, -0.2559883296, 0.0613814220, -0.0177541655, 0.0204229932, 0.2130992860, -0.1129746437, -0.2703786194, 0.0720754340, 0.1071876362, 0.1972420365, -0.0226930883, -0.1018025056, -0.4141879976, -0.0455109589, -0.6639218926, 0.0489558466, -0.8200966716, 0.2118408233, 0.0611955673, -0.0532851964, -0.4019018412, 0.1149566248, 0.1020813659, -0.0965825021, 0.0094425585 }
};

#endif
